svm_type c_svc
kernel_type rbf
gamma 1
nr_class 3
total_sv 651
rho 4.7647220731820248 0.88147288958359526 0.87800735108473271
label 0 1 2
nr_sv 311 314 26
SV
1 1 1:-0.011154506 2:-0.021392518 3:-0.014942791 4:-0.0092600989 5:-0.010238012 6:-0.0037882855 7:0.0018944067 8:0.0064497265 9:0.012132419 10:0.0056826923 11:-0.011162228 12:-0.021370055 13:-0.015049391 14:-0.0092925443 15:-0.010207827 16:-0.0038871638 17:0.0018696833 18:0.0063206635 19:0.012077511 20:0.0057568471 21:-0.011164496 22:-0.021359186 23:-0.015173008 24:-0.00930715 25:-0.01019469 26:-0.0040085118 27:0.0018573464 28:0.0061861779 29:0.012052036 30:0.0058658582 
1 0.16503581433318096 1:-0.011162228 2:-0.021370055 3:-0.015049391 4:-0.0092925443 5:-0.010207827 6:-0.0038871638 7:0.0018696833 8:0.0063206635 9:0.012077511 10:0.0057568471 11:-0.011164496 12:-0.021359186 13:-0.015173008 14:-0.00930715 15:-0.01019469 16:-0.0040085118 17:0.0018573464 18:0.0061861779 19:0.012052036 20:0.0058658582 21:-0.011161334 22:-0.021363337 23:-0.01531292 24:-0.0093069322 25:-0.010202002 26:-0.0041515856 27:0.0018544022 28:0.0060504167 29:0.012056404 30:0.0060059878 
1 0 1:-0.011164496 2:-0.021359186 3:-0.015173008 4:-0.00930715 5:-0.01019469 6:-0.0040085118 7:0.0018573464 8:0.0061861779 9:0.012052036 10:0.0058658582 11:-0.011161334 12:-0.021363337 13:-0.01531292 14:-0.0093069322 15:-0.010202002 16:-0.0041515856 17:0.0018544022 18:0.0060504167 19:0.012056404 20:0.0060059878 21:-0.011154428 22:-0.021384118 23:-0.015467817 24:-0.0092991401 25:-0.01022969 26:-0.0043133885 27:0.0018552882 28:0.0059163015 29:0.012084978 30:0.0061686767 
1 0 1:-0.011161334 2:-0.021363337 3:-0.01531292 4:-0.0093069322 5:-0.010202002 6:-0.0041515856 7:0.0018544022 8:0.0060504167 9:0.012056404 10:0.0060059878 11:-0.011154428 12:-0.021384118 13:-0.015467817 14:-0.0092991401 15:-0.01022969 16:-0.0043133885 17:0.0018552882 18:0.0059163015 19:0.012084978 20:0.0061686767 21:-0.011145055 22:-0.021419978 23:-0.015634852 24:-0.0092934179 25:-0.010274923 26:-0.0044897975 27:0.0018516366 28:0.0057851258 29:0.01212656 30:0.0063414341 
1 0 1:-0.011154428 2:-0.021384118 3:-0.015467817 4:-0.0092991401 5:-0.01022969 6:-0.0043133885 7:0.0018552882 8:0.0059163015 9:0.012084978 10:0.0061686767 11:-0.011145055 12:-0.021419978 13:-0.015634852 14:-0.0092934179 15:-0.010274923 16:-0.0044897975 17:0.0018516366 18:0.0057851258 19:0.01212656 20:0.0063414341 21:-0.011133171 22:-0.021465291 23:-0.015807048 24:-0.0092975482 25:-0.010332121 26:-0.0046738768 27:0.0018356224 28:0.0056582439 29:0.012167743 30:0.0065094993 
1 0 1:-0.011145055 2:-0.021419978 3:-0.015634852 4:-0.0092934179 5:-0.010274923 6:-0.0044897975 7:0.0018516366 8:0.0057851258 9:0.01212656 10:0.0063414341 11:-0.011133171 12:-0.021465291 13:-0.015807048 14:-0.0092975482 15:-0.010332121 16:-0.0046738768 17:0.0018356224 18:0.0056582439 19:0.012167743 20:0.0065094993 21:-0.011119773 22:-0.021512062 23:-0.015975562 24:-0.0093159727 25:-0.010392289 26:-0.0048557889 27:0.0018038001 28:0.0055364999 29:0.012196089 30:0.006659589 
1 0 1:-0.011133171 2:-0.021465291 3:-0.015807048 4:-0.0092975482 5:-0.010332121 6:-0.0046738768 7:0.0018356224 8:0.0056582439 9:0.012167743 10:0.0065094993 11:-0.011119773 12:-0.021512062 13:-0.015975562 14:-0.0093159727 15:-0.010392289 16:-0.0048557889 17:0.0018038001 18:0.0055364999 19:0.012196089 20:0.006659589 21:-0.011106387 22:-0.02155124 23:-0.016128103 24:-0.009346563 25:-0.010444852 26:-0.005021716 27:0.0017598243 28:0.0054231363 29:0.012204677 30:0.0067815403 
1 0 1:-0.011119773 2:-0.021512062 3:-0.015975562 4:-0.0093159727 5:-0.010392289 6:-0.0048557889 7:0.0018038001 8:0.0055364999 9:0.012196089 10:0.006659589 11:-0.011106387 12:-0.02155124 13:-0.016128103 14:-0.009346563 15:-0.010444852 16:-0.005021716 17:0.0017598243 18:0.0054231363 19:0.012204677 20:0.0067815403 21:-0.011095731 22:-0.021575537 23:-0.016252173 24:-0.0093822085 25:-0.010479806 26:-0.0051564425 27:0.0017135221 28:0.0053233639 29:0.012193328 30:0.0068699646 
1 0 1:-0.011106387 2:-0.02155124 3:-0.016128103 4:-0.009346563 5:-0.010444852 6:-0.005021716 7:0.0017598243 8:0.0054231363 9:0.012204677 10:0.0067815403 11:-0.011095731 12:-0.021575537 13:-0.016252173 14:-0.0093822085 15:-0.010479806 16:-0.0051564425 17:0.0017135221 18:0.0053233639 19:0.012193328 20:0.0068699646 21:-0.01109039 22:-0.021580894 23:-0.01633627 24:-0.0094130883 25:-0.010490505 26:-0.0052458806 27:0.0016773012 28:0.0052446241 29:0.012167806 30:0.0069231818 
1 0 1:-0.011095731 2:-0.021575537 3:-0.016252173 4:-0.0093822085 5:-0.010479806 6:-0.0051564425 7:0.0017135221 8:0.0053233639 9:0.012193328 10:0.0068699646 11:-0.01109039 12:-0.021580894 13:-0.01633627 14:-0.0094130883 15:-0.010490505 16:-0.0052458806 17:0.0016773012 18:0.0052446241 19:0.012167806 20:0.0069231818 21:-0.011092053 22:-0.021566695 23:-0.016371043 24:-0.009427743 25:-0.010474641 26:-0.00527899 27:0.0016643101 28:0.0051956514 29:0.012138952 30:0.0069433001 
1 0 1:-0.01109039 2:-0.021580894 3:-0.01633627 4:-0.0094130883 5:-0.010490505 6:-0.0052458806 7:0.0016773012 8:0.0052446241 9:0.012167806 10:0.0069231818 11:-0.011092053 12:-0.021566695 13:-0.016371043 14:-0.009427743 15:-0.010474641 16:-0.00527899 17:0.0016643101 18:0.0051956514 19:0.012138952 20:0.0069433001 21:-0.011101145 22:-0.021536353 23:-0.016352478 24:-0.0094194408 25:-0.010435208 26:-0.0052513336 27:0.001681704 28:0.0051838742 29:0.012116912 30:0.0069330376 
1 0 1:-0.011092053 2:-0.021566695 3:-0.016371043 4:-0.009427743 5:-0.010474641 6:-0.00527899 7:0.0016643101 8:0.0051956514 9:0.012138952 10:0.0069433001 11:-0.011101145 12:-0.021536353 13:-0.016352478 14:-0.0094194408 15:-0.010435208 16:-0.0052513336 17:0.001681704 18:0.0051838742 19:0.012116912 20:0.0069330376 21:-0.011113545 22:-0.021494697 23:-0.016280823 24:-0.0093839658 25:-0.010381152 26:-0.0051672773 27:0.0017295795 28:0.0052138743 29:0.012110731 30:0.0068968568 
1 0 1:-0.011101145 2:-0.021536353 3:-0.016352478 4:-0.0094194408 5:-0.010435208 6:-0.0052513336 7:0.001681704 8:0.0051838742 9:0.012116912 10:0.0069330376 11:-0.011113545 12:-0.021494697 13:-0.016280823 14:-0.0093839658 15:-0.010381152 16:-0.0051672773 17:0.0017295795 18:0.0052138743 19:0.012110731 20:0.0068968568 21:-0.011124713 22:-0.021447484 23:-0.016163153 24:-0.0093241901 25:-0.010322772 26:-0.0050384403 27:0.0018005226 28:0.0052843314 29:0.012123294 30:0.0068389629 
1 0 1:-0.011113545 2:-0.021494697 3:-0.016280823 4:-0.0093839658 5:-0.010381152 6:-0.0051672773 7:0.0017295795 8:0.0052138743 9:0.012110731 10:0.0068968568 11:-0.011124713 12:-0.021447484 13:-0.016163153 14:-0.0093241901 15:-0.010322772 16:-0.0050384403 17:0.0018005226 18:0.0052843314 19:0.012123294 20:0.0068389629 21:-0.011128233 22:-0.021399868 23:-0.016012769 24:-0.0092483369 25:-0.010271636 26:-0.0048845366 27:0.0018798956 28:0.0053870991 29:0.012151531 30:0.0067644322 
1 0 1:-0.011124713 2:-0.021447484 3:-0.016163153 4:-0.0093241901 5:-0.010322772 6:-0.0050384403 7:0.0018005226 8:0.0052843314 9:0.012123294 10:0.0068389629 11:-0.011128233 12:-0.021399868 13:-0.016012769 14:-0.0092483369 15:-0.010271636 16:-0.0048845366 17:0.0018798956 18:0.0053870991 19:0.012151531 20:0.0067644322 21:-0.011118609 22:-0.021353767 23:-0.01584655 24:-0.0091669859 25:-0.010235159 26:-0.0047279411 27:0.0019516227 28:0.0055072176 29:0.012186781 30:0.0066795638 
1 0 1:-0.011128233 2:-0.021399868 3:-0.016012769 4:-0.0092483369 5:-0.010271636 6:-0.0048845366 7:0.0018798956 8:0.0053870991 9:0.012151531 10:0.0067644322 11:-0.011118609 12:-0.021353767 13:-0.01584655 14:-0.0091669859 15:-0.010235159 16:-0.0047279411 17:0.0019516227 18:0.0055072176 19:0.012186781 20:0.0066795638 21:-0.011095857 22:-0.021312547 23:-0.015686503 24:-0.0090956099 25:-0.01021669 26:-0.0045906458 27:0.0020002473 28:0.0056260438 29:0.012216937 30:0.0065908931 
1 0 1:-0.011118609 2:-0.021353767 3:-0.01584655 4:-0.0091669859 5:-0.010235159 6:-0.0047279411 7:0.0019516227 8:0.0055072176 9:0.012186781 10:0.0066795638 11:-0.011095857 12:-0.021312547 13:-0.015686503 14:-0.0090956099 15:-0.01021669 16:-0.0045906458 17:0.0020002473 18:0.0056260438 19:0.012216937 20:0.0065908931 21:-0.011062666 22:-0.021278305 23:-0.015555013 24:-0.0090470702 25:-0.010215639 26:-0.0044923475 27:0.0020155957 28:0.0057232918 29:0.012231235 30:0.0065079432 
1 0 1:-0.011095857 2:-0.021312547 3:-0.015686503 4:-0.0090956099 5:-0.01021669 6:-0.0045906458 7:0.0020002473 8:0.0056260438 9:0.012216937 10:0.0065908931 11:-0.011062666 12:-0.021278305 13:-0.015555013 14:-0.0090470702 15:-0.010215639 16:-0.0044923475 17:0.0020155957 18:0.0057232918 19:0.012231235 20:0.0065079432 21:-0.011029626 22:-0.021256736 23:-0.015474643 24:-0.0090350016 25:-0.01022711 26:-0.0044450168 27:0.0019946244 28:0.0057820928 29:0.012221734 30:0.0064396412 
1 0 1:-0.011062666 2:-0.021278305 3:-0.015555013 4:-0.0090470702 5:-0.010215639 6:-0.0044923475 7:0.0020155957 8:0.0057232918 9:0.012231235 10:0.0065079432 11:-0.011029626 12:-0.021256736 13:-0.015474643 14:-0.0090350016 15:-0.01022711 16:-0.0044450168 17:0.0019946244 18:0.0057820928 19:0.012221734 20:0.0064396412 21:-0.01101079 22:-0.021254658 23:-0.01546393 24:-0.0090690614 25:-0.010243868 26:-0.0044531394 27:0.0019417289 28:0.0057907282 29:0.012185597 30:0.0063948683 
1 0 1:-0.011029626 2:-0.021256736 3:-0.015474643 4:-0.0090350016 5:-0.01022711 6:-0.0044450168 7:0.0019946244 8:0.0057820928 9:0.012221734 10:0.0064396412 11:-0.01101079 12:-0.021254658 13:-0.01546393 14:-0.0090690614 15:-0.010243868 16:-0.0044531394 17:0.0019417289 18:0.0057907282 19:0.012185597 20:0.0063948683 21:-0.0110207 22:-0.021280042 23:-0.015534933 24:-0.0091541903 25:-0.010259342 26:-0.004514233 27:0.0018665095 28:0.0057451094 29:0.012125852 30:0.0063807425 
1 0 1:-0.01101079 2:-0.021254658 3:-0.01546393 4:-0.0090690614 5:-0.010243868 6:-0.0044531394 7:0.0019417289 8:0.0057907282 9:0.012185597 10:0.0063948683 11:-0.0110207 12:-0.021280042 13:-0.015534933 14:-0.0091541903 15:-0.010259342 16:-0.004514233 17:0.0018665095 18:0.0057451094 19:0.012125852 20:0.0063807425 21:-0.011069302 22:-0.021339394 23:-0.015689737 24:-0.0092890351 25:-0.010270092 26:-0.0046204351 27:0.0017802671 28:0.005649657 29:0.012050359 30:0.0064007022 
1 0 1:-0.0110207 2:-0.021280042 3:-0.015534933 4:-0.0091541903 5:-0.010259342 6:-0.004514233 7:0.0018665095 8:0.0057451094 9:0.012125852 10:0.0063807425 11:-0.011069302 12:-0.021339394 13:-0.015689737 14:-0.0092890351 15:-0.010270092 16:-0.0046204351 17:0.0017802671 18:0.005649657 19:0.012050359 20:0.0064007022 21:-0.011158957 22:-0.021435138 23:-0.01592041 24:-0.0094651618 25:-0.010276181 26:-0.0047614536 27:0.0016937948 28:0.0055147279 29:0.011969976 30:0.0064552484 
1 0 1:-0.011069302 2:-0.021339394 3:-0.015689737 4:-0.0092890351 5:-0.010270092 6:-0.0046204351 7:0.0017802671 8:0.005649657 9:0.012050359 10:0.0064007022 11:-0.011158957 12:-0.021435138 13:-0.01592041 14:-0.0094651618 15:-0.010276181 16:-0.0047614536 17:0.0016937948 18:0.0055147279 19:0.011969976 20:0.0064552484 21:-0.011283385 22:-0.021564037 23:-0.016209021 24:-0.0096683577 25:-0.010280652 26:-0.0049256364 27:0.0016150269 28:0.0053550157 29:0.011895679 30:0.0065406633 
1 0 1:-0.011158957 2:-0.021435138 3:-0.01592041 4:-0.0094651618 5:-0.010276181 6:-0.0047614536 7:0.0016937948 8:0.0055147279 9:0.011969976 10:0.0064552484 11:-0.011283385 12:-0.021564037 13:-0.016209021 14:-0.0096683577 15:-0.010280652 16:-0.0049256364 17:0.0016150269 18:0.0053550157 19:0.011895679 20:0.0065406633 21:-0.01142595 22:-0.021715528 23:-0.016529435 24:-0.0098783322 25:-0.010289578 26:-0.0051034847 27:0.0015476182 28:0.0051860929 29:0.011837196 30:0.0066511028 
1 0 1:-0.011283385 2:-0.021564037 3:-0.016209021 4:-0.0096683577 5:-0.010280652 6:-0.0049256364 7:0.0016150269 8:0.0053550157 9:0.011895679 10:0.0065406633 11:-0.01142595 12:-0.021715528 13:-0.016529435 14:-0.0098783322 15:-0.010289578 16:-0.0051034847 17:0.0015476182 18:0.0051860929 19:0.011837196 20:0.0066511028 21:-0.01156685 22:-0.021875414 23:-0.016854268 24:-0.01007526 25:-0.010308564 26:-0.0052874177 27:0.0014915905 28:0.0050211465 29:0.011800155 30:0.0067790082 
1 0 1:-0.01142595 2:-0.021715528 3:-0.016529435 4:-0.0098783322 5:-0.010289578 6:-0.0051034847 7:0.0015476182 8:0.0051860929 9:0.011837196 10:0.0066511028 11:-0.01156685 12:-0.021875414 13:-0.016854268 14:-0.01007526 15:-0.010308564 16:-0.0052874177 17:0.0014915905 18:0.0050211465 19:0.011800155 20:0.0067790082 21:-0.01168442 22:-0.022026265 23:-0.01715605 24:-0.010239609 25:-0.010341846 26:-0.0054716307 27:0.0014448111 28:0.0048702151 29:0.011786657 30:0.0069164418 
1 0 1:-0.01156685 2:-0.021875414 3:-0.016854268 4:-0.01007526 5:-0.010308564 6:-0.0052874177 7:0.0014915905 8:0.0050211465 9:0.011800155 10:0.0067790082 11:-0.01168442 12:-0.022026265 13:-0.01715605 14:-0.010239609 15:-0.010341846 16:-0.0054716307 17:0.0014448111 18:0.0048702151 19:0.011786657 20:0.0069164418 21:-0.011761146 22:-0.022152467 23:-0.017413527 24:-0.010356824 25:-0.010391321 26:-0.0056523802 27:0.0014043228 28:0.0047389405 29:0.011795643 30:0.007056703 
1 0 1:-0.01168442 2:-0.022026265 3:-0.01715605 4:-0.010239609 5:-0.010341846 6:-0.0054716307 7:0.0014448111 8:0.0048702151 9:0.011786657 10:0.0069164418 11:-0.011761146 12:-0.022152467 13:-0.017413527 14:-0.010356824 15:-0.010391321 16:-0.0056523802 17:0.0014043228 18:0.0047389405 19:0.011795643 20:0.007056703 21:-0.011787031 22:-0.022243265 23:-0.017612908 24:-0.01041861 25:-0.010456234 26:-0.0058258767 27:0.0013684212 28:0.0046303571 29:0.011824655 30:0.0071942979 
1 0 1:-0.011761146 2:-0.022152467 3:-0.017413527 4:-0.010356824 5:-0.010391321 6:-0.0056523802 7:0.0014043228 8:0.0047389405 9:0.011795643 10:0.007056703 11:-0.011787031 12:-0.022243265 13:-0.017612908 14:-0.01041861 15:-0.010456234 16:-0.0058258767 17:0.0013684212 18:0.0046303571 19:0.011824655 20:0.0071942979 21:-0.011763146 22:-0.022296123 23:-0.017750729 24:-0.010424426 25:-0.010532978 26:-0.0059875838 27:0.0013387195 28:0.0045453939 29:0.011871697 30:0.0073263032 
1 0 1:-0.011787031 2:-0.022243265 3:-0.017612908 4:-0.01041861 5:-0.010456234 6:-0.0058258767 7:0.0013684212 8:0.0046303571 9:0.011824655 10:0.0071942979 11:-0.011763146 12:-0.022296123 13:-0.017750729 14:-0.010424426 15:-0.010532978 16:-0.0059875838 17:0.0013387195 18:0.0045453939 19:0.011871697 20:0.0073263032 21:-0.011699718 22:-0.022314773 23:-0.01783039 24:-0.010381823 25:-0.010615055 26:-0.0061306723 27:0.0013178951 28:0.0044843824 29:0.01193295 30:0.0074485674 
1 0 1:-0.011763146 2:-0.022296123 3:-0.017750729 4:-0.010424426 5:-0.010532978 6:-0.0059875838 7:0.0013387195 8:0.0045453939 9:0.011871697 10:0.0073263032 11:-0.011699718 12:-0.022314773 13:-0.01783039 14:-0.010381823 15:-0.010615055 16:-0.0061306723 17:0.0013178951 18:0.0044843824 19:0.01193295 20:0.0074485674 21:-0.011613183 22:-0.022307885 23:-0.017861029 24:-0.010304189 25:-0.010694701 26:-0.0062478454 27:0.0013089942 28:0.0044468561 29:0.012003696 30:0.0075568396 
1 0 1:-0.011699718 2:-0.022314773 3:-0.01783039 4:-0.010381823 5:-0.010615055 6:-0.0061306723 7:0.0013178951 8:0.0044843824 9:0.01193295 10:0.0074485674 11:-0.011613183 12:-0.022307885 13:-0.017861029 14:-0.010304189 15:-0.010694701 16:-0.0062478454 17:0.0013089942 18:0.0044468561 19:0.012003696 20:0.0075568396 21:-0.011520516 22:-0.022285531 23:-0.017854381 24:-0.010208783 25:-0.010765015 26:-0.0063338655 27:0.001311733 28:0.0044311497 29:0.012076748 30:0.0076455985 
1 0 1:-0.011613183 2:-0.022307885 3:-0.017861029 4:-0.010304189 5:-0.010694701 6:-0.0062478454 7:0.0013089942 8:0.0044468561 9:0.012003696 10:0.0075568396 11:-0.011520516 12:-0.022285531 13:-0.017854381 14:-0.010208783 15:-0.010765015 16:-0.0063338655 17:0.001311733 18:0.0044311497 19:0.012076748 20:0.0076455985 21:-0.01143444 22:-0.022255937 23:-0.017820974 24:-0.010111851 25:-0.010821497 26:-0.0063865341 27:0.0013225894 28:0.0044349632 29:0.012144087 30:0.0077091236 
1 0 1:-0.011520516 2:-0.022285531 3:-0.017854381 4:-0.010208783 5:-0.010765015 6:-0.0063338655 7:0.001311733 8:0.0044311497 9:0.012076748 10:0.0076455985 11:-0.01143444 12:-0.022255937 13:-0.017820974 14:-0.010111851 15:-0.010821497 16:-0.0063865341 17:0.0013225894 18:0.0044349632 19:0.012144087 20:0.0077091236 21:-0.011360945 22:-0.022225269 23:-0.017769605 24:-0.010025736 25:-0.010864323 26:-0.0064086599 27:0.0013352095 28:0.0044556633 29:0.012199533 30:0.0077438694 
1 0 1:-0.01143444 2:-0.022255937 3:-0.017820974 4:-0.010111851 5:-0.010821497 6:-0.0063865341 7:0.0013225894 8:0.0044349632 9:0.012144087 10:0.0077091236 11:-0.011360945 12:-0.022225269 13:-0.017769605 14:-0.010025736 15:-0.010864323 16:-0.0064086599 17:0.0013352095 18:0.0044556633 19:0.012199533 20:0.0077438694 21:-0.011297846 22:-0.022194661 23:-0.01770492 24:-0.0099563358 25:-0.010896815 26:-0.0064070741 27:0.0013415104 28:0.0044897409 29:0.012238325 30:0.0077485846 
1 0 1:-0.011360945 2:-0.022225269 3:-0.017769605 4:-0.010025736 5:-0.010864323 6:-0.0064086599 7:0.0013352095 8:0.0044556633 9:0.012199533 10:0.0077438694 11:-0.011297846 12:-0.022194661 13:-0.01770492 14:-0.0099563358 15:-0.010896815 16:-0.0064070741 17:0.0013415104 18:0.0044897409 19:0.012238325 20:0.0077485846 21:-0.011239054 22:-0.02216452 23:-0.017630987 24:-0.0099041408 25:-0.010925467 26:-0.0063919333 27:0.001334913 28:0.0045335334 29:0.01226038 30:0.0077268462 
1 0 1:-0.011297846 2:-0.022194661 3:-0.01770492 4:-0.0099563358 5:-0.010896815 6:-0.0064070741 7:0.0013415104 8:0.0044897409 9:0.012238325 10:0.0077485846 11:-0.011239054 12:-0.02216452 13:-0.017630987 14:-0.0099041408 15:-0.010925467 16:-0.0063919333 17:0.001334913 18:0.0045335334 19:0.01226038 20:0.0077268462 21:-0.01117515 22:-0.022132182 23:-0.017548918 24:-0.0098636684 25:-0.010957032 26:-0.0063737684 27:0.0013114813 28:0.004583264 29:0.012268514 30:0.0076852497 
1 0 1:-0.011239054 2:-0.02216452 3:-0.017630987 4:-0.0099041408 5:-0.010925467 6:-0.0063919333 7:0.001334913 8:0.0045335334 9:0.01226038 10:0.0077268462 11:-0.01117515 12:-0.022132182 13:-0.017548918 14:-0.0098636684 15:-0.010957032 16:-0.0063737684 17:0.0013114813 18:0.004583264 19:0.012268514 20:0.0076852497 21:-0.011100413 22:-0.022097677 23:-0.017462776 24:-0.0098290285 25:-0.010997264 26:-0.0063623631 27:0.0012713845 28:0.0046349008 29:0.012268648 30:0.0076337476 
1 0 1:-0.01117515 2:-0.022132182 3:-0.017548918 4:-0.0098636684 5:-0.010957032 6:-0.0063737684 7:0.0013114813 8:0.004583264 9:0.012268514 10:0.0076852497 11:-0.011100413 12:-0.022097677 13:-0.017462776 14:-0.0098290285 15:-0.010997264 16:-0.0063623631 17:0.0012713845 18:0.0046349008 19:0.012268648 20:0.0076337476 21:-0.011012529 22:-0.022061209 23:-0.017378018 24:-0.0097948605 25:-0.01104868 26:-0.0063654889 27:0.0012176683 28:0.004683191 29:0.012266348 30:0.0075831572 
1 0 1:-0.011100413 2:-0.022097677 3:-0.017462776 4:-0.0098290285 5:-0.010997264 6:-0.0063623631 7:0.0012713845 8:0.0046349008 9:0.012268648 10:0.0076337476 11:-0.011012529 12:-0.022061209 13:-0.017378018 14:-0.0097948605 15:-0.01104868 16:-0.0063654889 17:0.0012176683 18:0.004683191 19:0.012266348 20:0.0075831572 21:-0.010915236 22:-0.02202558 23:-0.017304092 24:-0.0097590152 25:-0.011110344 26:-0.006388856 27:0.0011562212 28:0.0047214879 29:0.012266565 30:0.0075450772 
1 0 1:-0.011012529 2:-0.022061209 3:-0.017378018 4:-0.0097948605 5:-0.01104868 6:-0.0063654889 7:0.0012176683 8:0.004683191 9:0.012266348 10:0.0075831572 11:-0.010915236 12:-0.02202558 13:-0.017304092 14:-0.0097590152 15:-0.011110344 16:-0.006388856 17:0.0011562212 18:0.0047214879 19:0.012266565 20:0.0075450772 21:-0.01081527 22:-0.021992549 23:-0.017250114 24:-0.0097223794 25:-0.011177279 26:-0.0064348439 27:0.0010928906 28:0.0047424353 29:0.01227017 30:0.0075277345 
1 0 1:-0.010915236 2:-0.02202558 3:-0.017304092 4:-0.0097590152 5:-0.011110344 6:-0.006388856 7:0.0011562212 8:0.0047214879 9:0.012266565 10:0.0075450772 11:-0.01081527 12:-0.021992549 13:-0.017250114 14:-0.0097223794 15:-0.011177279 16:-0.0064348439 17:0.0010928906 18:0.0047424353 19:0.01227017 20:0.0075277345 21:-0.010721677 22:-0.02196502 23:-0.017226101 24:-0.0096896217 25:-0.011243343 26:-0.0065044233 27:0.0010320556 28:0.0047389197 29:0.012275399 30:0.0075364789 
1 0 1:-0.01081527 2:-0.021992549 3:-0.017250114 4:-0.0097223794 5:-0.011177279 6:-0.0064348439 7:0.0010928906 8:0.0047424353 9:0.01227017 10:0.0075277345 11:-0.010721677 12:-0.02196502 13:-0.017226101 14:-0.0096896217 15:-0.011243343 16:-0.0065044233 17:0.0010320556 18:0.0047389197 19:0.012275399 20:0.0075364789 21:-0.010641733 22:-0.021943601 23:-0.017238888 24:-0.0096662182 25:-0.011301869 26:-0.0065971553 27:0.00097551468 28:0.0047047133 29:0.012277383 30:0.00757267 
1 0 1:-0.010721677 2:-0.02196502 3:-0.017226101 4:-0.0096896217 5:-0.011243343 6:-0.0065044233 7:0.0010320556 8:0.0047389197 9:0.012275399 10:0.0075364789 11:-0.010641733 12:-0.021943601 13:-0.017238888 14:-0.0096662182 15:-0.011301869 16:-0.0065971553 17:0.00097551468 18:0.0047047133 19:0.012277383 20:0.00757267 21:-0.01057923 22:-0.021928739 23:-0.017290331 24:-0.0096565262 25:-0.011349508 26:-0.0067111005 27:0.00092270418 28:0.0046384077 29:0.012272212 30:0.0076338047 
1 0 1:-0.010641733 2:-0.021943601 3:-0.017238888 4:-0.0096662182 5:-0.011301869 6:-0.0065971553 7:0.00097551468 8:0.0047047133 9:0.012277383 10:0.00757267 11:-0.01057923 12:-0.021928739 13:-0.017290331 14:-0.0096565262 15:-0.011349508 16:-0.0067111005 17:0.00092270418 18:0.0046384077 19:0.012272212 20:0.0076338047 21:-0.010535132 22:-0.021920988 23:-0.017376925 24:-0.0096631095 25:-0.011385856 26:-0.0068417938 27:0.00087202199 28:0.0045440624 29:0.012257878 30:0.0077138158 
1 0 1:-0.01057923 2:-0.021928739 3:-0.017290331 4:-0.0096565262 5:-0.011349508 6:-0.0067111005 7:0.00092270418 8:0.0046384077 9:0.012272212 10:0.0076338047 11:-0.010535132 12:-0.021920988 13:-0.017376925 14:-0.0096631095 15:-0.011385856 16:-0.0068417938 17:0.00087202199 18:0.0045440624 19:0.012257878 20:0.0077138158 21:-0.010506096 22:-0.02192198 23:-0.017489657 24:-0.0096847379 25:-0.011415883 26:-0.006983561 27:0.00082135838 28:0.0044323222 29:0.012237242 30:0.0078049194 
1 0 1:-0.010535132 2:-0.021920988 3:-0.017376925 4:-0.0096631095 5:-0.011385856 6:-0.0068417938 7:0.00087202199 8:0.0045440624 9:0.012257878 10:0.0077138158 11:-0.010506096 12:-0.02192198 13:-0.017489657 14:-0.0096847379 15:-0.011415883 16:-0.006983561 17:0.00082135838 18:0.0044323222 19:0.012237242 20:0.0078049194 21:-0.010486494 22:-0.021933961 23:-0.017616112 24:-0.0097180046 25:-0.011447467 26:-0.0071296181 27:0.00076848908 28:0.0043178489 29:0.012215956 30:0.0078981072 
1 0 1:-0.010506096 2:-0.02192198 3:-0.017489657 4:-0.0096847379 5:-0.011415883 6:-0.006983561 7:0.00082135838 8:0.0044323222 9:0.012237242 10:0.0078049194 11:-0.010486494 12:-0.021933961 13:-0.017616112 14:-0.0097180046 15:-0.011447467 16:-0.0071296181 17:0.00076848908 18:0.0043178489 19:0.012215956 20:0.0078981072 21:-0.010470218 22:-0.021959236 23:-0.017742756 24:-0.0097569431 25:-0.011489017 26:-0.007272538 27:0.00071327511 28:0.0042164795 29:0.012202293 30:0.0079858131 
1 0 1:-0.010486494 2:-0.021933961 3:-0.017616112 4:-0.0097180046 5:-0.011447467 6:-0.0071296181 7:0.00076848908 8:0.0043178489 9:0.012215956 10:0.0078981072 11:-0.010470218 12:-0.021959236 13:-0.017742756 14:-0.0097569431 15:-0.011489017 16:-0.007272538 17:0.00071327511 18:0.0042164795 19:0.012202293 20:0.0079858131 21:-0.010449056 22:-0.021997301 23:-0.0178571 24:-0.0097941763 25:-0.011548244 26:-0.0074080438 27:0.00065488016 28:0.0041402005 29:0.012203125 30:0.008062924 
1 0 1:-0.010470218 2:-0.021959236 3:-0.017742756 4:-0.0097569431 5:-0.011489017 6:-0.007272538 7:0.00071327511 8:0.0042164795 9:0.012202293 10:0.0079858131 11:-0.010449056 12:-0.021997301 13:-0.0178571 14:-0.0097941763 15:-0.011548244 16:-0.0074080438 17:0.00065488016 18:0.0041402005 19:0.012203125 20:0.008062924 21:-0.010416384 22:-0.022044452 23:-0.017951101 24:-0.0098217939 25:-0.011628069 26:-0.0075347176 27:0.00059458992 28:0.004093351 29:0.012222658 30:0.0081293075 
1 0 1:-0.010449056 2:-0.021997301 3:-0.0178571 4:-0.0097941763 5:-0.011548244 6:-0.0074080438 7:0.00065488016 8:0.0041402005 9:0.012203125 10:0.008062924 11:-0.010416384 12:-0.022044452 13:-0.017951101 14:-0.0098217939 15:-0.011628069 16:-0.0075347176 17:0.00059458992 18:0.004093351 19:0.012222658 20:0.0081293075 21:-0.010366278 22:-0.022092332 23:-0.018020834 24:-0.009832102 25:-0.011726054 26:-0.0076545564 27:0.00053417584 28:0.0040714978 29:0.01226023 30:0.0081887323 
1 0 1:-0.010416384 2:-0.022044452 3:-0.017951101 4:-0.0098217939 5:-0.011628069 6:-0.0075347176 7:0.00059458992 8:0.004093351 9:0.012222658 10:0.0081293075 11:-0.010366278 12:-0.022092332 13:-0.018020834 14:-0.009832102 15:-0.011726054 16:-0.0076545564 17:0.00053417584 18:0.0040714978 19:0.01226023 20:0.0081887323 21:-0.010295258 22:-0.022129524 23:-0.018065927 24:-0.0098173473 25:-0.011834266 26:-0.0077706694 27:0.00047791071 28:0.0040635971 29:0.012312177 30:0.0082485801 
1 0 1:-0.010366278 2:-0.022092332 3:-0.018020834 4:-0.009832102 5:-0.011726054 6:-0.0076545564 7:0.00053417584 8:0.0040714978 9:0.01226023 10:0.0081887323 11:-0.010295258 12:-0.022129524 13:-0.018065927 14:-0.0098173473 15:-0.011834266 16:-0.0077706694 17:0.00047791071 18:0.0040635971 19:0.012312177 20:0.0082485801 21:-0.010204297 22:-0.022146665 23:-0.018089603 24:-0.0097751278 25:-0.011942367 26:-0.0078853059 27:0.0004291693 28:0.0040570616 29:0.012371537 30:0.0083144752 
1 0 1:-0.010295258 2:-0.022129524 3:-0.018065927 4:-0.0098173473 5:-0.011834266 6:-0.0077706694 7:0.00047791071 8:0.0040635971 9:0.012312177 10:0.0082485801 11:-0.010204297 12:-0.022146665 13:-0.018089603 14:-0.0097751278 15:-0.011942367 16:-0.0078853059 17:0.0004291693 18:0.0040570616 19:0.012371537 20:0.0083144752 21:-0.010095297 22:-0.022136476 23:-0.018095064 24:-0.0097048317 25:-0.012041179 26:-0.0079997672 27:0.00039046521 28:0.0040414122 29:0.012431645 30:0.0083902324 
1 0 1:-0.010204297 2:-0.022146665 3:-0.018089603 4:-0.0097751278 5:-0.011942367 6:-0.0078853059 7:0.0004291693 8:0.0040570616 9:0.012371537 10:0.0083144752 11:-0.010095297 12:-0.022136476 13:-0.018095064 14:-0.0097048317 15:-0.012041179 16:-0.0079997672 17:0.00039046521 18:0.0040414122 19:0.012431645 20:0.0083902324 21:-0.0099749162 22:-0.02209803 23:-0.018084546 24:-0.0096120916 25:-0.012123114 26:-0.0081096294 27:0.0003628246 28:0.0040134849 29:0.012485939 30:0.008472454 
1 0 1:-0.010095297 2:-0.022136476 3:-0.018095064 4:-0.0097048317 5:-0.012041179 6:-0.0079997672 7:0.00039046521 8:0.0040414122 9:0.012431645 10:0.0083902324 11:-0.0099749162 12:-0.02209803 13:-0.018084546 14:-0.0096120916 15:-0.012123114 16:-0.0081096294 17:0.0003628246 18:0.0040134849 19:0.012485939 20:0.008472454 21:-0.009850657 22:-0.022035827 23:-0.018058686 24:-0.0095051519 25:-0.01218517 26:-0.0082080288 27:0.00034550507 28:0.0039771411 29:0.012530675 30:0.0085535339 
1 0 1:-0.0099749162 2:-0.02209803 3:-0.018084546 4:-0.0096120916 5:-0.012123114 6:-0.0081096294 7:0.0003628246 8:0.0040134849 9:0.012485939 10:0.008472454 11:-0.009850657 12:-0.022035827 13:-0.018058686 14:-0.0095051519 15:-0.01218517 16:-0.0082080288 17:0.00034550507 18:0.0039771411 19:0.012530675 20:0.0085535339 21:-0.0097310597 22:-0.021958583 23:-0.018018133 24:-0.0093949644 25:-0.012227524 26:-0.0082870737 27:0.00033609524 28:0.0039404499 29:0.012563619 30:0.008623169 
1 0 1:-0.009850657 2:-0.022035827 3:-0.018058686 4:-0.0095051519 5:-0.01218517 6:-0.0082080288 7:0.00034550507 8:0.0039771411 9:0.012530675 10:0.0085535339 11:-0.0097310597 12:-0.021958583 13:-0.018018133 14:-0.0093949644 15:-0.012227524 16:-0.0082870737 17:0.00033609524 18:0.0039404499 19:0.012563619 20:0.008623169 21:-0.0096222967 22:-0.021876167 23:-0.017963186 24:-0.009290622 25:-0.012253871 26:-0.0083408889 27:0.00033167471 28:0.0039129817 29:0.012585545 30:0.0086725636 
1 0 1:-0.0097310597 2:-0.021958583 3:-0.018018133 4:-0.0093949644 5:-0.012227524 6:-0.0082870737 7:0.00033609524 8:0.0039404499 9:0.012563619 10:0.008623169 11:-0.0096222967 12:-0.021876167 13:-0.017963186 14:-0.009290622 15:-0.012253871 16:-0.0083408889 17:0.00033167471 18:0.0039129817 19:0.012585545 20:0.0086725636 21:-0.0095289188 22:-0.021795957 23:-0.017897021 24:-0.0091984767 25:-0.012267038 26:-0.0083681021 27:0.0003304421 28:0.0038989363 29:0.012597481 30:0.0086985442 
1 0 1:-0.0096222967 2:-0.021876167 3:-0.017963186 4:-0.009290622 5:-0.012253871 6:-0.0083408889 7:0.00033167471 8:0.0039129817 9:0.012585545 10:0.0086725636 11:-0.0095289188 12:-0.021795957 13:-0.017897021 14:-0.0091984767 15:-0.012267038 16:-0.0083681021 17:0.0003304421 18:0.0038989363 19:0.012597481 20:0.0086985442 21:-0.0094517244 22:-0.021722477 23:-0.017825674 24:-0.0091209114 25:-0.012270752 26:-0.0083739497 27:0.00033081293 28:0.0038968027 29:0.012601565 30:0.0087047627 
1 0 1:-0.0095289188 2:-0.021795957 3:-0.017897021 4:-0.0091984767 5:-0.012267038 6:-0.0083681021 7:0.0003304421 8:0.0038989363 9:0.012597481 10:0.0086985442 11:-0.0094517244 12:-0.021722477 13:-0.017825674 14:-0.0091209114 15:-0.012270752 16:-0.0083739497 17:0.00033081293 18:0.0038968027 19:0.012601565 20:0.0087047627 21:-0.009389652 22:-0.021656957 23:-0.017759509 24:-0.0090565675 25:-0.012267305 26:-0.0083698572 27:0.00033308454 28:0.0038974476 29:0.012600389 30:0.0087029417 
1 0 1:-0.0094517244 2:-0.021722477 3:-0.017825674 4:-0.0091209114 5:-0.012270752 6:-0.0083739497 7:0.00033081293 8:0.0038968027 9:0.012601565 10:0.0087047627 11:-0.009389652 12:-0.021656957 13:-0.017759509 14:-0.0090565675 15:-0.012267305 16:-0.0083698572 17:0.00033308454 18:0.0038974476 19:0.012600389 20:0.0087029417 21:-0.009341543 22:-0.021599687 23:-0.017710531 24:-0.0090022611 25:-0.012258144 26:-0.0083689877 27:0.00033928191 28:0.0038891561 29:0.012597426 30:0.0087082696 
1 0 1:-0.009389652 2:-0.021656957 3:-0.017759509 4:-0.0090565675 5:-0.012267305 6:-0.0083698572 7:0.00033308454 8:0.0038974476 9:0.012600389 10:0.0087029417 11:-0.009341543 12:-0.021599687 13:-0.017710531 14:-0.0090022611 15:-0.012258144 16:-0.0083689877 17:0.00033928191 18:0.0038891561 19:0.012597426 20:0.0087082696 21:-0.00930572 22:-0.021552231 23:-0.017690886 24:-0.0089556027 25:-0.012246511 26:-0.0083851663 27:0.00035011728 28:0.0038613444 29:0.012596628 30:0.0087352835 
1 0 1:-0.009341543 2:-0.021599687 3:-0.017710531 4:-0.0090022611 5:-0.012258144 6:-0.0083689877 7:0.00033928191 8:0.0038891561 9:0.012597426 10:0.0087082696 11:-0.00930572 12:-0.021552231 13:-0.017690886 14:-0.0089556027 15:-0.012246511 16:-0.0083851663 17:0.00035011728 18:0.0038613444 19:0.012596628 20:0.0087352835 21:-0.0092825935 22:-0.021518554 23:-0.017709338 24:-0.0089164461 25:-0.012235961 26:-0.0084267442 27:0.00036614738 28:0.0038092164 29:0.012602108 30:0.0087928916 
1 0 1:-0.00930572 2:-0.021552231 3:-0.017690886 4:-0.0089556027 5:-0.012246511 6:-0.0083851663 7:0.00035011728 8:0.0038613444 9:0.012596628 10:0.0087352835 11:-0.0092825935 12:-0.021518554 13:-0.017709338 14:-0.0089164461 15:-0.012235961 16:-0.0084267442 17:0.00036614738 18:0.0038092164 19:0.012602108 20:0.0087928916 21:-0.0092737971 22:-0.021505109 23:-0.017768899 24:-0.0088878113 25:-0.012231312 26:-0.0084951015 27:0.00038598584 28:0.0037362106 29:0.012617298 30:0.0088810874 
1 0 1:-0.0092825935 2:-0.021518554 3:-0.017709338 4:-0.0089164461 5:-0.012235961 6:-0.0084267442 7:0.00036614738 8:0.0038092164 9:0.012602108 10:0.0087928916 11:-0.0092737971 12:-0.021505109 13:-0.017768899 14:-0.0088878113 15:-0.012231312 16:-0.0084951015 17:0.00038598584 18:0.0037362106 19:0.012617298 20:0.0088810874 21:-0.0092781338 22:-0.021514246 23:-0.017863766 24:-0.0088709464 25:-0.012236112 26:-0.0085856318 27:0.00040718742 28:0.0036504801 29:0.012643299 30:0.0089928192 
1 0 1:-0.0092737971 2:-0.021505109 3:-0.017768899 4:-0.0088878113 5:-0.012231312 6:-0.0084951015 7:0.00038598584 8:0.0037362106 9:0.012617298 10:0.0088810874 11:-0.0092781338 12:-0.021514246 13:-0.017863766 14:-0.0088709464 15:-0.012236112 16:-0.0085856318 17:0.00040718742 18:0.0036504801 19:0.012643299 20:0.0089928192 21:-0.0092914236 22:-0.021542808 23:-0.01797916 24:-0.0088654185 25:-0.012251385 26:-0.0086877362 27:0.00042600508 28:0.0035636486 29:0.01267739 30:0.0091137413 
1 0 1:-0.0092781338 2:-0.021514246 3:-0.017863766 4:-0.0088709464 5:-0.012236112 6:-0.0085856318 7:0.00040718742 8:0.0036504801 9:0.012643299 10:0.0089928192 11:-0.0092914236 12:-0.021542808 13:-0.01797916 14:-0.0088654185 15:-0.012251385 16:-0.0086877362 17:0.00042600508 18:0.0035636486 19:0.01267739 20:0.0091137413 21:-0.0093057898 22:-0.021578821 23:-0.018094451 24:-0.0088665862 25:-0.012273031 26:-0.0087886614 27:0.00043920358 28:0.0034843701 29:0.012712235 30:0.009227865 
1 0 1:-0.0092914236 2:-0.021542808 3:-0.01797916 4:-0.0088654185 5:-0.012251385 6:-0.0086877362 7:0.00042600508 8:0.0035636486 9:0.01267739 10:0.0091137413 11:-0.0093057898 12:-0.021578821 13:-0.018094451 14:-0.0088665862 15:-0.012273031 16:-0.0087886614 17:0.00043920358 18:0.0034843701 19:0.012712235 20:0.009227865 21:-0.0093102628 22:-0.021603509 23:-0.01818647 24:-0.0088660015 25:-0.012293246 26:-0.0088762068 27:0.0004442613 28:0.0034170391 29:0.012737507 30:0.0093204682 
1 0 1:-0.0093057898 2:-0.021578821 3:-0.018094451 4:-0.0088665862 5:-0.012273031 6:-0.0087886614 7:0.00043920358 8:0.0034843701 9:0.012712235 10:0.009227865 11:-0.0093102628 12:-0.021603509 13:-0.01818647 14:-0.0088660015 15:-0.012293246 16:-0.0088762068 17:0.0004442613 18:0.0034170391 19:0.012737507 20:0.0093204682 21:-0.0092945203 22:-0.021597279 23:-0.018236425 24:-0.008854611 25:-0.012302759 26:-0.0089419044 27:0.00043990929 28:0.0033608542 29:0.012742668 30:0.0093818137 
1 0 1:-0.0093102628 2:-0.021603509 3:-0.01818647 4:-0.0088660015 5:-0.012293246 6:-0.0088762068 7:0.0004442613 8:0.0034170391 9:0.012737507 10:0.0093204682 11:-0.0092945203 12:-0.021597279 13:-0.018236425 14:-0.008854611 15:-0.012302759 16:-0.0089419044 17:0.00043990929 18:0.0033608542 19:0.012742668 20:0.0093818137 21:-0.0092508215 22:-0.021545693 23:-0.01823338 24:-0.0088273105 25:-0.012294871 26:-0.0089825585 27:0.00042351101 28:0.003312313 29:0.012718382 30:0.0094060695 
1 0 1:-0.0092945203 2:-0.021597279 3:-0.018236425 4:-0.008854611 5:-0.012302759 6:-0.0089419044 7:0.00043990929 8:0.0033608542 9:0.012742668 10:0.0093818137 11:-0.0092508215 12:-0.021545693 13:-0.01823338 14:-0.0088273105 15:-0.012294871 16:-0.0089825585 17:0.00042351101 18:0.003312313 19:0.012718382 20:0.0094060695 21:-0.0091788076 22:-0.02144401 23:-0.018177465 24:-0.0087839283 25:-0.012265202 26:-0.0089986574 27:0.00039487936 28:0.0032665448 29:0.012660082 30:0.0093935368 
1 0 1:-0.0092508215 2:-0.021545693 3:-0.01823338 4:-0.0088273105 5:-0.012294871 6:-0.0089825585 7:0.00042351101 8:0.003312313 9:0.012718382 10:0.0094060695 11:-0.0091788076 12:-0.02144401 13:-0.018177465 14:-0.0087839283 15:-0.012265202 16:-0.0089986574 17:0.00039487936 18:0.0032665448 19:0.012660082 20:0.0093935368 21:-0.0090852647 22:-0.02130033 23:-0.018079737 24:-0.0087297822 25:-0.012215066 26:-0.0089944727 27:0.00035548245 28:0.0032205929 29:0.012570548 30:0.0093499552 
1 0 1:-0.0091788076 2:-0.02144401 3:-0.018177465 4:-0.0087839283 5:-0.012265202 6:-0.0089986574 7:0.00039487936 8:0.0032665448 9:0.012660082 10:0.0093935368 11:-0.0090852647 12:-0.02130033 13:-0.018079737 14:-0.0087297822 15:-0.012215066 16:-0.0089944727 17:0.00035548245 18:0.0032205929 19:0.012570548 20:0.0093499552 21:-0.0089797351 22:-0.021130393 23:-0.017955742 24:-0.0086717431 25:-0.012150658 26:-0.0089760069 27:0.00030799199 28:0.0031746514 29:0.01245865 30:0.0092839989 
1 0 1:-0.0090852647 2:-0.02130033 3:-0.018079737 4:-0.0087297822 5:-0.012215066 6:-0.0089944727 7:0.00035548245 8:0.0032205929 9:0.012570548 10:0.0093499552 11:-0.0089797351 12:-0.021130393 13:-0.017955742 14:-0.0086717431 15:-0.012150658 16:-0.0089760069 17:0.00030799199 18:0.0031746514 19:0.01245865 20:0.0092839989 21:-0.0088755671 22:-0.020954977 23:-0.017823994 24:-0.0086169393 25:-0.01207941 26:-0.0089484264 27:0.00025862782 28:0.0031309834 29:0.012338038 30:0.0092070542 
1 0 1:-0.0089797351 2:-0.021130393 3:-0.017955742 4:-0.0086717431 5:-0.012150658 6:-0.0089760069 7:0.00030799199 8:0.0031746514 9:0.01245865 10:0.0092839989 11:-0.0088755671 12:-0.020954977 13:-0.017823994 14:-0.0086169393 15:-0.01207941 16:-0.0089484264 17:0.00025862782 18:0.0031309834 19:0.012338038 20:0.0092070542 21:-0.0087826397 22:-0.020792885 23:-0.017698751 24:-0.0085685659 25:-0.012010245 26:-0.0089161115 27:0.00021407384 28:0.0030941339 29:0.012224319 30:0.0091301853 
1 0 1:-0.0088755671 2:-0.020954977 3:-0.017823994 4:-0.0086169393 5:-0.01207941 6:-0.0089484264 7:0.00025862782 8:0.0031309834 9:0.012338038 10:0.0092070542 11:-0.0087826397 12:-0.020792885 13:-0.017698751 14:-0.0085685659 15:-0.012010245 16:-0.0089161115 17:0.00021407384 18:0.0030941339 19:0.012224319 20:0.0091301853 21:-0.0087053518 22:-0.020655583 23:-0.017587918 24:-0.0085248741 25:-0.011950231 26:-0.0088825661 27:0.00018047771 28:0.0030676649 29:0.012130709 30:0.0090630439 
1 0 1:-0.0087826397 2:-0.020792885 3:-0.017698751 4:-0.0085685659 5:-0.012010245 6:-0.0089161115 7:0.00021407384 8:0.0030941339 9:0.012224319 10:0.0091301853 11:-0.0087053518 12:-0.020655583 13:-0.017587918 14:-0.0085248741 15:-0.011950231 16:-0.0088825661 17:0.00018047771 18:0.0030676649 19:0.012130709 20:0.0090630439 21:-0.0086428597 22:-0.020546586 23:-0.017492052 24:-0.0084807517 25:-0.011903726 26:-0.0088491927 27:0.00016210804 28:0.0030545334 29:0.012065834 30:0.0090113007 
1 0 1:-0.0087053518 2:-0.020655583 3:-0.017587918 4:-0.0085248741 5:-0.011950231 6:-0.0088825661 7:0.00018047771 8:0.0030676649 9:0.012130709 10:0.0090630439 11:-0.0086428597 12:-0.020546586 13:-0.017492052 14:-0.0084807517 15:-0.011903726 16:-0.0088491927 17:0.00016210804 18:0.0030545334 19:0.012065834 20:0.0090113007 21:-0.0085888606 22:-0.020460435 23:-0.017406963 24:-0.0084290115 25:-0.011871574 26:-0.0088181029 27:0.00015984911 28:0.0030534715 29:0.012031423 30:0.008977952 
1 0 1:-0.0086428597 2:-0.020546586 3:-0.017492052 4:-0.0084807517 5:-0.011903726 6:-0.0088491927 7:0.00016210804 8:0.0030545334 9:0.012065834 10:0.0090113007 11:-0.0085888606 12:-0.020460435 13:-0.017406963 14:-0.0084290115 15:-0.011871574 16:-0.0088181029 17:0.00015984911 18:0.0030534715 19:0.012031423 20:0.008977952 21:-0.0085354843 22:-0.020387472 23:-0.017326567 24:-0.008363627 25:-0.011851988 26:-0.0087910828 27:0.00017185728 28:0.003060905 29:0.012023845 30:0.0089629401 
1 0 1:-0.0085888606 2:-0.020460435 3:-0.017406963 4:-0.0084290115 5:-0.011871574 6:-0.0088181029 7:0.00015984911 8:0.0030534715 9:0.012031423 10:0.008977952 11:-0.0085354843 12:-0.020387472 13:-0.017326567 14:-0.008363627 15:-0.011851988 16:-0.0087910828 17:0.00017185728 18:0.003060905 19:0.012023845 20:0.0089629401 21:-0.0084780068 22:-0.020318956 23:-0.017247977 24:-0.0082817465 25:-0.011840949 26:-0.0087699697 27:0.0001962603 28:0.0030709797 29:0.01203721 30:0.00896623 
1 0 1:-0.0085354843 2:-0.020387472 3:-0.017326567 4:-0.008363627 5:-0.011851988 6:-0.0087910828 7:0.00017185728 8:0.003060905 9:0.012023845 10:0.0089629401 11:-0.0084780068 12:-0.020318956 13:-0.017247977 14:-0.0082817465 15:-0.011840949 16:-0.0087699697 17:0.0001962603 18:0.0030709797 19:0.01203721 20:0.00896623 21:-0.0084104178 22:-0.020247694 23:-0.017170257 24:-0.0081827405 25:-0.011837277 26:-0.0087598394 27:0.00022767737 28:0.0030774372 29:0.012064954 30:0.0089875168 
1 0 1:-0.0084780068 2:-0.020318956 3:-0.017247977 4:-0.0082817465 5:-0.011840949 6:-0.0087699697 7:0.0001962603 8:0.0030709797 9:0.01203721 10:0.00896623 11:-0.0084104178 12:-0.020247694 13:-0.017170257 14:-0.0081827405 15:-0.011837277 16:-0.0087598394 17:0.00022767737 18:0.0030774372 19:0.012064954 20:0.0089875168 21:-0.0083321886 22:-0.0201715 23:-0.017095291 24:-0.0080688285 25:-0.011839312 26:-0.0087631024 27:0.00026336016 28:0.0030762093 29:0.012102672 30:0.0090264625 
1 0 1:-0.0084104178 2:-0.020247694 3:-0.017170257 4:-0.0081827405 5:-0.011837277 6:-0.0087598394 7:0.00022767737 8:0.0030774372 9:0.012064954 10:0.0089875168 11:-0.0083321886 12:-0.0201715 13:-0.017095291 14:-0.0080688285 15:-0.011839312 16:-0.0087631024 17:0.00026336016 18:0.0030762093 19:0.012102672 20:0.0090264625 21:-0.0082434071 22:-0.020091863 23:-0.017025908 24:-0.0079449374 25:-0.011848456 26:-0.0087825014 27:0.00029846972 28:0.0030659542 29:0.012146925 30:0.0090809711 
1 0 1:-0.0083321886 2:-0.0201715 3:-0.017095291 4:-0.0080688285 5:-0.011839312 6:-0.0087631024 7:0.00026336016 8:0.0030762093 9:0.012102672 10:0.0090264625 11:-0.0082434071 12:-0.020091863 13:-0.017025908 14:-0.0079449374 15:-0.011848456 16:-0.0087825014 17:0.00029846972 18:0.0030659542 19:0.012146925 20:0.0090809711 21:-0.0081450371 22:-0.020010487 23:-0.016962771 24:-0.0078159366 25:-0.01186545 26:-0.0088177336 27:0.00032910057 28:0.0030477161 29:0.01219455 30:0.0091468342 
1 0 1:-0.0082434071 2:-0.020091863 3:-0.017025908 4:-0.0079449374 5:-0.011848456 6:-0.0087825014 7:0.00029846972 8:0.0030659542 9:0.012146925 10:0.0090809711 11:-0.0081450371 12:-0.020010487 13:-0.016962771 14:-0.0078159366 15:-0.01186545 16:-0.0088177336 17:0.00032910057 18:0.0030477161 19:0.01219455 20:0.0091468342 21:-0.0080376746 22:-0.01992959 23:-0.016905037 24:-0.0076897446 25:-0.011891915 26:-0.0088673623 27:0.00034793007 28:0.0030245531 29:0.012239845 30:0.0092152923 
1 0 1:-0.0081450371 2:-0.020010487 3:-0.016962771 4:-0.0078159366 5:-0.01186545 6:-0.0088177336 7:0.00032910057 8:0.0030477161 9:0.01219455 10:0.0091468342 11:-0.0080376746 12:-0.01992959 13:-0.016905037 14:-0.0076897446 15:-0.011891915 16:-0.0088673623 17:0.00034793007 18:0.0030245531 19:0.012239845 20:0.0092152923 21:-0.0079230391 22:-0.019849992 23:-0.016851007 24:-0.0075739024 25:-0.011926953 26:-0.0089279678 27:0.00034913666 28:0.0029989849 29:0.012276089 30:0.0092771044 
1 0 1:-0.0080376746 2:-0.01992959 3:-0.016905037 4:-0.0076897446 5:-0.011891915 6:-0.0088673623 7:0.00034793007 8:0.0030245531 9:0.012239845 10:0.0092152923 11:-0.0079230391 12:-0.019849992 13:-0.016851007 14:-0.0075739024 15:-0.011926953 16:-0.0089279678 17:0.00034913666 18:0.0029989849 19:0.012276089 20:0.0092771044 21:-0.0078039407 22:-0.019771682 23:-0.016800103 24:-0.0074778867 25:-0.011967742 26:-0.0089961623 27:0.00032605398 28:0.0029715792 29:0.012293795 30:0.0093222162 
1 0 1:-0.0079230391 2:-0.019849992 3:-0.016851007 4:-0.0075739024 5:-0.011926953 6:-0.0089279678 7:0.00034913666 8:0.0029989849 9:0.012276089 10:0.0092771044 11:-0.0078039407 12:-0.019771682 13:-0.016800103 14:-0.0074778867 15:-0.011967742 16:-0.0089961623 17:0.00032605398 18:0.0029715792 19:0.012293795 20:0.0093222162 21:-0.0076842807 22:-0.019694968 23:-0.016753528 24:-0.0074089545 25:-0.012010687 26:-0.0090692469 27:0.00027532623 28:0.0029414402 29:0.012286013 30:0.0093445731 
1 0 1:-0.0078039407 2:-0.019771682 3:-0.016800103 4:-0.0074778867 5:-0.011967742 6:-0.0089961623 7:0.00032605398 8:0.0029715792 9:0.012293795 10:0.0093222162 11:-0.0076842807 12:-0.019694968 13:-0.016753528 14:-0.0074089545 15:-0.012010687 16:-0.0090692469 17:0.00027532623 18:0.0029414402 19:0.012286013 20:0.0093445731 21:-0.0075690517 22:-0.019620619 23:-0.016715211 24:-0.0073722759 25:-0.012051567 26:-0.0091461595 27:0.00019677584 28:0.0029054075 29:0.012248343 30:0.0093429353 
1 0 1:-0.0076842807 2:-0.019694968 3:-0.016753528 4:-0.0074089545 5:-0.012010687 6:-0.0090692469 7:0.00027532623 8:0.0029414402 9:0.012286013 10:0.0093445731 11:-0.0075690517 12:-0.019620619 13:-0.016715211 14:-0.0073722759 15:-0.012051567 16:-0.0091461595 17:0.00019677584 18:0.0029054075 19:0.012248343 20:0.0093429353 21:-0.0074628358 22:-0.019548998 23:-0.01668774 24:-0.0073671124 25:-0.012086162 26:-0.0092249039 27:9.572346e-005 28:0.0028612583 29:0.012181886 30:0.0093206274 
1 0 1:-0.0075690517 2:-0.019620619 3:-0.016715211 4:-0.0073722759 5:-0.012051567 6:-0.0091461595 7:0.00019677584 8:0.0029054075 9:0.012248343 10:0.0093429353 11:-0.0074628358 12:-0.019548998 13:-0.01668774 14:-0.0073671124 15:-0.012086162 16:-0.0092249039 17:9.572346e-005 18:0.0028612583 19:0.012181886 20:0.0093206274 21:-0.0073693943 22:-0.019481887 23:-0.01667486 24:-0.0073891001 25:-0.012112493 26:-0.0093054659 27:-1.970584e-005 28:0.0028070267 29:0.012092787 30:0.00928576 
1 0 1:-0.0074628358 2:-0.019548998 3:-0.01668774 4:-0.0073671124 5:-0.012086162 6:-0.0092249039 7:9.572346e-005 8:0.0028612583 9:0.012181886 10:0.0093206274 11:-0.0073693943 12:-0.019481887 13:-0.01667486 14:-0.0073891001 15:-0.012112493 16:-0.0093054659 17:-1.970584e-005 18:0.0028070267 19:0.012092787 20:0.00928576 21:-0.0072914949 22:-0.019419864 23:-0.016676716 24:-0.0074299724 25:-0.012128369 26:-0.0093852208 27:-0.00013847747 28:0.0027431486 29:0.011989892 30:0.0092467433 
1 0 1:-0.0073693943 2:-0.019481887 3:-0.01667486 4:-0.0073891001 5:-0.012112493 6:-0.0093054659 7:-1.970584e-005 8:0.0028070267 9:0.012092787 10:0.00928576 11:-0.0072914949 12:-0.019419864 13:-0.016676716 14:-0.0074299724 15:-0.012128369 16:-0.0093852208 17:-0.00013847747 18:0.0027431486 19:0.011989892 20:0.0092467433 21:-0.0072283932 22:-0.019361676 23:-0.01668953 24:-0.0074774614 25:-0.012133283 26:-0.0094611368 27:-0.0002490682 28:0.0026721463 29:0.011884215 30:0.0092120686 
1 0 1:-0.0072914949 2:-0.019419864 3:-0.016676716 4:-0.0074299724 5:-0.012128369 6:-0.0093852208 7:-0.00013847747 8:0.0027431486 9:0.011989892 10:0.0092467433 11:-0.0072283932 12:-0.019361676 13:-0.01668953 14:-0.0074774614 15:-0.012133283 16:-0.0094611368 17:-0.0002490682 18:0.0026721463 19:0.011884215 20:0.0092120686 21:-0.0071803291 22:-0.019306397 23:-0.016708222 24:-0.0075219255 25:-0.012126068 26:-0.0095278925 27:-0.00034159644 28:0.0025981758 29:0.011784472 30:0.0091862961 
1 0 1:-0.0072283932 2:-0.019361676 3:-0.01668953 4:-0.0074774614 5:-0.012133283 6:-0.0094611368 7:-0.0002490682 8:0.0026721463 9:0.011884215 10:0.0092120686 11:-0.0071803291 12:-0.019306397 13:-0.016708222 14:-0.0075219255 15:-0.012126068 16:-0.0095278925 17:-0.00034159644 18:0.0025981758 19:0.011784472 20:0.0091862961 21:-0.0071440505 22:-0.019250616 23:-0.016725485 24:-0.0075548395 25:-0.012106565 26:-0.0095814345 27:-0.00041078899 28:0.0025251305 29:0.011695776 30:0.0091706455 
1 0 1:-0.0071803291 2:-0.019306397 3:-0.016708222 4:-0.0075219255 5:-0.012126068 6:-0.0095278925 7:-0.00034159644 8:0.0025981758 9:0.011784472 10:0.0091862961 11:-0.0071440505 12:-0.019250616 13:-0.016725485 14:-0.0075548395 15:-0.012106565 16:-0.0095814345 17:-0.00041078899 18:0.0025251305 19:0.011695776 20:0.0091706455 21:-0.007115905 22:-0.019191559 23:-0.016734687 24:-0.0075711479 25:-0.012075654 26:-0.0096187819 27:-0.00045524288 28:0.0024568721 29:0.011620411 30:0.009163539 
1 0 1:-0.0071440505 2:-0.019250616 3:-0.016725485 4:-0.0075548395 5:-0.012106565 6:-0.0095814345 7:-0.00041078899 8:0.0025251305 9:0.011695776 10:0.0091706455 11:-0.007115905 12:-0.019191559 13:-0.016734687 14:-0.0075711479 15:-0.012075654 16:-0.0096187819 17:-0.00045524288 18:0.0024568721 19:0.011620411 20:0.009163539 21:-0.0070911258 22:-0.019127625 23:-0.016732432 24:-0.0075711371 25:-0.012036499 26:-0.009641306 27:-0.00048001137 28:0.0023951929 29:0.011556487 30:0.0091612946 
1 0 1:-0.007115905 2:-0.019191559 3:-0.016734687 4:-0.0075711479 5:-0.012075654 6:-0.0096187819 7:-0.00045524288 8:0.0024568721 9:0.011620411 10:0.009163539 11:-0.0070911258 12:-0.019127625 13:-0.016732432 14:-0.0075711371 15:-0.012036499 16:-0.009641306 17:-0.00048001137 18:0.0023951929 19:0.011556487 20:0.0091612946 21:-0.0070649773 22:-0.019058819 23:-0.016719144 24:-0.0075576196 25:-0.011993842 26:-0.0096541667 27:-0.00049264235 28:0.0023396752 29:0.0115012 30:0.0091615244 
1 0 1:-0.0070911258 2:-0.019127625 3:-0.016732432 4:-0.0075711371 5:-0.012036499 6:-0.009641306 7:-0.00048001137 8:0.0023951929 9:0.011556487 10:0.0091612946 11:-0.0070649773 12:-0.019058819 13:-0.016719144 14:-0.0075576196 15:-0.011993842 16:-0.0096541667 17:-0.00049264235 18:0.0023396752 19:0.0115012 20:0.0091615244 21:-0.0070291014 22:-0.018985598 23:-0.016696351 24:-0.0075324981 25:-0.011956497 26:-0.0096672496 27:-0.00050339675 28:0.002289247 29:0.0114531 30:0.0091638529 
1 0 1:-0.0070649773 2:-0.019058819 3:-0.016719144 4:-0.0075576196 5:-0.011993842 6:-0.0096541667 7:-0.00049264235 8:0.0023396752 9:0.0115012 10:0.0091615244 11:-0.0070291014 12:-0.018985598 13:-0.016696351 14:-0.0075324981 15:-0.011956497 16:-0.0096672496 17:-0.00050339675 18:0.002289247 19:0.0114531 20:0.0091638529 21:-0.0069751177 22:-0.01890867 23:-0.016667616 24:-0.0074981022 25:-0.011933553 26:-0.0096924984 27:-0.00052298451 28:0.0022410543 29:0.011410568 30:0.0091695139 
1 0 1:-0.0070291014 2:-0.018985598 3:-0.016696351 4:-0.0075324981 5:-0.011956497 6:-0.0096672496 7:-0.00050339675 8:0.002289247 9:0.0114531 10:0.0091638529 11:-0.0069751177 12:-0.01890867 13:-0.016667616 14:-0.0074981022 15:-0.011933553 16:-0.0096924984 17:-0.00052298451 18:0.0022410543 19:0.011410568 20:0.0091695139 21:-0.0068932403 22:-0.018825971 23:-0.016634437 24:-0.0074511814 25:-0.011932731 26:-0.0097411968 27:-0.0005579411 28:0.0021915339 29:0.01137479 30:0.0091832557 
1 0 1:-0.0069751177 2:-0.01890867 3:-0.016667616 4:-0.0074981022 5:-0.011933553 6:-0.0096924984 7:-0.00052298451 8:0.0022410543 9:0.011410568 10:0.0091695139 11:-0.0068932403 12:-0.018825971 13:-0.016634437 14:-0.0074511814 15:-0.011932731 16:-0.0097411968 17:-0.0005579411 18:0.0021915339 19:0.01137479 20:0.0091832557 21:-0.0067762458 22:-0.018735246 23:-0.016597922 24:-0.0073873523 25:-0.011959 26:-0.0098216758 27:-0.00061110649 28:0.0021373242 29:0.011347894 30:0.0092105693 
1 0 1:-0.0068932403 2:-0.018825971 3:-0.016634437 4:-0.0074511814 5:-0.011932731 6:-0.0097411968 7:-0.0005579411 8:0.0021915339 9:0.01137479 10:0.0091832557 11:-0.0067762458 12:-0.018735246 13:-0.016597922 14:-0.0073873523 15:-0.011959 16:-0.0098216758 17:-0.00061110649 18:0.0021373242 19:0.011347894 20:0.0092105693 21:-0.0066214844 22:-0.01863305 23:-0.016557892 24:-0.0073005794 25:-0.012011566 26:-0.0099364077 27:-0.00067909507 28:0.0020751579 29:0.01133247 30:0.0092573126 
1 0 1:-0.0067762458 2:-0.018735246 3:-0.016597922 4:-0.0073873523 5:-0.011959 6:-0.0098216758 7:-0.00061110649 8:0.0021373242 9:0.011347894 10:0.0092105693 11:-0.0066214844 12:-0.01863305 13:-0.016557892 14:-0.0073005794 15:-0.012011566 16:-0.0099364077 17:-0.00067909507 18:0.0020751579 19:0.01133247 20:0.0092573126 21:-0.0064304044 22:-0.018516063 23:-0.016513538 24:-0.0071862932 25:-0.012085659 26:-0.010083134 27:-0.00075588876 28:0.0020025245 29:0.01132977 30:0.0093272452 
1 0 1:-0.0066214844 2:-0.01863305 3:-0.016557892 4:-0.0073005794 5:-0.012011566 6:-0.0099364077 7:-0.00067909507 8:0.0020751579 9:0.01133247 10:0.0092573126 11:-0.0064304044 12:-0.018516063 13:-0.016513538 14:-0.0071862932 15:-0.012085659 16:-0.010083134 17:-0.00075588876 18:0.0020025245 19:0.01132977 20:0.0093272452 21:-0.0062106604 22:-0.018382855 23:-0.016464916 24:-0.0070441129 25:-0.012172194 26:-0.010254255 27:-0.00083345244 28:0.0019179392 29:0.011338742 30:0.0094208027 
1 0 1:-0.0064304044 2:-0.018516063 3:-0.016513538 4:-0.0071862932 5:-0.012085659 6:-0.010083134 7:-0.00075588876 8:0.0020025245 9:0.01132977 10:0.0093272452 11:-0.0062106604 12:-0.018382855 13:-0.016464916 14:-0.0070441129 15:-0.012172194 16:-0.010254255 17:-0.00083345244 18:0.0019179392 19:0.011338742 20:0.0094208027 21:-0.0059747183 22:-0.018235003 23:-0.016412627 24:-0.0068797671 25:-0.012260285 26:-0.010437909 27:-0.00090504876 28:0.0018223765 29:0.011355236 30:0.0095328598 
1 0 1:-0.0062106604 2:-0.018382855 3:-0.016464916 4:-0.0070441129 5:-0.012172194 6:-0.010254255 7:-0.00083345244 8:0.0019179392 9:0.011338742 10:0.0094208027 11:-0.0059747183 12:-0.018235003 13:-0.016412627 14:-0.0068797671 15:-0.012260285 16:-0.010437909 17:-0.00090504876 18:0.0018223765 19:0.011355236 20:0.0095328598 21:-0.0057356169 22:-0.01807691 23:-0.016358738 24:-0.0067046966 25:-0.012341293 26:-0.010623122 27:-0.00096907965 28:0.0017181718 29:0.011372214 30:0.0096540419 
1 0 1:-0.0059747183 2:-0.018235003 3:-0.016412627 4:-0.0068797671 5:-0.012260285 6:-0.010437909 7:-0.00090504876 8:0.0018223765 9:0.011355236 10:0.0095328598 11:-0.0057356169 12:-0.01807691 13:-0.016358738 14:-0.0067046966 15:-0.012341293 16:-0.010623122 17:-0.00096907965 18:0.0017181718 19:0.011372214 20:0.0096540419 21:-0.0055053787 22:-0.017914191 23:-0.016305331 24:-0.0065323062 25:-0.012408812 26:-0.010799953 27:-0.0010269274 28:0.0016088597 29:0.011381885 30:0.0097730253 
1 0 1:-0.0057356169 2:-0.01807691 3:-0.016358738 4:-0.0067046966 5:-0.012341293 6:-0.010623122 7:-0.00096907965 8:0.0017181718 9:0.011372214 10:0.0096540419 11:-0.0055053787 12:-0.017914191 13:-0.016305331 14:-0.0065323062 15:-0.012408812 16:-0.010799953 17:-0.0010269274 18:0.0016088597 19:0.011381885 20:0.0097730253 21:-0.0052932041 22:-0.017753636 23:-0.016254803 24:-0.0063758614 25:-0.012460432 26:-0.010961599 27:-0.0010826574 28:0.0014988334 29:0.011377775 30:0.0098789416 
1 0 1:-0.0055053787 2:-0.017914191 3:-0.016305331 4:-0.0065323062 5:-0.012408812 6:-0.010799953 7:-0.0010269274 8:0.0016088597 9:0.011381885 10:0.0097730253 11:-0.0052932041 12:-0.017753636 13:-0.016254803 14:-0.0063758614 15:-0.012460432 16:-0.010961599 17:-0.0010826574 18:0.0014988334 19:0.011377775 20:0.0098789416 21:-0.0051027469 22:-0.017599261 23:-0.016209116 24:-0.006242353 25:-0.012496514 26:-0.011106369 27:-0.0011396061 28:0.0013901452 29:0.011356908 30:0.0099667627 
1 0 1:-0.0052932041 2:-0.017753636 3:-0.016254803 4:-0.0063758614 5:-0.012460432 6:-0.010961599 7:-0.0010826574 8:0.0014988334 9:0.011377775 10:0.0098789416 11:-0.0051027469 12:-0.017599261 13:-0.016209116 14:-0.006242353 15:-0.012496514 16:-0.011106369 17:-0.0011396061 18:0.0013901452 19:0.011356908 20:0.0099667627 21:-0.0049323959 22:-0.017453571 23:-0.016169703 24:-0.0061328524 25:-0.012521175 26:-0.011237307 27:-0.0012004565 28:0.001283868 29:0.011320718 30:0.01003685 
1 0 1:-0.0051027469 2:-0.017599261 3:-0.016209116 4:-0.006242353 5:-0.012496514 6:-0.011106369 7:-0.0011396061 8:0.0013901452 9:0.011356908 10:0.0099667627 11:-0.0049323959 12:-0.017453571 13:-0.016169703 14:-0.0061328524 15:-0.012521175 16:-0.011237307 17:-0.0012004565 18:0.001283868 19:0.011320718 20:0.01003685 21:-0.0047757617 22:-0.017315221 23:-0.016134068 24:-0.0060410918 25:-0.012539459 26:-0.011358306 27:-0.0012653301 28:0.0011811529 29:0.011274129 30:0.010092976 
1 0 1:-0.0049323959 2:-0.017453571 3:-0.016169703 4:-0.0061328524 5:-0.012521175 6:-0.011237307 7:-0.0012004565 8:0.001283868 9:0.011320718 10:0.01003685 11:-0.0047757617 12:-0.017315221 13:-0.016134068 14:-0.0060410918 15:-0.012539459 16:-0.011358306 17:-0.0012653301 18:0.0011811529 19:0.011274129 20:0.010092976 21:-0.0046253309 22:-0.017181566 23:-0.016100476 24:-0.0059580867 25:-0.012556235 26:-0.011475145 27:-0.0013327557 28:0.0010810905 29:0.01122348 30:0.010142389 
1 0 1:-0.0047757617 2:-0.017315221 3:-0.016134068 4:-0.0060410918 5:-0.012539459 6:-0.011358306 7:-0.0012653301 8:0.0011811529 9:0.011274129 10:0.010092976 11:-0.0046253309 12:-0.017181566 13:-0.016100476 14:-0.0059580867 15:-0.012556235 16:-0.011475145 17:-0.0013327557 18:0.0010810905 19:0.01122348 20:0.010142389 21:-0.0044717963 22:-0.017047974 23:-0.016063435 24:-0.0058720787 25:-0.012576177 26:-0.011591639 27:-0.0014002824 28:0.00098453882 29:0.011175895 30:0.010191356 
1 0 1:-0.0046253309 2:-0.017181566 3:-0.016100476 4:-0.0059580867 5:-0.012556235 6:-0.011475145 7:-0.0013327557 8:0.0010810905 9:0.01122348 10:0.010142389 11:-0.0044717963 12:-0.017047974 13:-0.016063435 14:-0.0058720787 15:-0.012576177 16:-0.011591639 17:-0.0014002824 18:0.00098453882 19:0.011175895 20:0.010191356 21:-0.0043080347 22:-0.016910911 23:-0.016019455 24:-0.0057752379 25:-0.012602877 26:-0.01171142 27:-0.0014672032 28:0.00089145638 29:0.011135673 30:0.010244217 
1 0 1:-0.0044717963 2:-0.017047974 3:-0.016063435 4:-0.0058720787 5:-0.012576177 6:-0.011591639 7:-0.0014002824 8:0.00098453882 9:0.011175895 10:0.010191356 11:-0.0043080347 12:-0.016910911 13:-0.016019455 14:-0.0057752379 15:-0.012602877 16:-0.01171142 17:-0.0014672032 18:0.00089145638 19:0.011135673 20:0.010244217 21:-0.0041294746 22:-0.01676729 23:-0.01596469 24:-0.0056628547 25:-0.012637815 26:-0.011835215 27:-0.0015333802 28:0.00080260002 29:0.011104435 30:0.010301835 
1 0 1:-0.0043080347 2:-0.016910911 3:-0.016019455 4:-0.0057752379 5:-0.012602877 6:-0.01171142 7:-0.0014672032 8:0.00089145638 9:0.011135673 10:0.010244217 11:-0.0041294746 12:-0.01676729 13:-0.01596469 14:-0.0056628547 15:-0.012637815 16:-0.011835215 17:-0.0015333802 18:0.00080260002 19:0.011104435 20:0.010301835 21:-0.0039336952 22:-0.01661693 23:-0.015897577 24:-0.0055347846 25:-0.012683234 26:-0.011963882 27:-0.0016010894 28:0.00071935237 29:0.011082145 30:0.010362793 
1 0 1:-0.0041294746 2:-0.01676729 3:-0.01596469 4:-0.0056628547 5:-0.012637815 6:-0.011835215 7:-0.0015333802 8:0.00080260002 9:0.011104435 10:0.010301835 11:-0.0039336952 12:-0.01661693 13:-0.015897577 14:-0.0055347846 15:-0.012683234 16:-0.011963882 17:-0.0016010894 18:0.00071935237 19:0.011082145 20:0.010362793 21:-0.0037222321 22:-0.016462979 23:-0.015818532 24:-0.0053946946 25:-0.012740747 26:-0.0120963 27:-0.0016724625 28:0.00064444678 29:0.011068284 30:0.010423837 
1 0 1:-0.0039336952 2:-0.01661693 3:-0.015897577 4:-0.0055347846 5:-0.012683234 6:-0.011963882 7:-0.0016010894 8:0.00071935237 9:0.011082145 10:0.010362793 11:-0.0037222321 12:-0.016462979 13:-0.015818532 14:-0.0053946946 15:-0.012740747 16:-0.0120963 17:-0.0016724625 18:0.00064444678 19:0.011068284 20:0.010423837 21:-0.0034994312 22:-0.01631123 23:-0.015730772 24:-0.0052489612 25:-0.012811799 26:-0.01223134 27:-0.0017495301 28:0.00058045816 29:0.011062268 30:0.01048181 
1 0 1:-0.0037222321 2:-0.016462979 3:-0.015818532 4:-0.0053946946 5:-0.012740747 6:-0.0120963 7:-0.0016724625 8:0.00064444678 9:0.011068284 10:0.010423837 11:-0.0034994312 12:-0.01631123 13:-0.015730772 14:-0.0052489612 15:-0.012811799 16:-0.01223134 17:-0.0017495301 18:0.00058045816 19:0.011062268 20:0.01048181 21:-0.0032715946 22:-0.016170432 23:-0.01563951 24:-0.0051057072 25:-0.012898838 26:-0.012367916 27:-0.0018341126 28:0.00053092189 29:0.011064725 30:0.010533803 
1 0 1:-0.0034994312 2:-0.01631123 3:-0.015730772 4:-0.0052489612 5:-0.012811799 6:-0.01223134 7:-0.0017495301 8:0.00058045816 9:0.011062268 10:0.01048181 11:-0.0032715946 12:-0.016170432 13:-0.01563951 14:-0.0051057072 15:-0.012898838 16:-0.012367916 17:-0.0018341126 18:0.00053092189 19:0.011064725 20:0.010533803 21:-0.0030458246 22:-0.016048347 23:-0.015551045 24:-0.0049704873 25:-0.013002523 26:-0.012505221 27:-0.0019246627 28:0.00049730197 29:0.01107786 30:0.010580558 
1 0 1:-0.0032715946 2:-0.016170432 3:-0.01563951 4:-0.0051057072 5:-0.012898838 6:-0.012367916 7:-0.0018341126 8:0.00053092189 9:0.011064725 10:0.010533803 11:-0.0030458246 12:-0.016048347 13:-0.015551045 14:-0.0049704873 15:-0.013002523 16:-0.012505221 17:-0.0019246627 18:0.00049730197 19:0.01107786 20:0.010580558 21:-0.0028311699 22:-0.015950543 23:-0.015471465 24:-0.004847754 25:-0.013119373 26:-0.012640295 27:-0.0020165841 28:0.00047907806 29:0.011102789 30:0.010623711 
1 0 1:-0.0030458246 2:-0.016048347 3:-0.015551045 4:-0.0049704873 5:-0.013002523 6:-0.012505221 7:-0.0019246627 8:0.00049730197 9:0.01107786 10:0.010580558 11:-0.0028311699 12:-0.015950543 13:-0.015471465 14:-0.004847754 15:-0.013119373 16:-0.012640295 17:-0.0020165841 18:0.00047907806 19:0.011102789 20:0.010623711 21:-0.0026358143 22:-0.015877968 23:-0.015405624 24:-0.0047397959 25:-0.013242153 26:-0.012769809 27:-0.0021039815 28:0.00047234399 29:0.011138172 30:0.010665828 
1 0 1:-0.0028311699 2:-0.015950543 3:-0.015471465 4:-0.004847754 5:-0.013119373 6:-0.012640295 7:-0.0020165841 8:0.00047907806 9:0.011102789 10:0.010623711 11:-0.0026358143 12:-0.015877968 13:-0.015405624 14:-0.0047397959 15:-0.013242153 16:-0.012769809 17:-0.0021039815 18:0.00047234399 19:0.011138172 20:0.010665828 21:-0.0024697372 22:-0.015827577 23:-0.015355858 24:-0.0046475486 25:-0.01335784 26:-0.012886121 27:-0.0021778114 28:0.00047171912 29:0.011180029 30:0.01070831 
1 0 1:-0.0026358143 2:-0.015877968 3:-0.015405624 4:-0.0047397959 5:-0.013242153 6:-0.012769809 7:-0.0021039815 8:0.00047234399 9:0.011138172 10:0.010665828 11:-0.0024697372 12:-0.015827577 13:-0.015355858 14:-0.0046475486 15:-0.01335784 16:-0.012886121 17:-0.0021778114 18:0.00047171912 19:0.011180029 20:0.01070831 21:-0.0023411446 22:-0.015792404 23:-0.015322639 24:-0.0045734676 25:-0.01345126 26:-0.012981494 27:-0.002232323 28:0.0004697656 29:0.011218937 30:0.010749171 
1 0 1:-0.0024697372 2:-0.015827577 3:-0.015355858 4:-0.0046475486 5:-0.01335784 6:-0.012886121 7:-0.0021778114 8:0.00047171912 9:0.011180029 10:0.01070831 11:-0.0023411446 12:-0.015792404 13:-0.015322639 14:-0.0045734676 15:-0.01345126 16:-0.012981494 17:-0.002232323 18:0.0004697656 19:0.011218937 20:0.010749171 21:-0.002259767 22:-0.01576596 23:-0.015306598 24:-0.0045217483 25:-0.013506193 26:-0.013046831 27:-0.0022619813 28:0.00045936135 29:0.011244211 30:0.01078485 
1 0 1:-0.0023411446 2:-0.015792404 3:-0.015322639 4:-0.0045734676 5:-0.01345126 6:-0.012981494 7:-0.002232323 8:0.0004697656 9:0.011218937 10:0.010749171 11:-0.002259767 12:-0.01576596 13:-0.015306598 14:-0.0045217483 15:-0.013506193 16:-0.013046831 17:-0.0022619813 18:0.00045936135 19:0.011244211 20:0.01078485 21:-0.0022294423 22:-0.01574058 23:-0.015307208 24:-0.0044974376 25:-0.013511137 26:-0.013077766 27:-0.0022679953 28:0.00043337119 29:0.011243142 30:0.010809771 
1 0 1:-0.002259767 2:-0.01576596 3:-0.015306598 4:-0.0045217483 5:-0.013506193 6:-0.013046831 7:-0.0022619813 8:0.00045936135 9:0.011244211 10:0.01078485 11:-0.0022294423 12:-0.01574058 13:-0.015307208 14:-0.0044974376 15:-0.013511137 16:-0.013077766 17:-0.0022679953 18:0.00043337119 19:0.011243142 20:0.010809771 21:-0.0022512401 22:-0.015710692 23:-0.01532567 24:-0.0045063624 25:-0.013459452 26:-0.01307443 27:-0.0022551223 28:0.00038502185 29:0.01120433 30:0.010819308 
1 0 1:-0.0022294423 2:-0.01574058 3:-0.015307208 4:-0.0044974376 5:-0.013511137 6:-0.013077766 7:-0.0022679953 8:0.00043337119 9:0.011243142 10:0.010809771 11:-0.0022512401 12:-0.015710692 13:-0.01532567 14:-0.0045063624 15:-0.013459452 16:-0.01307443 17:-0.0022551223 18:0.00038502185 19:0.01120433 20:0.010819308 21:-0.0023196888 22:-0.015670874 23:-0.015362691 24:-0.0045499536 25:-0.013351185 26:-0.013043002 27:-0.0022302648 28:0.00030818262 29:0.01112092 30:0.010812738 
1 0 1:-0.0022512401 2:-0.015710692 3:-0.01532567 4:-0.0045063624 5:-0.013459452 6:-0.01307443 7:-0.0022551223 8:0.00038502185 9:0.01120433 10:0.010819308 11:-0.0023196888 12:-0.015670874 13:-0.015362691 14:-0.0045499536 15:-0.013351185 16:-0.013043002 17:-0.0022302648 18:0.00030818262 19:0.01112092 20:0.010812738 21:-0.0024233701 22:-0.015618572 23:-0.015420999 24:-0.0046271931 25:-0.013195202 26:-0.012997629 27:-0.0022038229 28:0.00019757304 29:0.010991379 30:0.010793806 
1 0 1:-0.0023196888 2:-0.015670874 3:-0.015362691 4:-0.0045499536 5:-0.013351185 6:-0.013043002 7:-0.0022302648 8:0.00030818262 9:0.01112092 10:0.010812738 11:-0.0024233701 12:-0.015618572 13:-0.015420999 14:-0.0046271931 15:-0.013195202 16:-0.012997629 17:-0.0022038229 18:0.00019757304 19:0.010991379 20:0.010793806 21:-0.0025479679 22:-0.015552377 23:-0.015502206 24:-0.0047307464 25:-0.013004409 26:-0.012954238 27:-0.0021827785 28:5.0171287e-005 29:0.010821631 30:0.010771459 
1 0 1:-0.0024233701 2:-0.015618572 3:-0.015420999 4:-0.0046271931 5:-0.013195202 6:-0.012997629 7:-0.0022038229 8:0.00019757304 9:0.010991379 10:0.010793806 11:-0.0025479679 12:-0.015552377 13:-0.015502206 14:-0.0047307464 15:-0.013004409 16:-0.012954238 17:-0.0021827785 18:5.0171287e-005 19:0.010821631 20:0.010771459 21:-0.0026776092 22:-0.015473439 23:-0.015607675 24:-0.0048505283 25:-0.01279583 26:-0.012930066 27:-0.0021729191 28:-0.00013423558 29:0.010622911 30:0.010757147 
1 0 1:-0.0025479679 2:-0.015552377 3:-0.015502206 4:-0.0047307464 5:-0.013004409 6:-0.012954238 7:-0.0021827785 8:5.0171287e-005 9:0.010821631 10:0.010771459 11:-0.0026776092 12:-0.015473439 13:-0.015607675 14:-0.0048505283 15:-0.01279583 16:-0.012930066 17:-0.0021729191 18:-0.00013423558 19:0.010622911 20:0.010757147 21:-0.0027975022 22:-0.015384696 23:-0.01573713 24:-0.004974123 25:-0.012587194 26:-0.012939628 27:-0.0021766208 28:-0.00035243427 29:0.010410573 30:0.010763007 
1 0 1:-0.0026776092 2:-0.015473439 3:-0.015607675 4:-0.0048505283 5:-0.01279583 6:-0.012930066 7:-0.0021729191 8:-0.00013423558 9:0.010622911 10:0.010757147 11:-0.0027975022 12:-0.015384696 13:-0.01573713 14:-0.004974123 15:-0.012587194 16:-0.012939628 17:-0.0021766208 18:-0.00035243427 19:0.010410573 20:0.010763007 21:-0.0028968772 22:-0.015291062 23:-0.01588738 24:-0.0050909262 25:-0.012394185 26:-0.012990503 27:-0.002194049 28:-0.00059631759 29:0.010200136 30:0.010796454 
1 0 1:-0.0027975022 2:-0.015384696 3:-0.01573713 4:-0.004974123 5:-0.012587194 6:-0.012939628 7:-0.0021766208 8:-0.00035243427 9:0.010410573 10:0.010763007 11:-0.0028968772 12:-0.015291062 13:-0.01588738 14:-0.0050909262 15:-0.012394185 16:-0.012990503 17:-0.002194049 18:-0.00059631759 19:0.010200136 20:0.010796454 21:-0.0029678304 22:-0.015196829 23:-0.016051866 24:-0.0051919792 25:-0.012228999 26:-0.013084036 27:-0.0022241488 28:-0.00085503713 29:0.01000485 30:0.010859887 
1 0 1:-0.0028968772 2:-0.015291062 3:-0.01588738 4:-0.0050909262 5:-0.012394185 6:-0.012990503 7:-0.002194049 8:-0.00059631759 9:0.010200136 10:0.010796454 11:-0.0029678304 12:-0.015196829 13:-0.016051866 14:-0.0051919792 15:-0.012228999 16:-0.013084036 17:-0.0022241488 18:-0.00085503713 19:0.01000485 20:0.010859887 21:-0.0030062324 22:-0.015106535 23:-0.016222613 24:-0.0052740027 25:-0.012100303 26:-0.013216381 27:-0.0022677704 28:-0.0011160781 29:0.0098325323 30:0.01094861 
1 0 1:-0.0029678304 2:-0.015196829 3:-0.016051866 4:-0.0051919792 5:-0.012228999 6:-0.013084036 7:-0.0022241488 8:-0.00085503713 9:0.01000485 10:0.010859887 11:-0.0030062324 12:-0.015106535 13:-0.016222613 14:-0.0052740027 15:-0.012100303 16:-0.013216381 17:-0.0022677704 18:-0.0011160781 19:0.0098325323 20:0.01094861 21:-0.0030119658 22:-0.015022573 23:-0.016390655 24:-0.0053362421 25:-0.012010607 26:-0.013378689 27:-0.0023242763 28:-0.0013680822 29:0.0096863306 30:0.011054413 
1 0 1:-0.0030062324 2:-0.015106535 3:-0.016222613 4:-0.0052740027 5:-0.012100303 6:-0.013216381 7:-0.0022677704 8:-0.0011160781 9:0.0098325323 10:0.01094861 11:-0.0030119658 12:-0.015022573 13:-0.016390655 14:-0.0053362421 15:-0.012010607 16:-0.013378689 17:-0.0023242763 18:-0.0013680822 19:0.0096863306 20:0.011054413 21:-0.0029839846 22:-0.014944143 23:-0.016546205 24:-0.0053784152 25:-0.011960159 26:-0.013562221 27:-0.0023944306 28:-0.0016020618 29:0.0095657282 30:0.01116779 
1 0 1:-0.0030119658 2:-0.015022573 3:-0.016390655 4:-0.0053362421 5:-0.012010607 6:-0.013378689 7:-0.0023242763 8:-0.0013680822 9:0.0096863306 10:0.011054413 11:-0.0029839846 12:-0.014944143 13:-0.016546205 14:-0.0053784152 15:-0.011960159 16:-0.013562221 17:-0.0023944306 18:-0.0016020618 19:0.0095657282 20:0.01116779 21:-0.0029224113 22:-0.01486676 23:-0.016680752 24:-0.0053986669 25:-0.011944348 26:-0.013758341 27:-0.0024762556 28:-0.0018139926 29:0.0094680927 30:0.011282085 
1 0 1:-0.0029839846 2:-0.014944143 3:-0.016546205 4:-0.0053784152 5:-0.011960159 6:-0.013562221 7:-0.0023944306 8:-0.0016020618 9:0.0095657282 10:0.01116779 11:-0.0029224113 12:-0.01486676 13:-0.016680752 14:-0.0053986669 15:-0.011944348 16:-0.013758341 17:-0.0024762556 18:-0.0018139926 19:0.0094680927 20:0.011282085 21:-0.0028251844 22:-0.014782583 23:-0.016786792 24:-0.0053911021 25:-0.011957399 26:-0.013961607 27:-0.0025659177 28:-0.0020042089 29:0.0093914809 30:0.01139569 
1 0 1:-0.0029224113 2:-0.01486676 3:-0.016680752 4:-0.0053986669 5:-0.011944348 6:-0.013758341 7:-0.0024762556 8:-0.0018139926 9:0.0094680927 10:0.011282085 11:-0.0028251844 12:-0.014782583 13:-0.016786792 14:-0.0053911021 15:-0.011957399 16:-0.013961607 17:-0.0025659177 18:-0.0020042089 19:0.0093914809 20:0.01139569 21:-0.0026892473 22:-0.014682071 23:-0.016858446 24:-0.0053492047 25:-0.011992824 26:-0.014169199 27:-0.0026599574 28:-0.0021763752 29:0.0093328665 30:0.011509242 
1 0 1:-0.0028251844 2:-0.014782583 3:-0.016786792 4:-0.0053911021 5:-0.011957399 6:-0.013961607 7:-0.0025659177 8:-0.0020042089 9:0.0093914809 10:0.01139569 11:-0.0026892473 12:-0.014682071 13:-0.016858446 14:-0.0053492047 15:-0.011992824 16:-0.014169199 17:-0.0026599574 18:-0.0021763752 19:0.0093328665 20:0.011509242 21:-0.0025130236 22:-0.014556368 23:-0.016892759 24:-0.0052669151 25:-0.012043345 26:-0.014379735 27:-0.0027538915 28:-0.0023363908 29:0.009289453 30:0.011625844 
1 0 1:-0.0026892473 2:-0.014682071 3:-0.016858446 4:-0.0053492047 5:-0.011992824 6:-0.014169199 7:-0.0026599574 8:-0.0021763752 9:0.0093328665 10:0.011509242 11:-0.0025130236 12:-0.014556368 13:-0.016892759 14:-0.0052669151 15:-0.012043345 16:-0.014379735 17:-0.0027538915 18:-0.0023363908 19:0.009289453 20:0.011625844 21:-0.0022969574 22:-0.014399291 23:-0.01688967 24:-0.0051409642 25:-0.012102334 26:-0.014592713 27:-0.0028440069 28:-0.0024903788 29:0.009258327 30:0.011748706 
1 0 1:-0.0025130236 2:-0.014556368 3:-0.016892759 4:-0.0052669151 5:-0.012043345 6:-0.014379735 7:-0.0027538915 8:-0.0023363908 9:0.009289453 10:0.011625844 11:-0.0022969574 12:-0.014399291 13:-0.01688967 14:-0.0051409642 15:-0.012102334 16:-0.014592713 17:-0.0028440069 18:-0.0024903788 19:0.009258327 20:0.011748706 21:-0.0020460213 22:-0.0142103 23:-0.016854616 24:-0.0049758116 25:-0.012164279 26:-0.014808595 27:-0.0029297904 28:-0.0026443161 29:0.0092344882 30:0.011878804 
1 0 1:-0.0022969574 2:-0.014399291 3:-0.01688967 4:-0.0051409642 5:-0.012102334 6:-0.014592713 7:-0.0028440069 8:-0.0024903788 9:0.009258327 10:0.011748706 11:-0.0020460213 12:-0.0142103 13:-0.016854616 14:-0.0049758116 15:-0.012164279 16:-0.014808595 17:-0.0029297904 18:-0.0026443161 19:0.0092344882 20:0.011878804 21:-0.0017716306 22:-0.013995311 23:-0.016797309 24:-0.0047815463 25:-0.01222368 26:-0.015025678 27:-0.0030099156 28:-0.0028019976 29:0.0092137648 30:0.012015762 
1 0 1:-0.0020460213 2:-0.0142103 3:-0.016854616 4:-0.0049758116 5:-0.012164279 6:-0.014808595 7:-0.0029297904 8:-0.0026443161 9:0.0092344882 10:0.011878804 11:-0.0017716306 12:-0.013995311 13:-0.016797309 14:-0.0047815463 15:-0.01222368 16:-0.015025678 17:-0.0030099156 18:-0.0028019976 19:0.0092137648 20:0.012015762 21:-0.0014884977 22:-0.013765645 23:-0.016729388 24:-0.0045727372 25:-0.012277147 26:-0.015240891 27:-0.0030842394 28:-0.0029637434 29:0.0091929079 30:0.012156651 
1 0 1:-0.0017716306 2:-0.013995311 3:-0.016797309 4:-0.0047815463 5:-0.01222368 6:-0.015025678 7:-0.0030099156 8:-0.0028019976 9:0.0092137648 10:0.012015762 11:-0.0014884977 12:-0.013765645 13:-0.016729388 14:-0.0045727372 15:-0.012277147 16:-0.015240891 17:-0.0030842394 18:-0.0029637434 19:0.0091929079 20:0.012156651 21:-0.0012152595 22:-0.013535606 23:-0.016664408 24:-0.0043651202 25:-0.012320346 26:-0.015449148 27:-0.0031498607 28:-0.0031288016 29:0.0091704858 30:0.012299287 
1 0 1:-0.0014884977 2:-0.013765645 3:-0.016729388 4:-0.0045727372 5:-0.012277147 6:-0.015240891 7:-0.0030842394 8:-0.0029637434 9:0.0091929079 10:0.012156651 11:-0.0012152595 12:-0.013535606 13:-0.016664408 14:-0.0043651202 15:-0.012320346 16:-0.015449148 17:-0.0031498607 18:-0.0031288016 19:0.0091704858 20:0.012299287 21:-0.00097081284 22:-0.013322054 23:-0.016613556 24:-0.004173692 25:-0.012351242 26:-0.015642743 27:-0.0032028792 28:-0.0032915015 29:0.0091483625 30:0.012439864 
1 0 1:-0.0012152595 2:-0.013535606 3:-0.016664408 4:-0.0043651202 5:-0.012320346 6:-0.015449148 7:-0.0031498607 8:-0.0031288016 9:0.0091704858 10:0.012299287 11:-0.00097081284 12:-0.013322054 13:-0.016613556 14:-0.004173692 15:-0.012351242 16:-0.015642743 17:-0.0032028792 18:-0.0032915015 19:0.0091483625 20:0.012439864 21:-0.00077043374 22:-0.013139484 23:-0.016583803 24:-0.0040092581 25:-0.01236905 26:-0.015813369 27:-0.0032388243 28:-0.0034443187 29:0.0091302261 30:0.012574545 
1 0 1:-0.00097081284 2:-0.013322054 3:-0.016613556 4:-0.004173692 5:-0.012351242 6:-0.015642743 7:-0.0032028792 8:-0.0032915015 9:0.0091483625 10:0.012439864 11:-0.00077043374 12:-0.013139484 13:-0.016583803 14:-0.0040092581 15:-0.01236905 16:-0.015813369 17:-0.0032388243 18:-0.0034443187 19:0.0091302261 20:0.012574545 21:-0.00062245798 22:-0.012997785 23:-0.016577437 24:-0.0038773402 25:-0.012375327 26:-0.015954979 27:-0.0032548822 28:-0.0035796517 29:0.0091204447 30:0.012700096 
1 0 1:-0.00077043374 2:-0.013139484 3:-0.016583803 4:-0.0040092581 5:-0.01236905 6:-0.015813369 7:-0.0032388243 8:-0.0034443187 9:0.0091302261 10:0.012574545 11:-0.00062245798 12:-0.012997785 13:-0.016577437 14:-0.0038773402 15:-0.012375327 16:-0.015954979 17:-0.0032548822 18:-0.0035796517 19:0.0091204447 20:0.012700096 21:-0.00052571866 22:-0.012899476 23:-0.016590577 24:-0.0037788348 25:-0.012373758 26:-0.016064859 27:-0.0032531161 28:-0.0036911011 29:0.0091206415 30:0.012811743 
1 0 1:-0.00062245798 2:-0.012997785 3:-0.016577437 4:-0.0038773402 5:-0.012375327 6:-0.015954979 7:-0.0032548822 8:-0.0035796517 9:0.0091204447 10:0.012700096 11:-0.00052571866 12:-0.012899476 13:-0.016590577 14:-0.0037788348 15:-0.012373758 16:-0.016064859 17:-0.0032531161 18:-0.0036911011 19:0.0091206415 20:0.012811743 21:-0.00047238924 22:-0.012840638 23:-0.016616533 24:-0.0037137333 25:-0.012368248 26:-0.016144144 27:-0.003241344 28:-0.0037758954 29:0.0091269043 30:0.0129028 
1 0 1:-0.00052571866 2:-0.012899476 3:-0.016590577 4:-0.0037788348 5:-0.012373758 6:-0.016064859 7:-0.0032531161 8:-0.0036911011 9:0.0091206415 10:0.012811743 11:-0.00047238924 12:-0.012840638 13:-0.016616533 14:-0.0037137333 15:-0.012368248 16:-0.016144144 17:-0.003241344 18:-0.0037758954 19:0.0091269043 20:0.0129028 21:-0.00044583145 22:-0.012810238 23:-0.016646501 24:-0.0036798532 25:-0.012364406 26:-0.01620067 27:-0.0032340218 28:-0.0038362633 29:0.0091303845 30:0.012966648 
1 0 1:-0.00047238924 2:-0.012840638 3:-0.016616533 4:-0.0037137333 5:-0.012368248 6:-0.016144144 7:-0.003241344 8:-0.0037758954 9:0.0091269043 10:0.0129028 11:-0.00044583145 12:-0.012810238 13:-0.016646501 14:-0.0036798532 15:-0.012364406 16:-0.01620067 17:-0.0032340218 18:-0.0038362633 19:0.0091303845 20:0.012966648 21:-0.00043056366 22:-0.012793937 23:-0.01667335 24:-0.0036745845 25:-0.012363373 26:-0.016242786 27:-0.0032440208 28:-0.003879413 29:0.0091193522 30:0.012998765 
1 0 1:-0.00044583145 2:-0.012810238 3:-0.016646501 4:-0.0036798532 5:-0.012364406 6:-0.01620067 7:-0.0032340218 8:-0.0038362633 9:0.0091303845 10:0.012966648 11:-0.00043056366 12:-0.012793937 13:-0.01667335 14:-0.0036745845 15:-0.012363373 16:-0.016242786 17:-0.0032440208 18:-0.003879413 19:0.0091193522 20:0.012998765 21:-0.00041144955 22:-0.012776809 23:-0.016692349 24:-0.0036958859 25:-0.012365359 26:-0.016280899 27:-0.0032844364 28:-0.0039155403 29:0.0090809227 30:0.012996463 
1 0 1:-0.00043056366 2:-0.012793937 3:-0.01667335 4:-0.0036745845 5:-0.012363373 6:-0.016242786 7:-0.0032440208 8:-0.003879413 9:0.0091193522 10:0.012998765 11:-0.00041144955 12:-0.012776809 13:-0.016692349 14:-0.0036958859 15:-0.012365359 16:-0.016280899 17:-0.0032844364 18:-0.0039155403 19:0.0090809227 20:0.012996463 21:-0.00037913669 22:-0.012746395 23:-0.016702535 24:-0.0037403114 25:-0.012367258 26:-0.016323398 27:-0.0033611748 28:-0.0039561403 29:0.0090060832 30:0.012962224 
1 0 1:-0.00041144955 2:-0.012776809 3:-0.016692349 4:-0.0036958859 5:-0.012365359 6:-0.016280899 7:-0.0032844364 8:-0.0039155403 9:0.0090809227 10:0.012996463 11:-0.00037913669 12:-0.012746395 13:-0.016702535 14:-0.0037403114 15:-0.012367258 16:-0.016323398 17:-0.0033611748 18:-0.0039561403 19:0.0090060832 20:0.012962224 21:-0.00033219736 22:-0.012695349 23:-0.016706695 24:-0.0038040139 25:-0.012363152 26:-0.016374498 27:-0.0034718165 28:-0.0040113465 29:0.008891335 30:0.012902681 
1 0 1:-0.00037913669 2:-0.012746395 3:-0.016702535 4:-0.0037403114 5:-0.012367258 6:-0.016323398 7:-0.0033611748 8:-0.0039561403 9:0.0090060832 10:0.012962224 11:-0.00033219736 12:-0.012695349 13:-0.016706695 14:-0.0038040139 15:-0.012363152 16:-0.016374498 17:-0.0034718165 18:-0.0040113465 19:0.008891335 20:0.012902681 21:-0.0002735391 22:-0.012621828 23:-0.016710311 24:-0.003881792 25:-0.012348289 26:-0.016436772 27:-0.0036082529 28:-0.0040884834 29:0.0087400356 30:0.012828519 
1 0 1:-0.00033219736 2:-0.012695349 3:-0.016706695 4:-0.0038040139 5:-0.012363152 6:-0.016374498 7:-0.0034718165 8:-0.0040113465 9:0.008891335 10:0.012902681 11:-0.0002735391 12:-0.012621828 13:-0.016710311 14:-0.003881792 15:-0.012348289 16:-0.016436772 17:-0.0036082529 18:-0.0040884834 19:0.0087400356 20:0.012828519 21:-0.00020879371 22:-0.012528601 23:-0.016720553 24:-0.0039684069 25:-0.012319807 26:-0.01651176 27:-0.0037596132 28:-0.0041919524 29:0.008560194 30:0.012752146 
1 0 1:-0.0002735391 2:-0.012621828 3:-0.016710311 4:-0.003881792 5:-0.012348289 6:-0.016436772 7:-0.0036082529 8:-0.0040884834 9:0.0087400356 10:0.012828519 11:-0.00020879371 12:-0.012528601 13:-0.016720553 14:-0.0039684069 15:-0.012319807 16:-0.01651176 17:-0.0037596132 18:-0.0041919524 19:0.008560194 20:0.012752146 21:-0.00014271694 22:-0.012421359 23:-0.016745261 24:-0.0040579646 25:-0.012278642 26:-0.016602544 27:-0.0039152476 28:-0.004323902 29:0.0083633944 30:0.012687296 
1 0 1:-0.00020879371 2:-0.012528601 3:-0.016720553 4:-0.0039684069 5:-0.012319807 6:-0.01651176 7:-0.0037596132 8:-0.0041919524 9:0.008560194 10:0.012752146 11:-0.00014271694 12:-0.012421359 13:-0.016745261 14:-0.0040579646 15:-0.012278642 16:-0.016602544 17:-0.0039152476 18:-0.004323902 19:0.0083633944 20:0.012687296 21:-7.4214874e-005 22:-0.01230695 23:-0.016791526 24:-0.0041446592 25:-0.012232736 26:-0.016717311 27:-0.0040704444 28:-0.0044845759 29:0.0081622912 30:0.012646867 
1 0 1:-0.00014271694 2:-0.012421359 3:-0.016745261 4:-0.0040579646 5:-0.012278642 6:-0.016602544 7:-0.0039152476 8:-0.004323902 9:0.0083633944 10:0.012687296 11:-7.4214874e-005 12:-0.01230695 13:-0.016791526 14:-0.0041446592 15:-0.012232736 16:-0.016717311 17:-0.0040704444 18:-0.0044845759 19:0.0081622912 20:0.012646867 21:2.9310799e-006 22:-0.012189147 23:-0.016863472 24:-0.0042232959 25:-0.012192078 26:-0.016866403 27:-0.004226227 28:-0.0046743251 29:0.0079658508 30:0.012640176 
1 0 1:-7.4214874e-005 2:-0.01230695 3:-0.016791526 4:-0.0041446592 5:-0.012232736 6:-0.016717311 7:-0.0040704444 8:-0.0044845759 9:0.0081622912 10:0.012646867 11:2.9310799e-006 12:-0.012189147 13:-0.016863472 14:-0.0042232959 15:-0.012192078 16:-0.016866403 17:-0.004226227 18:-0.0046743251 19:0.0079658508 20:0.012640176 21:0.0001025613 22:-0.012068058 23:-0.01695877 24:-0.0042853224 25:-0.012170619 26:-0.017061332 27:-0.0043878837 28:-0.0048907126 29:0.0077827355 30:0.012673448 
1 0 1:2.9310799e-006 2:-0.012189147 3:-0.016863472 4:-0.0042232959 5:-0.012192078 6:-0.016866403 7:-0.004226227 8:-0.0046743251 9:0.0079658508 10:0.012640176 11:0.0001025613 12:-0.012068058 13:-0.01695877 14:-0.0042853224 15:-0.012170619 16:-0.017061332 17:-0.0043878837 18:-0.0048907126 19:0.0077827355 20:0.012673448 21:0.00023920683 22:-0.011939657 23:-0.017069821 24:-0.0043222354 25:-0.012178863 26:-0.017309028 27:-0.0045614423 28:-0.0051301648 29:0.0076174211 30:0.012747586 
1 0 1:0.0001025613 2:-0.012068058 3:-0.01695877 4:-0.0042853224 5:-0.012170619 6:-0.017061332 7:-0.0043878837 8:-0.0048907126 9:0.0077827355 10:0.012673448 11:0.00023920683 12:-0.011939657 13:-0.017069821 14:-0.0043222354 15:-0.012178863 16:-0.017309028 17:-0.0045614423 18:-0.0051301648 19:0.0076174211 20:0.012747586 21:0.00042749416 22:-0.011794531 23:-0.017180083 24:-0.0043225622 25:-0.012222025 26:-0.017607577 27:-0.0047500564 28:-0.0053855521 29:0.0074719685 30:0.012857521 
1 0 1:0.00023920683 2:-0.011939657 3:-0.017069821 4:-0.0043222354 5:-0.012178863 6:-0.017309028 7:-0.0045614423 8:-0.0051301648 9:0.0076174211 10:0.012747586 11:0.00042749416 12:-0.011794531 13:-0.017180083 14:-0.0043225622 15:-0.012222025 16:-0.017607577 17:-0.0047500564 18:-0.0053855521 19:0.0074719685 20:0.012857521 21:0.00067399325 22:-0.011622803 23:-0.017268382 24:-0.0042761203 25:-0.012296796 26:-0.017942376 27:-0.0049501136 28:-0.0056455795 29:0.0073466826 30:0.012992262 
1 0 1:0.00042749416 2:-0.011794531 3:-0.017180083 4:-0.0043225622 5:-0.012222025 6:-0.017607577 7:-0.0047500564 8:-0.0053855521 9:0.0074719685 10:0.012857521 11:0.00067399325 12:-0.011622803 13:-0.017268382 14:-0.0042761203 15:-0.012296796 16:-0.017942376 17:-0.0049501136 18:-0.0056455795 19:0.0073466826 20:0.012992262 21:0.00097489381 22:-0.011418539 23:-0.017312311 24:-0.0041766185 25:-0.012393433 26:-0.018287205 27:-0.0051515123 28:-0.0058937718 29:0.007241921 30:0.013135693 
1 0 1:0.00067399325 2:-0.011622803 3:-0.017268382 4:-0.0042761203 5:-0.012296796 6:-0.017942376 7:-0.0049501136 8:-0.0056455795 9:0.0073466826 10:0.012992262 11:0.00097489381 12:-0.011418539 13:-0.017312311 14:-0.0041766185 15:-0.012393433 16:-0.018287205 17:-0.0051515123 18:-0.0058937718 19:0.007241921 20:0.013135693 21:0.0013168174 22:-0.011182223 23:-0.017294764 24:-0.0040239383 25:-0.01249904 26:-0.018611582 27:-0.0053407557 28:-0.0061125411 29:0.0071582847 30:0.013270826 
1 0 1:0.00097489381 2:-0.011418539 3:-0.017312311 4:-0.0041766185 5:-0.012393433 6:-0.018287205 7:-0.0051515123 8:-0.0058937718 9:0.007241921 10:0.013135693 11:0.0013168174 12:-0.011182223 13:-0.017294764 14:-0.0040239383 15:-0.01249904 16:-0.018611582 17:-0.0053407557 18:-0.0061125411 19:0.0071582847 20:0.013270826 21:0.0016771865 22:-0.010924632 23:-0.017209558 24:-0.0038264496 25:-0.012601818 26:-0.018886744 27:-0.0055036361 28:-0.0062849261 29:0.0070981822 30:0.013383108 
1 0 1:0.0013168174 2:-0.011182223 3:-0.017294764 4:-0.0040239383 5:-0.01249904 6:-0.018611582 7:-0.0053407557 8:-0.0061125411 9:0.0071582847 10:0.013270826 11:0.0016771865 12:-0.010924632 13:-0.017209558 14:-0.0038264496 15:-0.012601818 16:-0.018886744 17:-0.0055036361 18:-0.0062849261 19:0.0070981822 20:0.013383108 21:0.0020303773 22:-0.010664573 23:-0.017063755 24:-0.0036017628 25:-0.012694951 26:-0.019094133 27:-0.0056321402 28:-0.006399182 29:0.0070628105 30:0.013461992 
1 0 1:0.0016771865 2:-0.010924632 3:-0.017209558 4:-0.0038264496 5:-0.012601818 6:-0.018886744 7:-0.0055036361 8:-0.0062849261 9:0.0070981822 10:0.013383108 11:0.0020303773 12:-0.010664573 13:-0.017063755 14:-0.0036017628 15:-0.012694951 16:-0.019094133 17:-0.0056321402 18:-0.006399182 19:0.0070628105 20:0.013461992 21:0.0023540661 22:-0.010424443 23:-0.016875678 24:-0.0033705286 25:-0.01277851 26:-0.019229744 27:-0.0057245948 28:-0.0064512341 29:0.0070539149 30:0.013505149 
1 0 1:0.0020303773 2:-0.010664573 3:-0.017063755 4:-0.0036017628 5:-0.012694951 6:-0.019094133 7:-0.0056321402 8:-0.006399182 9:0.0070628105 10:0.013461992 11:0.0023540661 12:-0.010424443 13:-0.016875678 14:-0.0033705286 15:-0.01277851 16:-0.019229744 17:-0.0057245948 18:-0.0064512341 19:0.0070539149 20:0.013505149 21:0.0026329046 22:-0.010224727 23:-0.016671801 24:-0.0031544071 25:-0.012857632 26:-0.019304706 27:-0.0057873117 28:-0.0064470738 29:0.0070703201 30:0.013517394 
1 0 1:0.0023540661 2:-0.010424443 3:-0.016875678 4:-0.0033705286 5:-0.01277851 6:-0.019229744 7:-0.0057245948 8:-0.0064512341 9:0.0070539149 10:0.013505149 11:0.0026329046 12:-0.010224727 13:-0.016671801 14:-0.0031544071 15:-0.012857632 16:-0.019304706 17:-0.0057873117 18:-0.0064470738 19:0.0070703201 20:0.013517394 21:0.0028623239 22:-0.010077894 23:-0.016477899 24:-0.0029686104 25:-0.012940218 26:-0.019340223 27:-0.0058309343 28:-0.0064000055 29:0.0071092835 30:0.013509289 
1 0 1:0.0026329046 2:-0.010224727 3:-0.016671801 4:-0.0031544071 5:-0.012857632 6:-0.019304706 7:-0.0057873117 8:-0.0064470738 9:0.0070703201 10:0.013517394 11:0.0028623239 12:-0.010077894 13:-0.016477899 14:-0.0029686104 15:-0.012940218 16:-0.019340223 17:-0.0058309343 18:-0.0064000055 19:0.0071092835 20:0.013509289 21:0.0030459923 22:-0.0099852691 23:-0.016312556 24:-0.0028192277 25:-0.013031261 26:-0.019358548 27:-0.00586522 28:-0.0063272865 29:0.0071660414 30:0.013493328 
1 0 1:0.0028623239 2:-0.010077894 3:-0.016477899 4:-0.0029686104 5:-0.012940218 6:-0.019340223 7:-0.0058309343 8:-0.0064000055 9:0.0071092835 10:0.013509289 11:0.0030459923 12:-0.0099852691 13:-0.016312556 14:-0.0028192277 15:-0.013031261 16:-0.019358548 17:-0.00586522 18:-0.0063272865 19:0.0071660414 20:0.013493328 21:0.0031954142 22:-0.0099367391 23:-0.01618377 24:-0.0027016626 25:-0.013132153 26:-0.019379184 27:-0.0058970768 28:-0.006247031 29:0.0072350765 30:0.013482108 
1 0 1:0.0030459923 2:-0.0099852691 3:-0.016312556 4:-0.0028192277 5:-0.013031261 6:-0.019358548 7:-0.00586522 8:-0.0063272865 9:0.0071660414 10:0.013493328 11:0.0031954142 12:-0.0099367391 13:-0.01618377 14:-0.0027016626 15:-0.013132153 16:-0.019379184 17:-0.0058970768 18:-0.006247031 19:0.0072350765 20:0.013482108 21:0.003323789 22:-0.0099131402 23:-0.016086006 24:-0.0026036449 25:-0.013236929 26:-0.019409795 27:-0.0059274339 28:-0.0061728663 29:0.0073094953 30:0.013482362 
1 0 1:0.0031954142 2:-0.0099367391 3:-0.01618377 4:-0.0027016626 5:-0.013132153 6:-0.019379184 7:-0.0058970768 8:-0.006247031 9:0.0072350765 10:0.013482108 11:0.003323789 12:-0.0099131402 13:-0.016086006 14:-0.0026036449 15:-0.013236929 16:-0.019409795 17:-0.0059274339 18:-0.0061728663 19:0.0073094953 20:0.013482362 21:0.0034444227 22:-0.0098915974 23:-0.016005663 24:-0.0025087204 25:-0.01333602 26:-0.019450085 27:-0.005953143 28:-0.0061140652 29:0.007382877 30:0.013496942 
1 0 1:0.003323789 2:-0.0099131402 3:-0.016086006 4:-0.0026036449 5:-0.013236929 6:-0.019409795 7:-0.0059274339 8:-0.0061728663 9:0.0073094953 10:0.013482362 11:0.0034444227 12:-0.0098915974 13:-0.016005663 14:-0.0025087204 15:-0.01333602 16:-0.019450085 17:-0.005953143 18:-0.0061140652 19:0.007382877 20:0.013496942 21:0.0035666319 22:-0.009852281 23:-0.015928667 24:-0.002405027 25:-0.013418913 26:-0.019495299 27:-0.0059716589 28:-0.0060763861 29:0.007447254 30:0.01352364 
1 0 1:0.0034444227 2:-0.0098915974 3:-0.016005663 4:-0.0025087204 5:-0.01333602 6:-0.019450085 7:-0.005953143 8:-0.0061140652 9:0.007382877 10:0.013496942 11:0.0035666319 12:-0.009852281 13:-0.015928667 14:-0.002405027 15:-0.013418913 16:-0.019495299 17:-0.0059716589 18:-0.0060763861 19:0.007447254 20:0.01352364 21:0.003694199 22:-0.0097819723 23:-0.015845249 24:-0.0022858605 25:-0.013476171 26:-0.019539448 27:-0.0059800596 28:-0.0060632767 29:0.0074961117 30:0.013559388 
0.92522530314696561 0 1:0.025220748 2:0.015523143 3:-0.01358954 4:0.0082710509 5:-0.0096976057 6:-0.038810289 7:-0.016949698 8:-0.029112683 9:-0.0072520918 10:0.021860591 11:0.025736281 12:0.016233729 13:-0.013350994 14:0.008572911 15:-0.0095025523 16:-0.039087275 17:-0.01716337 18:-0.029584723 19:-0.0076608182 20:0.021923905 21:0.026283194 22:0.016978831 23:-0.013106049 24:0.0088914894 25:-0.0093043624 26:-0.039389243 27:-0.017391704 28:-0.030084881 29:-0.0080873419 30:0.021997539 
1 0 1:0.025736281 2:0.016233729 3:-0.013350994 4:0.008572911 5:-0.0095025523 6:-0.039087275 7:-0.01716337 8:-0.029584723 9:-0.0076608182 10:0.021923905 11:0.026283194 12:0.016978831 13:-0.013106049 14:0.0088914894 15:-0.0093043624 16:-0.039389243 17:-0.017391704 18:-0.030084881 19:-0.0080873419 20:0.021997539 21:0.026857919 22:0.017755216 23:-0.012860791 24:0.0092207974 25:-0.0091027026 26:-0.03971871 27:-0.017637121 28:-0.030616007 29:-0.0085344188 30:0.022081588 
1 0 1:0.026283194 2:0.016978831 3:-0.013106049 4:0.0088914894 5:-0.0093043624 6:-0.039389243 7:-0.017391704 8:-0.030084881 9:-0.0080873419 10:0.021997539 11:0.026857919 12:0.017755216 13:-0.012860791 14:0.0092207974 15:-0.0091027026 16:-0.03971871 17:-0.017637121 18:-0.030616007 19:-0.0085344188 20:0.022081588 21:0.027456955 22:0.018558221 23:-0.012621248 24:0.0095567214 25:-0.008898734 26:-0.040078202 27:-0.017900233 28:-0.031179468 29:-0.0090014992 30:0.022177969 
1 0 1:0.026857919 2:0.017755216 3:-0.012860791 4:0.0092207974 5:-0.0091027026 6:-0.03971871 7:-0.017637121 8:-0.030616007 9:-0.0085344188 10:0.022081588 11:0.027456955 12:0.018558221 13:-0.012621248 14:0.0095567214 15:-0.008898734 16:-0.040078202 17:-0.017900233 18:-0.031179468 19:-0.0090014992 20:0.022177969 21:0.028079674 22:0.019383001 23:-0.012393954 24:0.0098988109 25:-0.0086966732 26:-0.040473628 27:-0.018180864 28:-0.031776955 29:-0.0094841904 30:0.022292765 
1 0 1:0.027456955 2:0.018558221 3:-0.012621248 4:0.0095567214 5:-0.008898734 6:-0.040078202 7:-0.017900233 8:-0.031179468 9:-0.0090014992 10:0.022177969 11:0.028079674 12:0.019383001 13:-0.012393954 14:0.0098988109 15:-0.0086966732 16:-0.040473628 17:-0.018180864 18:-0.031776955 19:-0.0094841904 20:0.022292765 21:0.028725647 22:0.020222479 23:-0.012186559 24:0.010247779 25:-0.0085031682 26:-0.040912206 27:-0.018477868 28:-0.032409038 29:-0.0099746996 30:0.022434338 
1 0 1:0.028079674 2:0.019383001 3:-0.012393954 4:0.0098988109 5:-0.0086966732 6:-0.040473628 7:-0.018180864 8:-0.031776955 9:-0.0094841904 10:0.022292765 11:0.028725647 12:0.020222479 13:-0.012186559 14:0.010247779 15:-0.0085031682 16:-0.040912206 17:-0.018477868 18:-0.032409038 19:-0.0099746996 20:0.022434338 21:0.029396246 22:0.02106895 23:-0.012006452 24:0.010604424 25:-0.0083272963 26:-0.041402698 27:-0.018791822 28:-0.033075402 29:-0.010464526 30:0.022610876 
1 0 1:0.028725647 2:0.020222479 3:-0.012186559 4:0.010247779 5:-0.0085031682 6:-0.040912206 7:-0.018477868 8:-0.032409038 9:-0.0099746996 10:0.022434338 11:0.029396246 12:0.02106895 13:-0.012006452 14:0.010604424 15:-0.0083272963 16:-0.041402698 17:-0.018791822 18:-0.033075402 19:-0.010464526 20:0.022610876 21:0.030091548 22:0.021914598 23:-0.011859316 24:0.010968065 25:-0.0081769498 26:-0.041950864 27:-0.019123483 28:-0.033773915 29:-0.010946533 30:0.022827381 
1 0 1:0.029396246 2:0.02106895 3:-0.012006452 4:0.010604424 5:-0.0083272963 6:-0.041402698 7:-0.018791822 8:-0.033075402 9:-0.010464526 10:0.022610876 11:0.030091548 12:0.021914598 13:-0.011859316 14:0.010968065 15:-0.0081769498 16:-0.041950864 17:-0.019123483 18:-0.033773915 19:-0.010946533 20:0.022827381 21:0.030807987 22:0.022750012 23:-0.011748522 24:0.011331868 25:-0.0080579743 26:-0.042556509 27:-0.019476119 28:-0.034498535 29:-0.011418144 30:0.023080391 
1 0 1:0.030091548 2:0.021914598 3:-0.011859316 4:0.010968065 5:-0.0081769498 6:-0.041950864 7:-0.019123483 8:-0.033773915 9:-0.010946533 10:0.022827381 11:0.030807987 12:0.022750012 13:-0.011748522 14:0.011331868 15:-0.0080579743 16:-0.042556509 17:-0.019476119 18:-0.034498535 19:-0.011418144 20:0.023080391 21:0.031538642 22:0.023567083 23:-0.011673953 24:0.011685583 25:-0.0079715592 26:-0.043212595 27:-0.019853059 28:-0.035241036 29:-0.0118815 30:0.023359535 
1 0 1:0.030807987 2:0.022750012 3:-0.011748522 4:0.011331868 5:-0.0080579743 6:-0.042556509 7:-0.019476119 8:-0.034498535 9:-0.011418144 10:0.023080391 11:0.031538642 12:0.023567083 13:-0.011673953 14:0.011685583 15:-0.0079715592 16:-0.043212595 17:-0.019853059 18:-0.035241036 19:-0.0118815 20:0.023359535 21:0.032273859 22:0.024359259 23:-0.011631901 24:0.012016462 25:-0.0079146 26:-0.04390576 27:-0.020257398 28:-0.03599116 29:-0.012342798 30:0.023648362 
1 0 1:0.031538642 2:0.023567083 3:-0.011673953 4:0.011685583 5:-0.0079715592 6:-0.043212595 7:-0.019853059 8:-0.035241036 9:-0.0118815 10:0.023359535 11:0.032273859 12:0.024359259 13:-0.011631901 14:0.012016462 15:-0.0079146 16:-0.04390576 17:-0.020257398 18:-0.03599116 19:-0.012342798 20:0.023648362 21:0.033003679 22:0.025122855 23:-0.011615783 24:0.012314076 25:-0.0078808238 26:-0.044619463 27:-0.020689603 28:-0.036738639 29:-0.012808779 30:0.02392986 
1 0 1:0.032273859 2:0.024359259 3:-0.011631901 4:0.012016462 5:-0.0079146 6:-0.04390576 7:-0.020257398 8:-0.03599116 9:-0.012342798 10:0.023648362 11:0.033003679 12:0.025122855 13:-0.011615783 14:0.012314076 15:-0.0078808238 16:-0.044619463 17:-0.020689603 18:-0.036738639 19:-0.012808779 20:0.02392986 21:0.033718639 22:0.025855622 23:-0.011619562 24:0.0125712 25:-0.0078630177 26:-0.045338201 27:-0.021147439 28:-0.037475184 29:-0.013284422 30:0.024190762 
1 0 1:0.033003679 2:0.025122855 3:-0.011615783 4:0.012314076 5:-0.0078808238 6:-0.044619463 7:-0.020689603 8:-0.036738639 9:-0.012808779 10:0.02392986 11:0.033718639 12:0.025855622 13:-0.011619562 14:0.0125712 15:-0.0078630177 16:-0.045338201 17:-0.021147439 18:-0.037475184 19:-0.013284422 20:0.024190762 21:0.034412402 22:0.026557688 23:-0.01163722 24:0.012787295 25:-0.0078547145 26:-0.046049623 27:-0.021625107 28:-0.038194908 29:-0.013770393 30:0.024424516 
1 0 1:0.033718639 2:0.025855622 3:-0.011619562 4:0.0125712 5:-0.0078630177 6:-0.045338201 7:-0.021147439 8:-0.037475184 9:-0.013284422 10:0.024190762 11:0.034412402 12:0.026557688 13:-0.01163722 14:0.012787295 15:-0.0078547145 16:-0.046049623 17:-0.021625107 18:-0.038194908 19:-0.013770393 20:0.024424516 21:0.03508129 22:0.027229151 23:-0.011665713 24:0.012967384 25:-0.007852139 26:-0.046747003 27:-0.022113906 28:-0.038894864 29:-0.014261767 30:0.024633097 
1 0 1:0.034412402 2:0.026557688 3:-0.01163722 4:0.012787295 5:-0.0078547145 6:-0.046049623 7:-0.021625107 8:-0.038194908 9:-0.013770393 10:0.024424516 11:0.03508129 12:0.027229151 13:-0.011665713 14:0.012967384 15:-0.007852139 16:-0.046747003 17:-0.022113906 18:-0.038894864 19:-0.014261767 20:0.024633097 21:0.035724273 22:0.027869786 23:-0.011704926 24:0.013119777 25:-0.007854487 26:-0.047429199 27:-0.022604496 28:-0.039574711 29:-0.014750009 30:0.024824703 
1 0 1:0.03508129 2:0.027229151 3:-0.011665713 4:0.012967384 5:-0.007852139 6:-0.046747003 7:-0.022113906 8:-0.038894864 9:-0.014261767 10:0.024633097 11:0.035724273 12:0.027869786 13:-0.011704926 14:0.013119777 15:-0.007854487 16:-0.047429199 17:-0.022604496 18:-0.039574711 19:-0.014750009 20:0.024824703 21:0.036342939 22:0.028479036 23:-0.011756058 24:0.013256624 25:-0.0078639022 26:-0.048098997 27:-0.023086315 28:-0.040235095 29:-0.015222412 30:0.025012682 
1 0 1:0.035724273 2:0.027869786 3:-0.011704926 4:0.013119777 5:-0.007854487 6:-0.047429199 7:-0.022604496 8:-0.039574711 9:-0.014750009 10:0.024824703 11:0.036342939 12:0.028479036 13:-0.011756058 14:0.013256624 15:-0.0078639022 16:-0.048098997 17:-0.023086315 18:-0.040235095 19:-0.015222412 20:0.025012682 21:0.03693905 22:0.029056789 23:-0.011820597 24:0.013388956 25:-0.0078822606 26:-0.048759646 27:-0.023550094 28:-0.040877386 29:-0.015667833 30:0.025209553 
1 0 1:0.036342939 2:0.028479036 3:-0.011756058 4:0.013256624 5:-0.0078639022 6:-0.048098997 7:-0.023086315 8:-0.040235095 9:-0.015222412 10:0.025012682 11:0.03693905 12:0.029056789 13:-0.011820597 14:0.013388956 15:-0.0078822606 16:-0.048759646 17:-0.023550094 18:-0.040877386 19:-0.015667833 20:0.025209553 21:0.037512995 22:0.029602689 23:-0.011899653 24:0.01352396 25:-0.0079103055 26:-0.049412648 27:-0.023989035 28:-0.041502343 29:-0.016078729 30:0.025423614 
1 0 1:0.03693905 2:0.029056789 3:-0.011820597 4:0.013388956 5:-0.0078822606 6:-0.048759646 7:-0.023550094 8:-0.040877386 9:-0.015667833 10:0.025209553 11:0.037512995 12:0.029602689 13:-0.011899653 14:0.01352396 15:-0.0079103055 16:-0.049412648 17:-0.023989035 18:-0.041502343 19:-0.016078729 20:0.025423614 21:0.038067769 22:0.030121329 23:-0.011991583 24:0.013666943 25:-0.0079464408 26:-0.050059353 27:-0.024400827 28:-0.042112912 29:-0.016454386 30:0.025658526 
1 0 1:0.037512995 2:0.029602689 3:-0.011899653 4:0.01352396 5:-0.0079103055 6:-0.049412648 7:-0.023989035 8:-0.041502343 9:-0.016078729 10:0.025423614 11:0.038067769 12:0.030121329 13:-0.011991583 14:0.013666943 15:-0.0079464408 16:-0.050059353 17:-0.024400827 18:-0.042112912 19:-0.016454386 20:0.025658526 21:0.038605407 22:0.030618613 23:-0.012094054 24:0.013818508 25:-0.0079867945 26:-0.050699461 27:-0.024786899 28:-0.042712667 29:-0.016800105 30:0.025912562 
1 0 1:0.038067769 2:0.030121329 3:-0.011991583 4:0.013666943 5:-0.0079464408 6:-0.050059353 7:-0.024400827 8:-0.042112912 9:-0.016454386 10:0.025658526 11:0.038605407 12:0.030618613 13:-0.012094054 14:0.013818508 15:-0.0079867945 16:-0.050699461 17:-0.024786899 18:-0.042712667 19:-0.016800105 20:0.025912562 21:0.039130547 22:0.031105366 23:-0.012201423 24:0.013978314 25:-0.0080251814 26:-0.05133197 27:-0.025152233 28:-0.043306788 29:-0.017127052 30:0.026179737 
1 0 1:0.038605407 2:0.030618613 3:-0.012094054 4:0.013818508 5:-0.0079867945 6:-0.050699461 7:-0.024786899 8:-0.042712667 9:-0.016800105 10:0.025912562 11:0.039130547 12:0.031105366 13:-0.012201423 14:0.013978314 15:-0.0080251814 16:-0.05133197 17:-0.025152233 18:-0.043306788 19:-0.017127052 20:0.026179737 21:0.039648174 22:0.031592714 23:-0.012308832 24:0.014144458 25:-0.0080554597 26:-0.051957006 27:-0.025503716 28:-0.043901547 29:-0.017448256 30:0.026453291 
1 0 1:0.039130547 2:0.031105366 3:-0.012201423 4:0.013978314 5:-0.0080251814 6:-0.05133197 7:-0.025152233 8:-0.043306788 9:-0.017127052 10:0.026179737 11:0.039648174 12:0.031592714 13:-0.012308832 14:0.014144458 15:-0.0080554597 16:-0.051957006 17:-0.025503716 18:-0.043901547 19:-0.017448256 20:0.026453291 21:0.040163088 22:0.032092096 23:-0.012409976 24:0.014315899 25:-0.0080709919 26:-0.052573065 27:-0.025847189 28:-0.044502073 29:-0.017776198 30:0.026725875 
1 0 1:0.039648174 2:0.031592714 3:-0.012308832 4:0.014144458 5:-0.0080554597 6:-0.051957006 7:-0.025503716 8:-0.043901547 9:-0.017448256 10:0.026453291 11:0.040163088 12:0.032092096 13:-0.012409976 14:0.014315899 15:-0.0080709919 16:-0.052573065 17:-0.025847189 18:-0.044502073 19:-0.017776198 20:0.026725875 21:0.040678803 22:0.032611404 23:-0.012501208 24:0.014492496 25:-0.0080673988 26:-0.053180011 27:-0.026186307 28:-0.045112612 29:-0.018118908 30:0.026993704 
1 0 1:0.040163088 2:0.032092096 3:-0.012409976 4:0.014315899 5:-0.0080709919 6:-0.052573065 7:-0.025847189 8:-0.044502073 9:-0.017776198 10:0.026725875 11:0.040678803 12:0.032611404 13:-0.012501208 14:0.014492496 15:-0.0080673988 16:-0.053180011 17:-0.026186307 18:-0.045112612 19:-0.018118908 20:0.026993704 21:0.041199144 22:0.03315516 23:-0.012579462 24:0.014675581 25:-0.0080439839 26:-0.053778606 27:-0.026523563 28:-0.045734622 29:-0.018479579 30:0.027255043 
1 0 1:0.040678803 2:0.032611404 3:-0.012501208 4:0.014492496 5:-0.0080673988 6:-0.053180011 7:-0.026186307 8:-0.045112612 9:-0.018118908 10:0.026993704 11:0.041199144 12:0.03315516 13:-0.012579462 14:0.014675581 15:-0.0080439839 16:-0.053778606 17:-0.026523563 18:-0.045734622 19:-0.018479579 20:0.027255043 21:0.041724944 22:0.033721754 23:-0.012645281 24:0.014866181 25:-0.0080031891 26:-0.054370225 27:-0.026858763 28:-0.046367036 29:-0.018855574 30:0.027511462 
1 0 1:0.041199144 2:0.03315516 3:-0.012579462 4:0.014675581 5:-0.0080439839 6:-0.053778606 7:-0.026523563 8:-0.045734622 9:-0.018479579 10:0.027255043 11:0.041724944 12:0.033721754 13:-0.012645281 14:0.014866181 15:-0.0080031891 16:-0.054370225 17:-0.026858763 18:-0.046367036 19:-0.018855574 20:0.027511462 21:0.042256817 22:0.034304762 23:-0.012702515 24:0.015063901 25:-0.0079520553 26:-0.054959332 27:-0.027192916 28:-0.047007277 29:-0.01924086 30:0.027766416 
1 0 1:0.041724944 2:0.033721754 3:-0.012645281 4:0.014866181 5:-0.0080031891 6:-0.054370225 7:-0.026858763 8:-0.046367036 9:-0.018855574 10:0.027511462 11:0.042256817 12:0.034304762 13:-0.012702515 14:0.015063901 15:-0.0079520553 16:-0.054959332 17:-0.027192916 18:-0.047007277 19:-0.01924086 20:0.027766416 21:0.042794029 22:0.034894297 23:-0.012755937 24:0.015266908 25:-0.0078997322 26:-0.055549967 27:-0.027527122 28:-0.047650235 29:-0.019627389 30:0.028022845 
