svm_type epsilon_svr
kernel_type rbf
gamma 0.029999999999999999
nr_class 2
total_sv 241
rho 0.56831044772784545
SV
-1 1:0 2:0.00035078449 3:0 4:0 5:0.010578351 6:0.15825056 7:0.004129042 8:0.0054332813 9:0.11035199 10:0.013228645 11:0.15349911 12:0.0033888427 13:0.0046532086 14:0.10660791 15:0.011313607 
-1 1:0.15825056 2:0.004129042 3:0.0054332813 4:0.11035199 5:0.013228645 6:0.15349911 7:0.0033888427 8:0.0046532086 9:0.10660791 10:0.011313607 11:0.14939072 12:0.0027717938 13:0.00392747 14:0.10338684 15:0.0097021967 
-1 1:0.15349911 2:0.0033888427 3:0.0046532086 4:0.10660791 5:0.011313607 6:0.14939072 7:0.0027717938 8:0.00392747 9:0.10338684 10:0.0097021967 11:0.14574675 12:0.0022677842 13:0.0032871478 14:0.10041591 15:0.0083596858 
-1 1:0.14939072 2:0.0027717938 3:0.00392747 4:0.10338684 5:0.0097021967 6:0.14574675 7:0.0022677842 8:0.0032871478 9:0.10041591 10:0.0083596858 11:0.14225249 12:0.0018464798 13:0.0027499518 14:0.097349469 15:0.0072047096 
-1 1:0.14574675 2:0.0022677842 3:0.0032871478 4:0.10041591 5:0.0083596858 6:0.14225249 7:0.0018464798 8:0.0027499518 9:0.097349469 10:0.0072047096 11:0.1385711 12:0.0014617317 13:0.0023225684 14:0.093839608 15:0.0061340745 
-1 1:0.14225249 2:0.0018464798 3:0.0027499518 4:0.097349469 5:0.0072047096 6:0.1385711 7:0.0014617317 8:0.0023225684 9:0.093839608 10:0.0061340745 11:0.13443889 12:0.0010772428 13:0.0020113827 14:0.089663476 15:0.0050525246 
-1 1:0.1385711 2:0.0014617317 3:0.0023225684 4:0.093839608 5:0.0061340745 6:0.13443889 7:0.0010772428 8:0.0020113827 9:0.089663476 10:0.0050525246 11:0.12981843 12:0.00068523534 13:0.0018379596 14:0.084790375 15:0.0039114399 
-1 1:0.13443889 2:0.0010772428 3:0.0020113827 4:0.089663476 5:0.0050525246 6:0.12981843 7:0.00068523534 8:0.0018379596 9:0.084790375 10:0.0039114399 11:0.12491388 12:0.00032200617 13:0.0018469952 14:0.079426097 15:0.0027316576 
-1 1:0.12981843 2:0.00068523534 3:0.0018379596 4:0.084790375 5:0.0039114399 6:0.12491388 7:0.00032200617 8:0.0018469952 9:0.079426097 10:0.0027316576 11:0.12018795 12:6.3001206e-005 13:0.0021007145 14:0.073965177 15:0.0016034721 
-1 1:0.12491388 2:0.00032200617 3:0.0018469952 4:0.079426097 5:0.0027316576 6:0.12018795 7:6.3001206e-005 8:0.0021007145 9:0.073965177 10:0.0016034721 11:0.11621395 12:0 13:0.0026572467 14:0.068906747 15:0.00067522447 
-1 1:0.12018795 2:6.3001206e-005 3:0.0021007145 4:0.073965177 5:0.0016034721 6:0.11621395 7:0 8:0.0026572467 9:0.068906747 10:0.00067522447 11:0.11352436 12:0.00021026329 13:0.0035417105 14:0.064738574 15:0.000100217 
-1 1:0.11621395 2:0 3:0.0026572467 4:0.068906747 5:0.00067522447 6:0.11352436 7:0.00021026329 8:0.0035417105 9:0.064738574 10:0.000100217 11:0.11244409 12:0.00072593983 13:0.0047291076 14:0.061804025 15:0 
-1 1:0.11352436 2:0.00021026329 3:0.0035417105 4:0.064738574 5:0.000100217 6:0.11244409 7:0.00072593983 8:0.0047291076 9:0.061804025 10:0 11:0.11303781 12:0.0015249922 13:0.0061452256 14:0.060239539 15:0.00043361219 
-1 1:0.11244409 2:0.00072593983 3:0.0047291076 4:0.061804025 5:0 6:0.11303781 7:0.0015249922 8:0.0061452256 9:0.060239539 10:0.00043361219 11:0.11509116 12:0.0025394931 13:0.0076913356 14:0.059974623 15:0.0013797202 
-1 1:0.11303781 2:0.0015249922 3:0.0061452256 4:0.060239539 5:0.00043361219 6:0.11509116 7:0.0025394931 8:0.0076913356 9:0.059974623 10:0.0013797202 11:0.11824178 12:0.0036833668 13:0.0092790093 14:0.060753455 15:0.0027515025 
-1 1:0.11509116 2:0.0025394931 3:0.0076913356 4:0.059974623 5:0.0013797202 6:0.11824178 7:0.0036833668 8:0.0092790093 9:0.060753455 10:0.0027515025 11:0.12208819 12:0.0048793527 13:0.010859575 14:0.0622429 15:0.0044264164 
-1 1:0.11824178 2:0.0036833668 3:0.0092790093 4:0.060753455 5:0.0027515025 6:0.12208819 7:0.0048793527 8:0.010859575 9:0.0622429 10:0.0044264164 11:0.12629695 12:0.0060849313 13:0.012439056 14:0.064077988 15:0.0062779504 
-1 1:0.12208819 2:0.0048793527 3:0.010859575 4:0.0622429 5:0.0044264164 6:0.12629695 7:0.0060849313 8:0.012439056 9:0.064077988 10:0.0062779504 11:0.13065202 12:0.007295436 13:0.014067692 14:0.065938089 15:0.0082034068 
-1 1:0.12629695 2:0.0060849313 3:0.012439056 4:0.064077988 5:0.0062779504 6:0.13065202 7:0.007295436 8:0.014067692 9:0.065938089 10:0.0082034068 11:0.13503771 12:0.0085342005 13:0.015813247 14:0.067566246 15:0.01013184 
-1 1:0.13065202 2:0.007295436 3:0.014067692 4:0.065938089 5:0.0082034068 6:0.13503771 7:0.0085342005 8:0.015813247 9:0.067566246 10:0.01013184 11:0.13937916 12:0.0098318179 13:0.017728792 14:0.068788501 15:0.012028025 
-1 1:0.13503771 2:0.0085342005 3:0.015813247 4:0.067566246 5:0.01013184 6:0.13937916 7:0.0098318179 8:0.017728792 9:0.068788501 10:0.012028025 11:0.14358793 12:0.011199696 13:0.019825893 14:0.069509347 15:0.01386914 
-1 1:0.13937916 2:0.0098318179 3:0.017728792 4:0.068788501 5:0.012028025 6:0.14358793 7:0.011199696 8:0.019825893 9:0.069509347 10:0.01386914 11:0.14756363 12:0.012622279 13:0.022066599 14:0.069709456 15:0.015643775 
-1 1:0.14756363 2:0.012622279 3:0.022066599 4:0.069709456 5:0.015643775 6:0.1512076 7:0.014062491 8:0.024380131 9:0.069465005 10:0.017346968 11:0.15448921 12:0.015483778 13:0.026690231 14:0.068935172 15:0.018992611 
-1 1:0.1512076 2:0.014062491 3:0.024380131 4:0.069465005 5:0.017346968 6:0.15448921 7:0.015483778 8:0.026690231 9:0.068935172 10:0.018992611 11:0.1574646 12:0.01686773 13:0.028943526 14:0.068329161 15:0.02062337 
-0.026466566934400949 1:0.15448921 2:0.015483778 3:0.026690231 4:0.068935172 5:0.018992611 6:0.1574646 7:0.01686773 8:0.028943526 9:0.068329161 10:0.02062337 11:0.16027328 12:0.018225756 13:0.031122369 14:0.067882327 15:0.022298284 
1 1:0.22610795 2:0.069425774 3:0.10110964 4:0.062342954 5:0.082313882 6:0.22309172 7:0.069834634 8:0.10128138 9:0.061084316 10:0.081924921 11:0.22046167 12:0.070344088 13:0.10149519 14:0.059762007 15:0.08166644 
1 1:0.22309172 2:0.069834634 3:0.10128138 4:0.061084316 5:0.081924921 6:0.22046167 7:0.070344088 8:0.10149519 9:0.059762007 10:0.08166644 11:0.21887615 12:0.07108688 13:0.10192297 14:0.058772833 15:0.081752766 
1 1:0.22046167 2:0.070344088 3:0.10149519 4:0.059762007 5:0.08166644 6:0.21887615 7:0.07108688 8:0.10192297 9:0.058772833 10:0.081752766 11:0.21883703 12:0.072163085 13:0.10270843 14:0.05847267 15:0.082354564 
1 1:0.21887615 2:0.07108688 3:0.10192297 4:0.058772833 5:0.081752766 6:0.21883703 7:0.072163085 8:0.10270843 9:0.05847267 10:0.082354564 11:0.22057565 12:0.07360978 13:0.1039295 14:0.05908664 15:0.083563121 
1 1:0.21883703 2:0.072163085 3:0.10270843 4:0.05847267 5:0.082354564 6:0.22057565 7:0.07360978 8:0.1039295 9:0.05908664 10:0.083563121 11:0.22403249 12:0.075397147 13:0.10557506 14:0.060702291 15:0.085375958 
1 1:0.22057565 2:0.07360978 3:0.1039295 4:0.05908664 5:0.083563121 6:0.22403249 7:0.075397147 8:0.10557506 9:0.060702291 10:0.085375958 11:0.22889791 12:0.077431594 13:0.10754389 14:0.063293471 15:0.087700298 
1 1:0.22403249 2:0.075397147 3:0.10557506 4:0.060702291 5:0.085375958 6:0.22889791 7:0.077431594 8:0.10754389 9:0.063293471 10:0.087700298 11:0.234699 12:0.079579079 13:0.10967071 14:0.066755579 15:0.090384823 
1 1:0.22889791 2:0.077431594 3:0.10754389 4:0.063293471 5:0.087700298 6:0.234699 7:0.079579079 8:0.10967071 9:0.066755579 10:0.090384823 11:0.24093389 12:0.081700638 13:0.11177068 14:0.070932848 15:0.093255892 
1 1:0.234699 2:0.079579079 3:0.10967071 4:0.066755579 5:0.090384823 6:0.24093389 7:0.081700638 8:0.11177068 9:0.070932848 10:0.093255892 11:0.24717729 12:0.083677269 13:0.11368788 14:0.075657005 15:0.096158712 
1 1:0.24093389 2:0.081700638 3:0.11177068 4:0.070932848 5:0.093255892 6:0.24717729 7:0.083677269 8:0.11368788 9:0.075657005 10:0.096158712 11:0.25314509 12:0.08543508 13:0.11532901 14:0.080727941 15:0.098979672 
1 1:0.24717729 2:0.083677269 3:0.11368788 4:0.075657005 5:0.096158712 6:0.25314509 7:0.08543508 8:0.11532901 9:0.080727941 10:0.098979672 11:0.2586944 12:0.086947887 13:0.11667333 14:0.085905753 15:0.10165676 
1 1:0.25314509 2:0.08543508 3:0.11532901 4:0.080727941 5:0.098979672 6:0.2586944 7:0.086947887 8:0.11667333 9:0.085905753 10:0.10165676 11:0.26379289 12:0.088232801 13:0.11776335 14:0.090925525 15:0.10417161 
1 1:0.2586944 2:0.086947887 3:0.11667333 4:0.085905753 5:0.10165676 6:0.26379289 7:0.088232801 8:0.11776335 9:0.090925525 10:0.10417161 11:0.26843376 12:0.089337525 13:0.1186767 14:0.095513245 15:0.10653068 
1 1:0.26379289 2:0.088232801 3:0.11776335 4:0.090925525 5:0.10417161 6:0.26843376 7:0.089337525 8:0.1186767 9:0.095513245 10:0.10653068 11:0.27256937 12:0.090317285 13:0.11949264 14:0.099426734 15:0.10874289 
1 1:0.26843376 2:0.089337525 3:0.1186767 4:0.095513245 5:0.10653068 6:0.27256937 7:0.090317285 8:0.11949264 9:0.099426734 10:0.10874289 11:0.27607894 12:0.091222636 13:0.12027094 14:0.10248294 15:0.11080379 
1 1:0.27256937 2:0.090317285 3:0.11949264 4:0.099426734 5:0.10874289 6:0.27607894 7:0.091222636 8:0.12027094 9:0.10248294 10:0.11080379 11:0.27879405 12:0.092095578 13:0.12104574 14:0.10461364 15:0.11269253 
1 1:0.27607894 2:0.091222636 3:0.12027094 4:0.10248294 5:0.11080379 6:0.27879405 7:0.092095578 8:0.12104574 9:0.10461364 10:0.11269253 11:0.2805633 12:0.09296878 13:0.12183431 14:0.10586205 15:0.11438332 
1 1:0.27879405 2:0.092095578 3:0.12104574 4:0.10461364 5:0.11269253 6:0.2805633 7:0.09296878 8:0.12183431 9:0.10586205 10:0.11438332 11:0.28133905 12:0.09387102 13:0.12265691 14:0.10637596 15:0.11585731 
1 1:0.2805633 2:0.09296878 3:0.12183431 4:0.10586205 5:0.11438332 6:0.28133905 7:0.09387102 8:0.12265691 9:0.10637596 10:0.11585731 11:0.28121826 12:0.094834705 13:0.12355619 14:0.10639416 15:0.11713036 
1 1:0.28133905 2:0.09387102 3:0.12265691 4:0.10637596 5:0.11585731 6:0.28121826 7:0.094834705 8:0.12355619 9:0.10639416 10:0.11713036 11:0.28049695 12:0.09590054 13:0.12460516 14:0.10620201 15:0.11827095 
1 1:0.28121826 2:0.094834705 3:0.12355619 4:0.10639416 5:0.11713036 6:0.28049695 7:0.09590054 8:0.12460516 9:0.10620201 10:0.11827095 11:0.27961233 12:0.0971196 13:0.12590237 14:0.10609399 15:0.11940112 
1 1:0.28049695 2:0.09590054 3:0.12460516 4:0.10620201 5:0.11827095 6:0.27961233 7:0.0971196 8:0.12590237 9:0.10609399 10:0.11940112 11:0.27906625 12:0.09855048 13:0.1275507 14:0.10635436 15:0.12068757 
1 1:0.27961233 2:0.0971196 3:0.12590237 4:0.10609399 5:0.11940112 6:0.27906625 7:0.09855048 8:0.1275507 9:0.10635436 10:0.12068757 11:0.27934865 12:0.10024788 13:0.12963298 14:0.10723438 15:0.12231287 
1 1:0.27906625 2:0.09855048 3:0.1275507 4:0.10635436 5:0.12068757 6:0.27934865 7:0.10024788 8:0.12963298 9:0.10723438 10:0.12231287 11:0.28083039 12:0.10225588 13:0.13219021 14:0.10893303 15:0.12444471 
1 1:0.27934865 2:0.10024788 3:0.12963298 4:0.10723438 5:0.12231287 6:0.28083039 7:0.10225588 8:0.13219021 9:0.10893303 10:0.12444471 11:0.2836884 12:0.10458434 13:0.13520081 14:0.11155605 15:0.12718828 
1 1:0.28083039 2:0.10225588 3:0.13219021 4:0.10893303 5:0.12444471 6:0.2836884 7:0.10458434 8:0.13520081 9:0.11155605 10:0.12718828 11:0.28786654 12:0.10719461 13:0.13856825 14:0.11509092 15:0.13055249 
1 1:0.2836884 2:0.10458434 3:0.13520081 4:0.11155605 5:0.12718828 6:0.28786654 7:0.10719461 8:0.13856825 9:0.11509092 10:0.13055249 11:0.29306711 12:0.10999103 13:0.1421208 14:0.1193637 15:0.13443218 
1 1:0.28786654 2:0.10719461 3:0.13856825 4:0.11509092 5:0.13055249 6:0.29306711 7:0.10999103 8:0.1421208 9:0.1193637 10:0.13443218 11:0.29880695 12:0.11283075 13:0.14562917 14:0.12407649 15:0.13861748 
1 1:0.29306711 2:0.10999103 3:0.1421208 4:0.1193637 5:0.13443218 6:0.29880695 7:0.11283075 8:0.14562917 9:0.12407649 10:0.13861748 11:0.30450426 12:0.11554629 13:0.14884006 14:0.12884612 15:0.1428261 
1 1:0.29880695 2:0.11283075 3:0.14562917 4:0.12407649 5:0.13861748 6:0.30450426 7:0.11554629 8:0.14884006 9:0.12884612 10:0.1428261 11:0.30960786 12:0.11798 13:0.15152613 14:0.13329968 15:0.1467678 
1 1:0.30450426 2:0.11554629 3:0.14884006 4:0.12884612 5:0.1428261 6:0.30960786 7:0.11798 8:0.15152613 9:0.13329968 10:0.1467678 11:0.31368903 12:0.120016 13:0.15353272 14:0.13715973 15:0.15019155 
1 1:0.30960786 2:0.11798 3:0.15152613 4:0.13329968 5:0.1467678 6:0.31368903 7:0.120016 8:0.15353272 9:0.13715973 10:0.15019155 11:0.31650281 12:0.12160296 13:0.15481066 14:0.14027733 15:0.15293561 
1 1:0.31368903 2:0.120016 3:0.15353272 4:0.13715973 5:0.15019155 6:0.31650281 7:0.12160296 8:0.15481066 9:0.14027733 10:0.15293561 11:0.31800497 12:0.12275435 13:0.15541839 14:0.14263998 15:0.15493698 
1 1:0.31650281 2:0.12160296 3:0.15481066 4:0.14027733 5:0.15293561 6:0.31800497 7:0.12275435 8:0.15541839 9:0.14263998 10:0.15493698 11:0.31828227 12:0.12352903 13:0.15549501 14:0.14429997 15:0.15621648 
1 1:0.31800497 2:0.12275435 3:0.15541839 4:0.14263998 5:0.15493698 6:0.31828227 7:0.12352903 8:0.15549501 9:0.14429997 10:0.15621648 11:0.31748781 12:0.12400712 13:0.15521256 14:0.14531757 15:0.15685003 
1 1:0.31828227 2:0.12352903 3:0.15549501 4:0.14429997 5:0.15621648 6:0.31748781 7:0.12400712 8:0.15521256 9:0.14531757 10:0.15685003 11:0.315773 12:0.12426249 13:0.15472852 14:0.14570414 15:0.15693586 
1 1:0.31748781 2:0.12400712 3:0.15521256 4:0.14531757 5:0.15685003 6:0.315773 7:0.12426249 8:0.15472852 9:0.14570414 10:0.15693586 11:0.31323991 12:0.12435116 13:0.1541519 14:0.14543127 15:0.15658113 
1 1:0.315773 2:0.12426249 3:0.15472852 4:0.14570414 5:0.15693586 6:0.31323991 7:0.12435116 8:0.1541519 9:0.14543127 10:0.15658113 11:0.30998552 12:0.12431175 13:0.15353435 14:0.14444778 15:0.15589648 
1 1:0.31323991 2:0.12435116 3:0.1541519 4:0.14543127 5:0.15658113 6:0.30998552 7:0.12431175 8:0.15353435 9:0.14444778 10:0.15589648 11:0.30614252 12:0.12417719 13:0.15288861 14:0.14276277 15:0.15500346 
1 1:0.30998552 2:0.12431175 3:0.15353435 4:0.14444778 5:0.15589648 6:0.30614252 7:0.12417719 8:0.15288861 9:0.14276277 10:0.15500346 11:0.30192695 12:0.12398923 13:0.15222196 14:0.14050359 15:0.15404395 
1 1:0.30614252 2:0.12417719 3:0.15288861 4:0.14276277 5:0.15500346 6:0.30192695 7:0.12398923 8:0.15222196 9:0.14050359 10:0.15404395 11:0.29768246 12:0.12381759 13:0.15157583 14:0.13795675 15:0.15318665 
1 1:0.30192695 2:0.12398923 3:0.15222196 4:0.14050359 5:0.15404395 6:0.29768246 7:0.12381759 8:0.15157583 9:0.13795675 10:0.15318665 11:0.29386497 12:0.12376315 13:0.15105318 14:0.13555772 15:0.15262603 
1 1:0.29768246 2:0.12381759 3:0.15157583 4:0.13795675 5:0.15318665 6:0.29386497 7:0.12376315 8:0.15105318 9:0.13555772 10:0.15262603 11:0.29096783 12:0.1239563 13:0.15082316 14:0.13381473 15:0.15257394 
1 1:0.29386497 2:0.12376315 3:0.15105318 4:0.13555772 5:0.15262603 6:0.29096783 7:0.1239563 8:0.15082316 9:0.13381473 10:0.15257394 11:0.28944356 12:0.1245355 13:0.15109748 14:0.13319053 15:0.15322634 
1 1:0.29096783 2:0.1239563 3:0.15082316 4:0.13381473 5:0.15257394 6:0.28944356 7:0.1245355 8:0.15109748 9:0.13319053 10:0.15322634 11:0.28959156 12:0.12562492 13:0.15208387 14:0.13401029 15:0.15473009 
1 1:0.28944356 2:0.1245355 3:0.15109748 4:0.13319053 5:0.15322634 6:0.28959156 7:0.12562492 8:0.15208387 9:0.13401029 10:0.15473009 11:0.2914918 12:0.12729977 13:0.15392755 14:0.13637862 15:0.1571358 
1 1:0.28959156 2:0.12562492 3:0.15208387 4:0.13401029 5:0.15473009 6:0.2914918 7:0.12729977 8:0.15392755 9:0.13637862 10:0.1571358 11:0.29499286 12:0.12956418 13:0.15666256 14:0.14017046 15:0.16038243 
1 1:0.2914918 2:0.12729977 3:0.15392755 4:0.13637862 5:0.1571358 6:0.29499286 7:0.12956418 8:0.15666256 9:0.14017046 10:0.16038243 11:0.29974091 12:0.1323422 13:0.16018837 14:0.14507994 15:0.16429784 
1 1:0.29499286 2:0.12956418 3:0.15666256 4:0.14017046 5:0.16038243 6:0.29974091 7:0.1323422 8:0.16018837 9:0.14507994 10:0.16429784 11:0.30528511 12:0.13548785 13:0.16428477 14:0.15072846 15:0.16863496 
1 1:0.29974091 2:0.1323422 3:0.16018837 4:0.14507994 5:0.16429784 6:0.30528511 7:0.13548785 8:0.16428477 9:0.15072846 10:0.16863496 11:0.31119337 12:0.13881888 13:0.16865972 14:0.15674651 15:0.17312884 
1 1:0.30528511 2:0.13548785 3:0.16428477 4:0.15072846 5:0.16863496 6:0.31119337 7:0.13881888 8:0.16865972 9:0.15674651 10:0.17312884 11:0.31713566 12:0.14215431 13:0.17301764 14:0.16285323 15:0.17755774 
1 1:0.31119337 2:0.13881888 3:0.16865972 4:0.15674651 5:0.17312884 6:0.31713566 7:0.14215431 8:0.17301764 9:0.16285323 10:0.17755774 11:0.32295206 12:0.14535078 13:0.17712543 14:0.16889629 15:0.18177727 
1 1:0.31713566 2:0.14215431 3:0.17301764 4:0.16285323 5:0.17755774 6:0.32295206 7:0.14535078 8:0.17712543 9:0.16889629 10:0.18177727 11:0.32862385 12:0.14832895 13:0.18085273 14:0.17481655 15:0.18574031 
1 1:0.32295206 2:0.14535078 3:0.17712543 4:0.16889629 5:0.18177727 6:0.32862385 7:0.14832895 8:0.18085273 9:0.17481655 10:0.18574031 11:0.33419697 12:0.15106626 13:0.18417663 14:0.1805981 15:0.18946372 
1 1:0.32862385 2:0.14832895 3:0.18085273 4:0.17481655 5:0.18574031 6:0.33419697 7:0.15106626 8:0.18417663 9:0.1805981 10:0.18946372 11:0.33965612 12:0.15357905 13:0.18714602 14:0.18619318 15:0.19297975 
1 1:0.33419697 2:0.15106626 3:0.18417663 4:0.1805981 5:0.18946372 6:0.33965612 7:0.15357905 8:0.18714602 9:0.18619318 10:0.19297975 11:0.34484648 12:0.1558808 13:0.18982435 14:0.19145854 15:0.19627798 
1 1:0.33965612 2:0.15357905 3:0.18714602 4:0.18619318 5:0.19297975 6:0.34484648 7:0.1558808 8:0.18982435 9:0.19145854 10:0.19627798 11:0.34941759 12:0.15795336 13:0.19223559 14:0.19614177 15:0.19926564 
1 1:0.34484648 2:0.1558808 3:0.18982435 4:0.19145854 5:0.19627798 6:0.34941759 7:0.15795336 8:0.19223559 9:0.19614177 10:0.19926564 11:0.35290165 12:0.15973554 13:0.19433724 14:0.19991086 15:0.20177354 
1 1:0.34941759 2:0.15795336 3:0.19223559 4:0.19614177 5:0.19926564 6:0.35290165 7:0.15973554 8:0.19433724 9:0.19991086 10:0.20177354 11:0.35482911 12:0.16113479 13:0.1960337 14:0.20243382 15:0.20360077 
1 1:0.35290165 2:0.15973554 3:0.19433724 4:0.19991086 5:0.20177354 6:0.35482911 7:0.16113479 8:0.1960337 9:0.20243382 10:0.20360077 11:0.35488865 12:0.16206788 13:0.19722414 14:0.20349349 15:0.20459301 
1 1:0.35482911 2:0.16113479 3:0.1960337 4:0.20243382 5:0.20360077 6:0.35488865 7:0.16206788 8:0.19722414 9:0.20349349 10:0.20459301 11:0.35307857 12:0.16250085 13:0.19786178 14:0.20307394 15:0.20470663 
1 1:0.35488865 2:0.16206788 3:0.19722414 4:0.20349349 5:0.20459301 6:0.35307857 7:0.16250085 8:0.19786178 9:0.20307394 10:0.20470663 11:0.34975273 12:0.16247907 13:0.19799569 14:0.20142532 15:0.20405125 
1 1:0.35307857 2:0.16250085 3:0.19786178 4:0.20307394 5:0.20470663 6:0.34975273 7:0.16247907 8:0.19799569 9:0.20142532 10:0.20405125 11:0.34556438 12:0.16212881 13:0.19777405 14:0.1990206 15:0.20287593 
1 1:0.34975273 2:0.16247907 3:0.19799569 4:0.20142532 5:0.20405125 6:0.34556438 7:0.16212881 8:0.19777405 9:0.1990206 10:0.20287593 11:0.34130628 12:0.16163128 13:0.19741094 14:0.196484 15:0.20151457 
1 1:0.34556438 2:0.16212881 3:0.19777405 4:0.1990206 5:0.20287593 6:0.34130628 7:0.16163128 8:0.19741094 9:0.196484 10:0.20151457 11:0.33772866 12:0.1611869 13:0.19713412 14:0.19444994 15:0.20031246 
1 1:0.34130628 2:0.16163128 3:0.19741094 4:0.196484 5:0.20151457 6:0.33772866 7:0.1611869 8:0.19713412 9:0.19444994 10:0.20031246 11:0.33535719 12:0.16097793 13:0.19714032 14:0.19343348 15:0.19955438 
1 1:0.33772866 2:0.1611869 3:0.19713412 4:0.19444994 5:0.20031246 6:0.33535719 7:0.16097793 8:0.19714032 9:0.19343348 10:0.19955438 11:0.33444365 12:0.16114853 13:0.19757538 14:0.19374729 15:0.19943779 
1 1:0.33535719 2:0.16097793 3:0.19714032 4:0.19343348 5:0.19955438 6:0.33444365 7:0.16114853 8:0.19757538 9:0.19374729 10:0.19943779 11:0.33498973 12:0.1618011 13:0.19854108 14:0.19547777 15:0.20006142 
1 1:0.33444365 2:0.16114853 3:0.19757538 4:0.19374729 5:0.19943779 6:0.33498973 7:0.1618011 8:0.19854108 9:0.19547777 10:0.20006142 11:0.33684404 12:0.16300823 13:0.20011598 14:0.19852033 15:0.20145999 
1 1:0.33498973 2:0.1618011 3:0.19854108 4:0.19547777 5:0.20006142 6:0.33684404 7:0.16300823 8:0.20011598 9:0.19852033 10:0.20145999 11:0.33983304 12:0.16481945 13:0.20237144 14:0.20265553 15:0.2036345 
1 1:0.33684404 2:0.16300823 3:0.20011598 4:0.19852033 5:0.20145999 6:0.33983304 7:0.16481945 8:0.20237144 9:0.20265553 10:0.2036345 11:0.34382065 12:0.16726172 13:0.20537232 14:0.20760026 15:0.20657007 
1 1:0.33983304 2:0.16481945 3:0.20237144 4:0.20265553 5:0.2036345 6:0.34382065 7:0.16726172 8:0.20537232 9:0.20760026 10:0.20657007 11:0.34874392 12:0.17033919 13:0.20916055 14:0.21309984 15:0.21025031 
1 1:0.34382065 2:0.16726172 3:0.20537232 4:0.20760026 5:0.20657007 6:0.34874392 7:0.17033919 8:0.20916055 9:0.21309984 10:0.21025031 11:0.35457393 12:0.17402204 13:0.21373397 14:0.21895189 15:0.21464299 
1 1:0.34874392 2:0.17033919 3:0.20916055 4:0.21309984 5:0.21025031 6:0.35457393 7:0.17402204 8:0.21373397 9:0.21895189 10:0.21464299 11:0.36129366 12:0.17824571 13:0.21903078 14:0.22503815 15:0.21969502 
1 1:0.35457393 2:0.17402204 3:0.21373397 4:0.21895189 5:0.21464299 6:0.36129366 7:0.17824571 8:0.21903078 9:0.22503815 10:0.21969502 11:0.36883337 12:0.18291843 13:0.22493139 14:0.23133475 15:0.22532107 
1 1:0.36129366 2:0.17824571 3:0.21903078 4:0.22503815 5:0.21969502 6:0.36883337 7:0.18291843 8:0.22493139 9:0.23133475 10:0.22532107 11:0.37706547 12:0.18792845 13:0.23127597 14:0.23787921 15:0.23140106 
1 1:0.36883337 2:0.18291843 3:0.22493139 4:0.23133475 5:0.22532107 6:0.37706547 7:0.18792845 8:0.23127597 9:0.23787921 10:0.23140106 11:0.38579602 12:0.19316144 13:0.23789174 14:0.24472952 15:0.23778816 
1 1:0.37706547 2:0.18792845 3:0.23127597 4:0.23787921 5:0.23140106 6:0.38579602 7:0.19316144 8:0.23789174 9:0.24472952 10:0.23778816 11:0.39479195 12:0.19850617 13:0.24462072 14:0.25191752 15:0.24431814 
1 1:0.38579602 2:0.19316144 3:0.23789174 4:0.24472952 5:0.23778816 6:0.39479195 7:0.19850617 8:0.24462072 9:0.25191752 10:0.24431814 11:0.40378278 12:0.20386724 13:0.25133567 14:0.25938862 15:0.25082629 
1 1:0.39479195 2:0.19850617 3:0.24462072 4:0.25191752 5:0.24431814 6:0.40378278 7:0.20386724 8:0.25133567 9:0.25938862 10:0.25082629 11:0.41250823 12:0.20915623 13:0.25793921 14:0.26697001 15:0.25715485 
1 1:0.40378278 2:0.20386724 3:0.25133567 4:0.25938862 5:0.25082629 6:0.41250823 7:0.20915623 8:0.25793921 9:0.26697001 10:0.25715485 11:0.4206961 12:0.21429381 13:0.2643534 14:0.27436039 15:0.26316092 
1 1:0.41250823 2:0.20915623 3:0.25793921 4:0.26697001 5:0.25715485 6:0.4206961 7:0.21429381 8:0.2643534 9:0.27436039 10:0.26316092 11:0.4280793 12:0.21920142 13:0.2705082 14:0.28117773 15:0.26872148 
1 1:0.4206961 2:0.21429381 3:0.2643534 4:0.27436039 5:0.26316092 6:0.4280793 7:0.21920142 8:0.2705082 9:0.28117773 10:0.26872148 11:0.43439584 12:0.22381399 13:0.27633748 14:0.28705365 15:0.2737363 
1 1:0.4280793 2:0.21920142 3:0.2705082 4:0.28117773 5:0.26872148 6:0.43439584 7:0.22381399 8:0.27633748 9:0.28705365 10:0.2737363 11:0.43941268 12:0.228082 13:0.28178489 14:0.29171414 15:0.27813791 
1 1:0.43439584 2:0.22381399 3:0.27633748 4:0.28705365 5:0.2737363 6:0.43941268 7:0.228082 8:0.28178489 9:0.29171414 10:0.27813791 11:0.44297499 12:0.23198444 13:0.28681822 14:0.29506937 15:0.28190101 
1 1:0.43941268 2:0.228082 3:0.28178489 4:0.29171414 5:0.27813791 6:0.44297499 7:0.23198444 8:0.28681822 9:0.29506937 10:0.28190101 11:0.44506066 12:0.23553429 13:0.29144152 14:0.297241 15:0.28505437 
1 1:0.44297499 2:0.23198444 3:0.28681822 4:0.29506937 5:0.28190101 6:0.44506066 7:0.23553429 8:0.29144152 9:0.297241 10:0.28505437 11:0.44580408 12:0.23877898 13:0.29570253 14:0.29852352 15:0.28768531 
1 1:0.44506066 2:0.23553429 3:0.29144152 4:0.297241 5:0.28505437 6:0.44580408 7:0.23877898 8:0.29570253 9:0.29852352 10:0.28768531 11:0.44548936 12:0.24179733 13:0.29968771 14:0.29930917 15:0.28993623 
1 1:0.44580408 2:0.23877898 3:0.29570253 4:0.29852352 5:0.28768531 6:0.44548936 7:0.24179733 8:0.29968771 9:0.29930917 10:0.28993623 11:0.44451968 12:0.24468735 13:0.30350994 14:0.29999704 15:0.29198373 
1 1:0.44548936 2:0.24179733 3:0.29968771 4:0.29930917 5:0.28993623 6:0.44451968 7:0.24468735 8:0.30350994 9:0.29999704 10:0.29198373 11:0.44335265 12:0.24756026 13:0.30729868 14:0.30091231 15:0.29402677 
1 1:0.44451968 2:0.24468735 3:0.30350994 4:0.29999704 5:0.29198373 6:0.44335265 7:0.24756026 8:0.30729868 9:0.30091231 10:0.29402677 11:0.44244932 12:0.25053713 13:0.31119625 14:0.30230284 15:0.29626131 
1 1:0.44335265 2:0.24756026 3:0.30729868 4:0.30091231 5:0.29402677 6:0.44244932 7:0.25053713 8:0.31119625 9:0.30230284 10:0.29626131 11:0.44225028 12:0.25374864 13:0.31536084 14:0.30436305 15:0.29888432 
1 1:0.44244932 2:0.25053713 3:0.31119625 4:0.30230284 5:0.29626131 6:0.44225028 7:0.25374864 8:0.31536084 9:0.30436305 10:0.29888432 11:0.44316212 12:0.25733478 13:0.31997363 14:0.3072976 15:0.30208729 
1 1:0.44225028 2:0.25374864 3:0.31536084 4:0.30436305 5:0.29888432 6:0.44316212 7:0.25733478 8:0.31997363 9:0.3072976 10:0.30208729 11:0.4455489 12:0.26144956 13:0.32524331 14:0.31137709 15:0.30606571 
1 1:0.44316212 2:0.25733478 3:0.31997363 4:0.3072976 5:0.30208729 6:0.4455489 7:0.26144956 8:0.32524331 9:0.31137709 10:0.30606571 11:0.44974065 12:0.26625554 13:0.33139814 14:0.31694716 15:0.31102298 
1 1:0.4455489 2:0.26144956 3:0.32524331 4:0.31137709 5:0.30606571 6:0.44974065 7:0.26625554 8:0.33139814 9:0.31694716 10:0.31102298 11:0.45602488 12:0.27191165 13:0.33866026 14:0.32437051 15:0.31714763 
1 1:0.44974065 2:0.26625554 3:0.33139814 4:0.31694716 5:0.31102298 6:0.45602488 7:0.27191165 8:0.33866026 9:0.32437051 10:0.31714763 11:0.46458191 12:0.2785457 13:0.34720564 14:0.33394276 15:0.32458254 
1 1:0.45602488 2:0.27191165 3:0.33866026 4:0.32437051 5:0.31714763 6:0.46458191 7:0.2785457 8:0.34720564 9:0.33394276 10:0.32458254 11:0.47544065 12:0.28622952 13:0.35711747 14:0.3457594 15:0.33337137 
1 1:0.46458191 2:0.2785457 3:0.34720564 4:0.33394276 5:0.32458254 6:0.47544065 7:0.28622952 8:0.35711747 9:0.3457594 10:0.33337137 11:0.48839868 12:0.29494624 13:0.36834642 14:0.35965217 15:0.3434273 
1 1:0.47544065 2:0.28622952 3:0.35711747 4:0.3457594 5:0.33337137 6:0.48839868 7:0.29494624 8:0.36834642 9:0.35965217 10:0.3434273 11:0.50297114 12:0.30457531 13:0.38068985 14:0.37518561 15:0.35451269 
1 1:0.48839868 2:0.29494624 3:0.36834642 4:0.35965217 5:0.3434273 6:0.50297114 7:0.30457531 8:0.38068985 9:0.37518561 10:0.35451269 11:0.51841122 12:0.31489584 13:0.39380215 14:0.39169344 15:0.36626239 
1 1:0.50297114 2:0.30457531 3:0.38068985 4:0.37518561 5:0.35451269 6:0.51841122 7:0.31489584 8:0.39380215 9:0.39169344 10:0.36626239 11:0.53381557 12:0.32560968 13:0.40724171 14:0.40840934 15:0.37823584 
1 1:0.51841122 2:0.31489584 3:0.39380215 4:0.39169344 5:0.36626239 6:0.53381557 7:0.32560968 8:0.40724171 9:0.40840934 10:0.37823584 11:0.54822471 12:0.3363847 13:0.42054029 14:0.42458858 15:0.38999001 
1 1:0.53381557 2:0.32560968 3:0.40724171 4:0.40840934 5:0.37823584 6:0.54822471 7:0.3363847 8:0.42054029 9:0.42458858 10:0.38999001 11:0.56083229 12:0.34690979 13:0.43328006 14:0.43961152 15:0.40114585 
1 1:0.54822471 2:0.3363847 3:0.42054029 4:0.42458858 5:0.38999001 6:0.56083229 7:0.34690979 8:0.43328006 9:0.43961152 10:0.40114585 11:0.5710684 12:0.35693995 13:0.44515999 14:0.45305518 15:0.41144339 
1 1:0.56083229 2:0.34690979 3:0.43328006 4:0.43961152 5:0.40114585 6:0.5710684 7:0.35693995 8:0.44515999 9:0.45305518 10:0.41144339 11:0.57869998 12:0.36633438 13:0.45603318 14:0.46471151 15:0.42076308 
1 1:0.5710684 2:0.35693995 3:0.44515999 4:0.45305518 5:0.41144339 6:0.57869998 7:0.36633438 8:0.45603318 9:0.46471151 10:0.42076308 11:0.58380868 12:0.37506537 13:0.46590787 14:0.47457369 15:0.42911879 
1 1:0.57869998 2:0.36633438 3:0.45603318 4:0.46471151 5:0.42076308 6:0.58380868 7:0.37506537 8:0.46590787 9:0.47457369 10:0.42911879 11:0.58676196 12:0.38320704 13:0.47492106 14:0.48279747 15:0.43664102 
1 1:0.58380868 2:0.37506537 3:0.46590787 4:0.47457369 5:0.42911879 6:0.58676196 7:0.38320704 8:0.47492106 9:0.48279747 10:0.43664102 11:0.58811441 12:0.39091341 13:0.48329608 14:0.48967166 15:0.44354062 
1 1:0.58676196 2:0.38320704 3:0.47492106 4:0.48279747 5:0.43664102 6:0.58811441 7:0.39091341 8:0.48329608 9:0.48967166 10:0.44354062 11:0.58853631 12:0.39838515 13:0.4912974 14:0.4956067 15:0.45008747 
1 1:0.58811441 2:0.39091341 3:0.48329608 4:0.48967166 5:0.44354062 6:0.58853631 7:0.39838515 8:0.4912974 9:0.4956067 10:0.45008747 11:0.58871323 12:0.40583925 13:0.4991927 14:0.50108923 15:0.45658024 
1 1:0.58853631 2:0.39838515 3:0.4912974 4:0.4956067 5:0.45008747 6:0.58871323 7:0.40583925 8:0.4991927 9:0.50108923 10:0.45658024 11:0.58928483 12:0.41348107 13:0.50722606 14:0.50664566 15:0.46331661 
1 1:0.58871323 2:0.40583925 3:0.4991927 4:0.50108923 5:0.45658024 6:0.58928483 7:0.41348107 8:0.50722606 9:0.50664566 10:0.46331661 11:0.5908006 12:0.42149155 13:0.5156032 14:0.51277171 15:0.47055952 
1 1:0.58928483 2:0.41348107 3:0.50722606 4:0.50664566 5:0.46331661 6:0.5908006 7:0.42149155 8:0.5156032 9:0.51277171 10:0.47055952 11:0.59367903 12:0.43002109 13:0.52448952 14:0.51984714 15:0.47851834 
1 1:0.5908006 2:0.42149155 3:0.5156032 4:0.51277171 5:0.47055952 6:0.59367903 7:0.43002109 8:0.52448952 9:0.51984714 10:0.47851834 11:0.59821612 12:0.43919722 13:0.53401659 14:0.5281346 15:0.48734587 
1 1:0.59367903 2:0.43002109 3:0.52448952 4:0.51984714 5:0.47851834 6:0.59821612 7:0.43919722 8:0.53401659 9:0.5281346 10:0.48734587 11:0.60461603 12:0.44914623 13:0.54429518 14:0.53776369 15:0.4971587 
1 1:0.59821612 2:0.43919722 3:0.53401659 4:0.5281346 5:0.48734587 6:0.60461603 7:0.44914623 8:0.54429518 9:0.53776369 10:0.4971587 11:0.61298593 12:0.46001277 13:0.55543136 14:0.54880378 15:0.50807392 
1 1:0.60461603 2:0.44914623 3:0.54429518 4:0.53776369 5:0.4971587 6:0.61298593 7:0.46001277 8:0.55543136 9:0.54880378 10:0.50807392 11:0.62339386 12:0.47197315 13:0.56753724 14:0.56131512 15:0.52024383 
0.28294459785158116 1:0.98956825 2:0.97947768 3:0.98818229 4:0.9885199 5:0.98291747 6:0.99646151 7:0.99074842 8:0.99548829 9:0.99626615 10:0.99250506 11:0.99991154 12:0.99748073 13:0.99933823 14:1 15:0.99811622 
1 1:0.99646151 2:0.99074842 3:0.99548829 4:0.99626615 5:0.99250506 6:0.99991154 7:0.99748073 8:0.99933823 9:1 10:0.99811622 11:1 12:1 13:1 14:0.99995793 15:1 
-1 1:0.84556013 2:0.80043318 3:0.83048612 4:0.81588522 5:0.82608033 6:0.83040926 7:0.77637787 8:0.8101314 9:0.79799596 10:0.80553486 11:0.81350275 12:0.75075763 13:0.78813161 14:0.77868206 15:0.78326832 
-1 1:0.83040926 2:0.77637787 3:0.8101314 4:0.79799596 5:0.80553486 6:0.81350275 7:0.75075763 8:0.78813161 9:0.77868206 10:0.78326832 11:0.79514682 12:0.7240809 13:0.7648493 14:0.75825733 15:0.75965531 
-1 1:0.81350275 2:0.75075763 3:0.78813161 4:0.77868206 5:0.78326832 6:0.79514682 7:0.7240809 8:0.7648493 9:0.75825733 10:0.75965531 11:0.77593859 12:0.69701942 13:0.74084372 14:0.73718793 15:0.73525942 
-1 1:0.79514682 2:0.7240809 3:0.7648493 4:0.75825733 5:0.75965531 6:0.77593859 7:0.69701942 8:0.74084372 9:0.73718793 10:0.73525942 11:0.75658746 12:0.67029213 13:0.71677484 14:0.71594798 15:0.71072262 
-1 1:0.77593859 2:0.69701942 3:0.74084372 4:0.73718793 5:0.73525942 6:0.75658746 7:0.67029213 8:0.71677484 9:0.71594798 10:0.71072262 11:0.7377518 12:0.64453397 13:0.69328429 14:0.69490928 15:0.68664623 
-1 1:0.75658746 2:0.67029213 3:0.71677484 4:0.71594798 5:0.71072262 6:0.7377518 7:0.64453397 8:0.69328429 9:0.69490928 10:0.68664623 11:0.71995046 12:0.62020617 13:0.67088832 14:0.67428899 15:0.663509 
-1 1:0.7377518 2:0.64453397 3:0.69328429 4:0.69490928 5:0.68664623 6:0.71995046 7:0.62020617 8:0.67088832 9:0.67428899 10:0.663509 11:0.70347776 12:0.59755711 13:0.64990671 14:0.65419171 15:0.64162102 
-1 1:0.71995046 2:0.62020617 3:0.67088832 4:0.67428899 5:0.663509 6:0.70347776 7:0.59755711 8:0.64990671 9:0.65419171 10:0.64162102 11:0.68843236 12:0.57662904 13:0.63044254 14:0.63465382 15:0.62112912 
-1 1:0.70347776 2:0.59755711 3:0.64990671 4:0.65419171 5:0.64162102 6:0.68843236 7:0.57662904 8:0.63044254 9:0.63465382 10:0.62112912 11:0.67473772 12:0.55730712 13:0.61240642 14:0.61571513 15:0.60204721 
-1 1:0.68843236 2:0.57662904 3:0.63044254 4:0.63465382 5:0.62112912 6:0.67473772 7:0.55730712 8:0.61240642 9:0.61571513 10:0.60204721 11:0.66221009 12:0.53937822 13:0.59557293 14:0.59742565 15:0.58428647 
-1 1:0.67473772 2:0.55730712 3:0.61240642 4:0.61571513 5:0.60204721 6:0.66221009 7:0.53937822 8:0.59557293 9:0.59742565 10:0.58428647 11:0.65059942 12:0.52258723 13:0.57965126 14:0.57985588 15:0.56769063 
-1 1:0.66221009 2:0.53937822 3:0.59557293 4:0.59742565 5:0.58428647 6:0.65059942 7:0.52258723 8:0.57965126 9:0.57985588 10:0.56769063 11:0.63965391 12:0.50668785 13:0.56435328 14:0.56307403 15:0.55207216 
-1 1:0.65059942 2:0.52258723 3:0.57965126 4:0.57985588 5:0.56769063 6:0.63965391 7:0.50668785 8:0.56435328 9:0.56307403 10:0.55207216 11:0.62914901 12:0.491475 13:0.54944715 14:0.54710968 15:0.53724203 
-1 1:0.63965391 2:0.50668785 3:0.56435328 4:0.56307403 5:0.55207216 6:0.62914901 7:0.491475 8:0.54944715 9:0.54710968 10:0.53724203 11:0.61892821 12:0.47680713 13:0.53479028 14:0.53197532 15:0.52304495 
-1 1:0.62914901 2:0.491475 3:0.54944715 4:0.54710968 5:0.53724203 6:0.61892821 7:0.47680713 8:0.53479028 9:0.53197532 10:0.52304495 11:0.60890815 12:0.46261501 13:0.52034062 14:0.51763458 15:0.5093817 
-1 1:0.61892821 2:0.47680713 3:0.53479028 4:0.53197532 5:0.52304495 6:0.60890815 7:0.46261501 8:0.52034062 9:0.51763458 10:0.5093817 11:0.59907183 12:0.44889967 13:0.50614953 14:0.50403287 15:0.49622103 
-1 1:0.60890815 2:0.46261501 3:0.52034062 4:0.51763458 5:0.5093817 6:0.59907183 7:0.44889967 8:0.50614953 9:0.50403287 10:0.49622103 11:0.58948728 12:0.43572049 13:0.49234261 14:0.49112927 15:0.48359914 
-1 1:0.59907183 2:0.44889967 3:0.50614953 4:0.50403287 5:0.49622103 6:0.58948728 7:0.43572049 8:0.49234261 9:0.49112927 10:0.48359914 11:0.5802889 12:0.42318273 13:0.47909333 14:0.47892037 15:0.47161825 
-1 1:0.58948728 2:0.43572049 3:0.49234261 4:0.49112927 5:0.48359914 6:0.5802889 7:0.42318273 8:0.47909333 9:0.47892037 10:0.47161825 11:0.57167063 12:0.4114124 13:0.46658961 14:0.46746073 15:0.46040635 
-1 1:0.5802889 2:0.42318273 3:0.47909333 4:0.47892037 5:0.47161825 6:0.57167063 7:0.4114124 8:0.46658961 9:0.46746073 10:0.46040635 11:0.56383151 12:0.40052667 13:0.45499601 14:0.45685725 15:0.45008598 
-1 1:0.57167063 2:0.4114124 3:0.46658961 4:0.46746073 5:0.46040635 6:0.56383151 7:0.40052667 8:0.45499601 9:0.45685725 10:0.45008598 11:0.55691784 12:0.39059841 13:0.44441498 14:0.44721337 15:0.44072462 
-1 1:0.56383151 2:0.40052667 3:0.45499601 4:0.45685725 5:0.45008598 6:0.55691784 7:0.39059841 8:0.44441498 9:0.44721337 10:0.44072462 11:0.55094153 12:0.38163123 13:0.4348577 14:0.43859051 15:0.43229448 
-1 1:0.55691784 2:0.39059841 3:0.44441498 4:0.44721337 5:0.44072462 6:0.55094153 7:0.38163123 8:0.4348577 9:0.43859051 10:0.43229448 11:0.54578179 12:0.37354841 13:0.42623434 14:0.43097046 15:0.42466658 
-1 1:0.55094153 2:0.38163123 3:0.4348577 4:0.43859051 5:0.43229448 6:0.54578179 7:0.37354841 8:0.42623434 9:0.43097046 10:0.42466658 11:0.54118175 12:0.36620864 13:0.41836862 14:0.42424749 15:0.4176375 
-1 1:0.54578179 2:0.37354841 3:0.42623434 4:0.43097046 5:0.42466658 6:0.54118175 7:0.36620864 8:0.41836862 9:0.42424749 10:0.4176375 11:0.53685561 12:0.35943692 13:0.41103895 14:0.4182556 15:0.41097952 
-1 1:0.54118175 2:0.36620864 3:0.41836862 4:0.42424749 5:0.4176375 6:0.53685561 7:0.35943692 8:0.41103895 9:0.4182556 10:0.41097952 11:0.53257539 12:0.35306887 13:0.40403299 14:0.4128015 15:0.40450808 
-1 1:0.53685561 2:0.35943692 3:0.41103895 4:0.4182556 5:0.41097952 6:0.53257539 7:0.35306887 8:0.40403299 9:0.4128015 10:0.40450808 11:0.52826626 12:0.34698757 13:0.39720055 14:0.4077408 15:0.39812842 
-0.75711191679122669 1:0.53257539 2:0.35306887 3:0.40403299 4:0.4128015 5:0.40450808 6:0.52826626 7:0.34698757 8:0.39720055 9:0.4077408 10:0.39812842 11:0.52404899 12:0.34115024 13:0.39048705 14:0.40299276 15:0.39185742 
-1 1:0.52826626 2:0.34698757 3:0.39720055 4:0.4077408 5:0.39812842 6:0.52404899 7:0.34115024 8:0.39048705 9:0.40299276 10:0.39185742 11:0.5202281 12:0.33558435 13:0.38393597 14:0.39855399 15:0.38580967 
-1 1:0.41977915 2:0.18232082 3:0.18783237 4:0.23419312 5:0.22732045 6:0.41690072 7:0.18005356 8:0.18505456 9:0.23123583 10:0.22485868 11:0.41406653 12:0.17771292 13:0.18212669 14:0.22819327 15:0.22237012 
-0.49936611412595466 1:0.40978801 2:0.17293442 3:0.17594779 4:0.22281762 5:0.21775121 6:0.40851212 7:0.17048541 8:0.17269971 9:0.22058345 10:0.21561887 11:0.40755434 12:0.16793036 13:0.16930112 14:0.2184266 15:0.2134518 
-1 1:0.40851212 2:0.17048541 3:0.17269971 4:0.22058345 5:0.21561887 6:0.40755434 7:0.16793036 8:0.16930112 9:0.2184266 10:0.2134518 11:0.40654723 12:0.1652055 13:0.16570984 14:0.21604235 15:0.21107041 
-1 1:0.38723863 2:0.135373 3:0.13157687 4:0.18283113 5:0.17926441 6:0.38897556 7:0.13386875 8:0.12995959 9:0.18369751 10:0.17870676 11:0.39120923 12:0.13250943 13:0.12839445 14:0.18508804 15:0.17844233 
-1 1:0.38897556 2:0.13386875 3:0.12995959 4:0.18369751 5:0.17870676 6:0.39120923 7:0.13250943 8:0.12839445 9:0.18508804 10:0.17844233 11:0.39362493 12:0.13125977 13:0.12683692 14:0.18672643 15:0.17827117 
-1 1:0.39120923 2:0.13250943 3:0.12839445 4:0.18508804 5:0.17844233 6:0.39362493 7:0.13125977 8:0.12683692 9:0.18672643 10:0.17827117 11:0.39582798 12:0.13007675 13:0.12524753 14:0.18830228 15:0.17797845 
-1 1:0.39362493 2:0.13125977 3:0.12683692 4:0.18672643 5:0.17827117 6:0.39582798 7:0.13007675 8:0.12524753 9:0.18830228 10:0.17797845 11:0.39740329 12:0.12890695 13:0.1235873 14:0.18948474 15:0.17736921 
-1 1:0.39582798 2:0.13007675 3:0.12524753 4:0.18830228 5:0.17797845 6:0.39740329 7:0.12890695 8:0.1235873 9:0.18948474 10:0.17736921 11:0.3979868 12:0.12769567 13:0.12182027 14:0.18997592 15:0.17629659 
-1 1:0.39740329 2:0.12890695 3:0.1235873 4:0.18948474 5:0.17736921 6:0.3979868 7:0.12769567 8:0.12182027 9:0.18997592 10:0.17629659 11:0.39735396 12:0.12639753 13:0.11992358 14:0.18956092 15:0.17470751 
-1 1:0.3979868 2:0.12769567 3:0.12182027 4:0.18997592 5:0.17629659 6:0.39735396 7:0.12639753 8:0.11992358 9:0.18956092 10:0.17470751 11:0.39549455 12:0.12499413 13:0.11789982 14:0.18818631 15:0.17265108 
-1 1:0.39735396 2:0.12639753 3:0.11992358 4:0.18956092 5:0.17470751 6:0.39549455 7:0.12499413 8:0.11789982 9:0.18818631 10:0.17265108 11:0.39263994 12:0.12349844 13:0.11578425 14:0.18597943 15:0.17028209 
-1 1:0.39549455 2:0.12499413 3:0.11789982 4:0.18818631 5:0.17265108 6:0.39263994 7:0.12349844 8:0.11578425 9:0.18597943 10:0.17028209 11:0.38920522 12:0.121954 13:0.11363951 14:0.18323021 15:0.16782677 
-1 1:0.39263994 2:0.12349844 3:0.11578425 4:0.18597943 5:0.17028209 6:0.38920522 7:0.121954 8:0.11363951 9:0.18323021 10:0.16782677 11:0.38571096 12:0.12042279 13:0.11154211 14:0.18033204 15:0.16553517 
-1 1:0.38920522 2:0.121954 3:0.11363951 4:0.18323021 5:0.16782677 6:0.38571096 7:0.12042279 8:0.11154211 9:0.18033204 10:0.16553517 11:0.38267432 12:0.11896443 13:0.10956352 14:0.17767719 15:0.16362113 
-1 1:0.38571096 2:0.12042279 3:0.11154211 4:0.18033204 5:0.16553517 6:0.38267432 7:0.11896443 8:0.10956352 9:0.17767719 10:0.16362113 11:0.38049338 12:0.11761884 13:0.107753 14:0.17556127 15:0.16221958 
-1 1:0.38267432 2:0.11896443 3:0.10956352 4:0.17767719 5:0.16362113 6:0.38049338 7:0.11761884 8:0.107753 9:0.17556127 10:0.16221958 11:0.37939271 12:0.11639693 13:0.10612593 14:0.17411617 15:0.16135583 
-1 1:0.38049338 2:0.11761884 3:0.107753 4:0.17556127 5:0.16221958 6:0.37939271 7:0.11639693 8:0.10612593 9:0.17411617 10:0.16135583 11:0.3793774 12:0.11527976 13:0.10466262 14:0.17330095 15:0.16096042 
-1 1:0.37939271 2:0.11639693 3:0.10612593 4:0.17411617 5:0.16135583 6:0.3793774 7:0.11527976 8:0.10466262 9:0.17330095 10:0.16096042 11:0.38028243 12:0.11422948 13:0.10331571 14:0.17294053 15:0.16088401 
-1 1:0.3793774 2:0.11527976 3:0.10466262 4:0.17330095 5:0.16096042 6:0.38028243 7:0.11422948 8:0.10331571 9:0.17294053 10:0.16088401 11:0.3817948 12:0.11320383 13:0.10202335 14:0.17278021 15:0.16094206 
-1 1:0.38028243 2:0.11422948 3:0.10331571 4:0.17294053 5:0.16088401 6:0.3817948 7:0.11320383 8:0.10202335 9:0.17278021 10:0.16094206 11:0.38351641 12:0.11216678 13:0.10072418 14:0.17256305 15:0.16094851 
-1 1:0.3817948 2:0.11320383 3:0.10202335 4:0.17278021 5:0.16094206 6:0.38351641 7:0.11216678 8:0.10072418 9:0.17256305 10:0.16094851 11:0.38503388 12:0.11109783 13:0.099368786 14:0.17206619 15:0.16073666 
-1 1:0.38351641 2:0.11216678 3:0.10072418 4:0.17256305 5:0.16094851 6:0.38503388 7:0.11109783 8:0.099368786 9:0.17206619 10:0.16073666 11:0.38596614 12:0.10998999 13:0.097927127 14:0.17114296 15:0.16018845 
-1 1:0.38503388 2:0.11109783 3:0.099368786 4:0.17206619 5:0.16073666 6:0.38596614 7:0.10998999 8:0.097927127 9:0.17114296 10:0.16018845 11:0.38602228 12:0.1088412 13:0.096389119 14:0.16972628 15:0.15923539 
-1 1:0.38596614 2:0.10998999 3:0.097927127 4:0.17114296 5:0.16018845 6:0.38602228 7:0.1088412 8:0.096389119 9:0.16972628 10:0.15923539 11:0.3850628 12:0.1076548 13:0.094762412 14:0.16784117 15:0.15786857 
-1 1:0.38602228 2:0.1088412 3:0.096389119 4:0.16972628 5:0.15923539 6:0.3850628 7:0.1076548 8:0.094762412 9:0.16784117 10:0.15786857 11:0.38311663 12:0.10643082 13:0.09306863 14:0.16557971 15:0.15613859 
-1 1:0.3850628 2:0.1076548 3:0.094762412 4:0.16784117 5:0.15786857 6:0.38311663 7:0.10643082 8:0.09306863 9:0.16557971 10:0.15613859 11:0.38039301 12:0.1051739 13:0.091341838 14:0.16310337 15:0.15414467 
-1 1:0.38311663 2:0.10643082 3:0.09306863 4:0.16557971 5:0.15613859 6:0.38039301 7:0.1051739 8:0.091341838 9:0.16310337 10:0.15414467 11:0.37724239 12:0.10389366 13:0.089626552 14:0.16064408 15:0.15202225 
-1 1:0.38039301 2:0.1051739 3:0.091341838 4:0.16310337 5:0.15414467 6:0.37724239 7:0.10389366 8:0.089626552 9:0.16064408 10:0.15202225 11:0.37411389 12:0.10261419 13:0.087976051 14:0.15846221 15:0.14992861 
-1 1:0.37724239 2:0.10389366 3:0.089626552 4:0.16064408 5:0.15202225 6:0.37411389 7:0.10261419 8:0.087976051 9:0.15846221 10:0.14992861 11:0.3714396 12:0.10137283 13:0.086447168 14:0.15683633 15:0.14801555 
-1 1:0.37411389 2:0.10261419 3:0.087976051 4:0.15846221 5:0.14992861 6:0.3714396 7:0.10137283 8:0.086447168 9:0.15683633 10:0.14801555 11:0.36957849 12:0.10021755 13:0.08508924 14:0.15599155 15:0.14640365 
-1 1:0.3714396 2:0.10137283 3:0.086447168 4:0.15683633 5:0.14801555 6:0.36957849 7:0.10021755 8:0.08508924 9:0.15599155 10:0.14640365 11:0.36872109 12:0.099188529 13:0.083930997 14:0.15604385 15:0.14515887 
-1 1:0.36957849 2:0.10021755 3:0.08508924 4:0.15599155 5:0.14640365 6:0.36872109 7:0.099188529 8:0.083930997 9:0.15604385 10:0.14515887 11:0.3688793 12:0.098305216 13:0.082968948 14:0.15694889 15:0.14427875 
-1 1:0.36872109 2:0.099188529 3:0.083930997 4:0.15604385 5:0.14515887 6:0.3688793 7:0.098305216 8:0.082968948 9:0.15694889 10:0.14427875 11:0.36987791 12:0.097558275 13:0.082165202 14:0.15849632 15:0.14368638 
-1 1:0.3688793 2:0.098305216 3:0.082968948 4:0.15694889 5:0.14427875 6:0.36987791 7:0.097558275 8:0.082165202 9:0.15849632 10:0.14368638 11:0.37140728 12:0.096907004 13:0.081454312 14:0.16037006 15:0.14325723 
-1 1:0.36987791 2:0.097558275 3:0.082165202 4:0.15849632 5:0.14368638 6:0.37140728 7:0.096907004 8:0.081454312 9:0.16037006 10:0.14325723 11:0.37310678 12:0.096292807 13:0.080758993 14:0.16221766 15:0.14284247 
-1 1:0.37140728 2:0.096907004 3:0.081454312 4:0.16037006 5:0.14325723 6:0.37310678 7:0.096292807 8:0.080758993 9:0.16221766 10:0.14284247 11:0.37460894 12:0.095654758 13:0.080006449 14:0.16373667 15:0.14230616 
-1 1:0.37310678 2:0.096292807 3:0.080758993 4:0.16221766 5:0.14284247 6:0.37460894 7:0.095654758 8:0.080006449 9:0.16373667 10:0.14230616 11:0.37559223 12:0.09494204 13:0.079139755 14:0.16472243 15:0.14154461 
-1 1:0.37460894 2:0.095654758 3:0.080006449 4:0.16373667 5:0.14230616 6:0.37559223 7:0.09494204 8:0.079139755 9:0.16472243 10:0.14154461 11:0.37580488 12:0.094120432 13:0.078119908 14:0.16507944 15:0.14049878 
-1 1:0.37559223 2:0.09494204 3:0.079139755 4:0.16472243 5:0.14154461 6:0.37580488 7:0.094120432 8:0.078119908 9:0.16507944 10:0.14049878 11:0.37506146 12:0.093168414 13:0.076921578 14:0.16478383 15:0.13914585 
-1 1:0.37580488 2:0.094120432 3:0.078119908 4:0.16507944 5:0.14049878 6:0.37506146 7:0.093168414 8:0.076921578 9:0.16478383 10:0.13914585 11:0.37325819 12:0.092075615 13:0.075528772 14:0.16385264 15:0.13749327 
-1 1:0.37506146 2:0.093168414 3:0.076921578 4:0.16478383 5:0.13914585 6:0.37325819 7:0.092075615 8:0.075528772 9:0.16385264 10:0.13749327 11:0.37039167 12:0.09084048 13:0.073935044 14:0.16233249 15:0.1355693 
-1 1:0.37325819 2:0.092075615 3:0.075528772 4:0.16385264 5:0.13749327 6:0.37039167 7:0.09084048 8:0.073935044 9:0.16233249 10:0.1355693 11:0.36657758 12:0.089478824 13:0.072151027 14:0.16029275 15:0.13343249 
-1 1:0.37039167 2:0.09084048 3:0.073935044 4:0.16233249 5:0.1355693 6:0.36657758 7:0.089478824 8:0.072151027 9:0.16029275 10:0.13343249 11:0.36207111 12:0.088032389 13:0.070213616 14:0.15786075 15:0.1311791 
-1 1:0.36657758 2:0.089478824 3:0.072151027 4:0.16029275 5:0.13343249 6:0.36207111 7:0.088032389 8:0.070213616 9:0.15786075 10:0.1311791 11:0.35725161 12:0.086572732 13:0.068191692 14:0.15523432 15:0.12894456 
-1 1:0.36207111 2:0.088032389 3:0.070213616 4:0.15786075 5:0.1311791 6:0.35725161 7:0.086572732 8:0.068191692 9:0.15523432 10:0.12894456 11:0.35257162 12:0.085193965 13:0.066181363 14:0.15269999 15:0.12689358 
-1 1:0.35725161 2:0.086572732 3:0.068191692 4:0.15523432 5:0.12894456 6:0.35257162 7:0.085193965 8:0.066181363 9:0.15269999 10:0.12689358 11:0.34847173 12:0.083994608 13:0.064288347 14:0.15058862 15:0.12519188 
-1 1:0.35257162 2:0.085193965 3:0.066181363 4:0.15269999 5:0.12689358 6:0.34847173 7:0.083994608 8:0.064288347 9:0.15058862 10:0.12519188 11:0.34529389 12:0.083051405 13:0.06260354 14:0.14921628 15:0.12397588 
-1 1:0.34847173 2:0.083994608 3:0.064288347 4:0.15058862 5:0.12519188 6:0.34529389 7:0.083051405 8:0.06260354 9:0.14921628 10:0.12397588 11:0.34320142 12:0.0823978 13:0.061178658 14:0.14883653 15:0.12331702 
-1 1:0.34529389 2:0.083051405 3:0.06260354 4:0.14921628 5:0.12397588 6:0.34320142 7:0.0823978 8:0.061178658 9:0.14883653 10:0.12331702 11:0.3421892 12:0.0820102 13:0.060012765 14:0.1495767 15:0.1232173 
-1 1:0.34320142 2:0.0823978 3:0.061178658 4:0.14883653 5:0.12331702 6:0.3421892 7:0.0820102 8:0.060012765 9:0.1495767 10:0.1232173 11:0.34211605 12:0.081816011 13:0.059055957 14:0.15142543 15:0.12361222 
-1 1:0.3421892 2:0.0820102 3:0.060012765 4:0.1495767 5:0.1232173 6:0.34211605 7:0.081816011 8:0.059055957 9:0.15142543 10:0.12361222 11:0.34278632 12:0.081714379 13:0.058230164 14:0.1542838 15:0.12440254 
-1 1:0.34211605 2:0.081816011 3:0.059055957 4:0.15142543 5:0.12361222 6:0.34278632 7:0.081714379 8:0.058230164 9:0.1542838 10:0.12440254 11:0.34404861 12:0.081607563 13:0.0574575 14:0.1580006 15:0.12548012 
-1 1:0.34278632 2:0.081714379 3:0.058230164 4:0.1542838 5:0.12440254 6:0.34404861 7:0.081607563 8:0.0574575 9:0.1580006 10:0.12548012 11:0.34582466 12:0.08142167 13:0.056683512 14:0.16243255 15:0.12675615 
-1 1:0.34404861 2:0.081607563 3:0.0574575 4:0.1580006 5:0.12548012 6:0.34582466 7:0.08142167 8:0.056683512 9:0.16243255 10:0.12675615 11:0.34810937 12:0.081121442 13:0.055884464 14:0.16746369 15:0.12815969 
-1 1:0.34582466 2:0.08142167 3:0.056683512 4:0.16243255 5:0.12675615 6:0.34810937 7:0.081121442 8:0.055884464 9:0.16746369 10:0.12815969 11:0.35087042 12:0.080700656 13:0.055057889 14:0.17297464 15:0.12962325 
-1 1:0.34810937 2:0.081121442 3:0.055884464 4:0.16746369 5:0.12815969 6:0.35087042 7:0.080700656 8:0.055057889 9:0.17297464 10:0.12962325 11:0.35399722 12:0.080162165 13:0.05420017 14:0.1787903 15:0.13104911 
-1 1:0.35087042 2:0.080700656 3:0.055057889 4:0.17297464 5:0.12962325 6:0.35399722 7:0.080162165 8:0.05420017 9:0.1787903 10:0.13104911 11:0.35720058 12:0.079500782 13:0.053289262 14:0.18464234 15:0.13229935 
-1 1:0.35399722 2:0.080162165 3:0.05420017 4:0.1787903 5:0.13104911 6:0.35720058 7:0.079500782 8:0.053289262 9:0.18464234 10:0.13229935 11:0.3600807 12:0.078694988 13:0.052279324 14:0.19016579 15:0.13320626 
-1 1:0.35720058 2:0.079500782 3:0.053289262 4:0.18464234 5:0.13229935 6:0.3600807 7:0.078694988 8:0.052279324 9:0.19016579 10:0.13320626 11:0.36218679 12:0.077712636 13:0.051112347 14:0.19496954 15:0.13361407 
-1 1:0.3600807 2:0.078694988 3:0.052279324 4:0.19016579 5:0.13320626 6:0.36218679 7:0.077712636 8:0.051112347 9:0.19496954 10:0.13361407 11:0.36315137 12:0.076532725 13:0.049740745 14:0.19872499 15:0.13342505 
-1 1:0.36218679 2:0.077712636 3:0.051112347 4:0.19496954 5:0.13361407 6:0.36315137 7:0.076532725 8:0.049740745 9:0.19872499 10:0.13342505 11:0.36279412 12:0.075156809 13:0.048148915 14:0.20123999 15:0.13263572 
-1 1:0.36315137 2:0.076532725 3:0.049740745 4:0.19872499 5:0.13342505 6:0.36279412 7:0.075156809 8:0.048148915 9:0.20123999 10:0.13263572 11:0.36116947 12:0.073614965 13:0.046363904 14:0.20252478 15:0.13132942 
-1 1:0.36279412 2:0.075156809 3:0.048148915 4:0.20123999 5:0.13263572 6:0.36116947 7:0.073614965 8:0.046363904 9:0.20252478 10:0.13132942 11:0.35852241 12:0.071959304 13:0.044452093 14:0.20277037 15:0.12964359 
-1 1:0.36116947 2:0.073614965 3:0.046363904 4:0.20252478 5:0.13132942 6:0.35852241 7:0.071959304 8:0.044452093 9:0.20277037 10:0.12964359 11:0.35518636 12:0.070244012 13:0.042499261 14:0.2022701 15:0.12771318 
-1 1:0.35852241 2:0.071959304 3:0.044452093 4:0.20277037 5:0.12964359 6:0.35518636 7:0.070244012 8:0.042499261 9:0.2022701 10:0.12771318 11:0.35146584 12:0.068512645 13:0.040585162 14:0.20133891 15:0.1256235 
-1 1:0.35518636 2:0.070244012 3:0.042499261 4:0.2022701 5:0.12771318 6:0.35146584 7:0.068512645 8:0.040585162 9:0.20133891 10:0.1256235 11:0.34754968 12:0.066782575 13:0.038760816 14:0.20020989 15:0.12339541 
-1 1:0.35146584 2:0.068512645 3:0.040585162 4:0.20133891 5:0.1256235 6:0.34754968 7:0.066782575 8:0.038760816 9:0.20020989 10:0.12339541 11:0.34349232 12:0.065051727 13:0.037036102 14:0.19898195 15:0.12099169 
